{"learner":{"attributes":{"scikit_learn":"{\"_estimator_type\": \"regressor\"}"},"feature_names":[],"feature_types":[],"gradient_booster":{"model":{"cats":{"enc":[],"feature_segments":[],"sorted_idx":[]},"gbtree_model_param":{"num_parallel_tree":"1","num_trees":"300"},"iteration_indptr":[0,1,2,3,4,5,6,7,8,9,10,11,12,13,14,15,16,17,18,19,20,21,22,23,24,25,26,27,28,29,30,31,32,33,34,35,36,37,38,39,40,41,42,43,44,45,46,47,48,49,50,51,52,53,54,55,56,57,58,59,60,61,62,63,64,65,66,67,68,69,70,71,72,73,74,75,76,77,78,79,80,81,82,83,84,85,86,87,88,89,90,91,92,93,94,95,96,97,98,99,100,101,102,103,104,105,106,107,108,109,110,111,112,113,114,115,116,117,118,119,120,121,122,123,124,125,126,127,128,129,130,131,132,133,134,135,136,137,138,139,140,141,142,143,144,145,146,147,148,149,150,151,152,153,154,155,156,157,158,159,160,161,162,163,164,165,166,167,168,169,170,171,172,173,174,175,176,177,178,179,180,181,182,183,184,185,186,187,188,189,190,191,192,193,194,195,196,197,198,199,200,201,202,203,204,205,206,207,208,209,210,211,212,213,214,215,216,217,218,219,220,221,222,223,224,225,226,227,228,229,230,231,232,233,234,235,236,237,238,239,240,241,242,243,244,245,246,247,248,249,250,251,252,253,254,255,256,257,258,259,260,261,262,263,264,265,266,267,268,269,270,271,272,273,274,275,276,277,278,279,280,281,282,283,284,285,286,287,288,289,290,291,292,293,294,295,296,297,298,299,300],"tree_info":[0,0,0,0,0,0,0,0,0,0,0,0,0,0,0,0,0,0,0,0,0,0,0,0,0,0,0,0,0,0,0,0,0,0,0,0,0,0,0,0,0,0,0,0,0,0,0,0,0,0,0,0,0,0,0,0,0,0,0,0,0,0,0,0,0,0,0,0,0,0,0,0,0,0,0,0,0,0,0,0,0,0,0,0,0,0,0,0,0,0,0,0,0,0,0,0,0,0,0,0,0,0,0,0,0,0,0,0,0,0,0,0,0,0,0,0,0,0,0,0,0,0,0,0,0,0,0,0,0,0,0,0,0,0,0,0,0,0,0,0,0,0,0,0,0,0,0,0,0,0,0,0,0,0,0,0,0,0,0,0,0,0,0,0,0,0,0,0,0,0,0,0,0,0,0,0,0,0,0,0,0,0,0,0,0,0,0,0,0,0,0,0,0,0,0,0,0,0,0,0,0,0,0,0,0,0,0,0,0,0,0,0,0,0,0,0,0,0,0,0,0,0,0,0,0,0,0,0,0,0,0,0,0,0,0,0,0,0,0,0,0,0,0,0,0,0,0,0,0,0,0,0,0,0,0,0,0,0,0,0,0,0,0,0,0,0,0,0,0,0,0,0,0,0,0,0,0,0,0,0,0,0,0,0,0,0,0,0,0,0,0,0,0,0,0,0,0,0,0,0],"trees":[{"base_weights":[5.8045756E-2,6.7473E0,-1.3697368E1,2.7668672E0,1.7654161E1,-1.2053436E1,-1.5085063E1,6.1589947E0,-5.975362E-1,1.1077415E1,2.2424492E1,1.2297463E0,-1.218149E1,-1.4235919E1,-1.6064045E1,3.3817463E0,1.1356878E1,-5.376862E0,1.3383507E0,6.0869837E0,1.5288318E1,2.3177912E1,1.2840757E1,-7.984794E0,-1.2757641E1,-6.112322E-1,-1.4333079E1,-7.848201E-1,-8.238311E-1,3.9237423E0,-7.0313835E-1,1.5736144E0,1.6091377E1,-6.699252E0,-1.8791815E0,5.682291E0,-2.6044014E0,1.9785692E1,3.74641E0,7.9556775E0,1.6435444E1,1.9835197E1,2.4506393E1,-4.778935E0,1.5323489E1,-6.8543043E0,-7.3922807E-1,-1.2482001E1,-1.5534469E1,-7.39617E-1,-6.958101E-1,2.3947422E-1,-1.9459948E-2,2.721234E-1,-9.4468586E-2,6.3796186E-1,9.8166007E-1,-4.629526E-1,-2.669732E-1,-1.8427728E-1,2.534037E-1,-7.188206E-2,3.5527194E-1,-2.0123295E-1,3.086207E-1,1.0433145E0,3.2794586E-1,-2.1561432E-1,2.8582639E-1,5.8896434E-1,2.7993828E-2,1.0979474E0,7.478938E-1,-1.13228016E-1,1.0100983E0,1.0310323E0,1.244925E0,7.591787E-1,-7.5568384E-1,4.7728354E-1,9.6751356E-1,-3.592052E-1,8.659331E-1,-5.88247E-1,-6.391544E-1,-4.0077907E-1,-7.839779E-1],"categories":[],"categories_nodes":[],"categories_segments":[],"categories_sizes":[],"default_left":[0,0,0,0,0,0,0,0,0,0,0,0,0,0,0,0,0,0,0,0,0,0,0,0,0,0,0,0,0,0,0,0,0,0,0,0,0,0,0,0,0,0,0,0,0,0,0,0,0,0,0,0,0,0,0,0,0,0,0,0,0,0,0,0,0,0,0,0,0,0,0,0,0,0,0,0,0,0,0,0,0,0,0,0,0,0,0],"id":0,"left_children":[1,3,5,7,9,11,13,15,17,19,21,-1,23,25,27,29,31,33,35,37,39,41,43,45,47,-1,49,-1,-1,51,-1,53,55,57,59,61,63,65,67,69,71,73,75,77,79,81,-1,83,85,-1,-1,-1,-1,-1,-1,-1,-1,-1,-1,-1,-1,-1,-1,-1,-1,-1,-1,-1,-1,-1,-1,-1,-1,-1,-1,-1,-1,-1,-1,-1,-1,-1,-1,-1,-1,-1,-1],"loss_changes":[2.0563165E6,6.5272244E5,1.6496125E4,1.2573558E5,1.2586875E5,1.6029156E4,3.0610625E3,7.9155016E4,5.1190957E4,3.5460875E4,1.65155E4,0E0,7.9743438E3,2.38375E2,1.60625E1,3.3874184E4,8.844192E4,7.3639023E3,6.746155E4,2.480429E4,7.5801094E3,9.092625E3,7.598422E3,3.0174473E3,2.0505312E3,0E0,1.791875E2,0E0,0E0,1.2958926E4,0E0,8.370857E3,1.493525E4,3.976371E3,5.5276704E3,1.8999492E4,2.5765559E4,1.4754844E3,1.0566839E4,3.5552808E3,6.1316406E3,5.0648594E3,1.828375E3,4.768235E3,3.3255664E3,2.9136855E3,0E0,4.24875E2,1.5667578E2,0E0,0E0,0E0,0E0,0E0,0E0,0E0,0E0,0E0,0E0,0E0,0E0,0E0,0E0,0E0,0E0,0E0,0E0,0E0,0E0,0E0,0E0,0E0,0E0,0E0,0E0,0E0,0E0,0E0,0E0,0E0,0E0,0E0,0E0,0E0,0E0,0E0,0E0],"parents":[2147483647,0,0,1,1,2,2,3,3,4,4,5,5,6,6,7,7,8,8,9,9,10,10,12,12,13,13,14,14,15,15,16,16,17,17,18,18,19,19,20,20,21,21,22,22,23,23,24,24,26,26,29,29,31,31,32,32,33,33,34,34,35,35,36,36,37,37,38,38,39,39,40,40,41,41,42,42,43,43,44,44,45,45,47,47,48,48],"right_children":[2,4,6,8,10,12,14,16,18,20,22,-1,24,26,28,30,32,34,36,38,40,42,44,46,48,-1,50,-1,-1,52,-1,54,56,58,60,62,64,66,68,70,72,74,76,78,80,82,-1,84,86,-1,-1,-1,-1,-1,-1,-1,-1,-1,-1,-1,-1,-1,-1,-1,-1,-1,-1,-1,-1,-1,-1,-1,-1,-1,-1,-1,-1,-1,-1,-1,-1,-1,-1,-1,-1,-1,-1],"split_conditions":[2.4180338E-1,-5.1491287E-2,1.2410729E0,7.25077E-2,-1.819216E-1,-6.88573E-1,1.4329565E0,-6.368222E-1,-4.3507174E-1,-3.9998525E-1,1.5508925E-2,1.2297463E0,5.710015E-1,1.5176351E0,1.5944525E0,9.098258E-1,-3.731851E-1,-1.9851078E-1,1.4780273E-1,-1.7836471E-1,-3.0673662E-1,-1.1658323E-1,-5.09626E-1,5.142633E-1,1.6641732E0,-6.112322E-1,1.4554662E0,-7.848201E-1,-8.238311E-1,-1.0957433E-1,-7.0313835E-1,4.1997305E-1,-6.1456966E-1,-3.4238073E-1,4.411105E-1,-1.1724831E0,-3.274975E-1,-2.1453533E-1,1.0256924E-1,-1.9149269E-1,-3.8891193E-2,-2.2252198E-1,-3.0218396E-1,-5.2123874E-1,1.4998635E0,8.850514E-1,-7.3922807E-1,5.018405E-1,-1.2174294E0,-7.39617E-1,-6.958101E-1,2.3947422E-1,-1.9459948E-2,2.721234E-1,-9.4468586E-2,6.3796186E-1,9.8166007E-1,-4.629526E-1,-2.669732E-1,-1.8427728E-1,2.534037E-1,-7.188206E-2,3.5527194E-1,-2.0123295E-1,3.086207E-1,1.0433145E0,3.2794586E-1,-2.1561432E-1,2.8582639E-1,5.8896434E-1,2.7993828E-2,1.0979474E0,7.478938E-1,-1.13228016E-1,1.0100983E0,1.0310323E0,1.244925E0,7.591787E-1,-7.5568384E-1,4.7728354E-1,9.6751356E-1,-3.592052E-1,8.659331E-1,-5.88247E-1,-6.391544E-1,-4.0077907E-1,-7.839779E-1],"split_indices":[12,16,43,17,2,9,45,32,11,40,6,0,12,44,44,43,18,16,8,17,2,2,14,19,11,0,43,0,0,17,0,2,32,21,18,16,16,1,18,26,19,18,40,33,27,8,0,45,37,0,0,0,0,0,0,0,0,0,0,0,0,0,0,0,0,0,0,0,0,0,0,0,0,0,0,0,0,0,0,0,0,0,0,0,0,0,0],"split_type":[0,0,0,0,0,0,0,0,0,0,0,0,0,0,0,0,0,0,0,0,0,0,0,0,0,0,0,0,0,0,0,0,0,0,0,0,0,0,0,0,0,0,0,0,0,0,0,0,0,0,0,0,0,0,0,0,0,0,0,0,0,0,0,0,0,0,0,0,0,0,0,0,0,0,0,0,0,0,0,0,0,0,0,0,0,0,0],"sum_hessian":[2.2346E4,1.5035E4,7.311E3,1.1016E4,4.019E3,3.351E3,3.96E3,5.485E3,5.531E3,1.691E3,2.328E3,1.1E1,3.34E3,2.129E3,1.831E3,3.576E3,1.909E3,1.594E3,3.937E3,7.75E2,9.16E2,2.157E3,1.71E2,4.05E2,2.935E3,1.04E2,2.025E3,9.89E2,8.42E2,3.469E3,1.07E2,6.23E2,1.286E3,1.156E3,4.38E2,1.873E3,2.064E3,1.12E2,6.63E2,1.25E2,7.91E2,6.18E2,1.539E3,2.1E1,1.5E2,3.49E2,5.6E1,2.675E3,2.6E2,9.47E2,1.078E3,2.889E3,5.8E2,2.94E2,3.29E2,6.65E2,6.21E2,3.99E2,7.57E2,3.48E2,9E1,3.12E2,1.561E3,1.777E3,2.87E2,1.03E2,9E0,1.3E2,5.33E2,8.2E1,4.3E1,1.64E2,6.27E2,1E1,6.08E2,1.46E2,1.393E3,7E0,1.4E1,6.3E1,8.7E1,3.45E2,4E0,8.03E2,1.872E3,6E0,2.54E2],"tree_param":{"num_deleted":"0","num_feature":"46","num_nodes":"87","size_leaf_vector":"1"}},{"base_weights":[-4.083218E-2,6.335941E0,-1.2991597E1,2.2948682E0,1.619149E1,2.1599184E1,-1.3064429E1,5.672582E0,-6.2150824E-1,9.120368E0,2.0700804E1,-3.934504E-1,1.20475E0,-1.1566443E1,-1.4341652E1,3.3251157E0,1.1884555E1,-5.9075737E0,1.3880068E0,2.0137882E1,7.353709E0,1.805984E1,2.337381E1,-7.206865E0,-1.2092742E1,-1.353017E1,-1.5240334E1,6.0387993E0,6.0635537E-2,6.521509E0,1.7029411E1,-5.2518005E0,-1.140295E1,1.01485815E1,-4.9419403E-1,-6.6326034E-1,2.0771406E1,3.3503919E0,1.3521562E1,1.0342906E1,1.9722914E1,2.0094376E1,2.3999123E1,-6.2847953E0,-7.0459217E-1,-1.1790917E1,-1.4504281E1,-5.797133E-1,-1.3623602E1,-7.45107E-1,-7.823252E-1,3.5632572E-1,-6.6636485E-1,-7.492674E-2,2.276752E-1,7.079486E-1,1.4942414E-1,7.5765467E-1,1.1171272E0,-1.6732916E-1,-4.034278E-1,-5.882529E-1,6.2006515E-1,5.748214E-1,-4.9407154E-1,-1.0907216E-1,3.0516487E-1,1.1285926E0,8.992306E-1,6.1545664E-1,1.073506E-1,5.006036E-1,7.2805893E-1,6.1056703E-1,-3.9872038E-1,6.996431E-1,1.0596502E0,1.1351761E0,8.575096E-1,1.1410598E0,1.2442505E0,-1.1299884E-1,-3.7217638E-1,-5.4376733E-1,-6.0540575E-1,-2.1745716E-1,-7.2759557E-1,-7.024614E-1,-6.613824E-1],"categories":[],"categories_nodes":[],"categories_segments":[],"categories_sizes":[],"default_left":[0,0,0,0,0,0,0,0,0,0,0,0,0,0,0,0,0,0,0,0,0,0,0,0,0,0,0,0,0,0,0,0,0,0,0,0,0,0,0,0,0,0,0,0,0,0,0,0,0,0,0,0,0,0,0,0,0,0,0,0,0,0,0,0,0,0,0,0,0,0,0,0,0,0,0,0,0,0,0,0,0,0,0,0,0,0,0,0,0],"id":1,"left_children":[1,3,5,7,9,11,13,15,17,19,21,-1,-1,23,25,27,29,31,33,35,37,39,41,43,45,47,49,51,53,55,57,59,61,63,65,-1,67,69,71,73,75,77,79,81,-1,83,85,-1,87,-1,-1,-1,-1,-1,-1,-1,-1,-1,-1,-1,-1,-1,-1,-1,-1,-1,-1,-1,-1,-1,-1,-1,-1,-1,-1,-1,-1,-1,-1,-1,-1,-1,-1,-1,-1,-1,-1,-1,-1],"loss_changes":[1.8615282E6,6.015079E5,1.90175E4,1.05534414E5,1.39851E5,1.367981E3,1.403175E4,7.2345984E4,6.1087613E4,3.317186E4,1.8499875E4,0E0,0E0,7.7601875E3,2.7095E3,3.1926012E4,3.7439438E4,5.646746E3,6.871632E4,5.2704453E3,3.64229E4,1.7157156E4,2.23875E3,2.264666E3,2.0470938E3,2.215E2,2.35E1,4.1549883E4,1.1474556E4,1.7980854E4,6.57625E3,7.5762305E3,1.5939473E3,2.0010828E4,3.8205484E4,0E0,7.540469E2,9.642477E3,1.9715469E3,8.380176E3,9.0670625E3,1.2889531E3,5.86625E2,1.5165596E3,0E0,6.550625E2,9.6859375E1,0E0,1.5003125E2,0E0,0E0,0E0,0E0,0E0,0E0,0E0,0E0,0E0,0E0,0E0,0E0,0E0,0E0,0E0,0E0,0E0,0E0,0E0,0E0,0E0,0E0,0E0,0E0,0E0,0E0,0E0,0E0,0E0,0E0,0E0,0E0,0E0,0E0,0E0,0E0,0E0,0E0,0E0,0E0],"parents":[2147483647,0,0,1,1,2,2,3,3,4,4,5,5,6,6,7,7,8,8,9,9,10,10,13,13,14,14,15,15,16,16,17,17,18,18,19,19,20,20,21,21,22,22,23,23,24,24,25,25,26,26,27,27,28,28,29,29,30,30,31,31,32,32,33,33,34,34,36,36,37,37,38,38,39,39,40,40,41,41,42,42,43,43,45,45,46,46,48,48],"right_children":[2,4,6,8,10,12,14,16,18,20,22,-1,-1,24,26,28,30,32,34,36,38,40,42,44,46,48,50,52,54,56,58,60,62,64,66,-1,68,70,72,74,76,78,80,82,-1,84,86,-1,88,-1,-1,-1,-1,-1,-1,-1,-1,-1,-1,-1,-1,-1,-1,-1,-1,-1,-1,-1,-1,-1,-1,-1,-1,-1,-1,-1,-1,-1,-1,-1,-1,-1,-1,-1,-1,-1,-1,-1,-1],"split_conditions":[2.4180338E-1,-1.0492271E-1,-6.2323654E-1,5.7192177E-1,-2.0384385E-1,9.1426307E-1,1.2410729E0,-6.4487344E-1,-4.3507174E-1,3.848016E-2,2.9115342E-3,-3.934504E-1,1.20475E0,5.4154235E-1,1.4329565E0,-7.3100716E-2,-6.335745E-1,-1.4577615E-1,-4.6334738E-1,-3.9253253E-1,-3.3362114E-1,-1.2363379E-2,-4.5530382E-1,5.142633E-1,1.4169815E0,1.5176351E0,1.5944525E0,9.098258E-1,-7.6958585E-1,-2.5606832E-2,1.9674795E-3,-2.8666705E-1,-2.9667944E-1,-2.9692537E-1,-3.274975E-1,-6.6326034E-1,8.208696E-1,-6.99188E-1,-3.927073E-1,-5.2123874E-1,-3.0880025E-1,-3.6549038E-1,2.0488645E-3,1.2580036E-1,-7.0459217E-1,4.9259737E-1,-1.3639857E0,-5.797133E-1,1.4554662E0,-7.45107E-1,-7.823252E-1,3.5632572E-1,-6.6636485E-1,-7.492674E-2,2.276752E-1,7.079486E-1,1.4942414E-1,7.5765467E-1,1.1171272E0,-1.6732916E-1,-4.034278E-1,-5.882529E-1,6.2006515E-1,5.748214E-1,-4.9407154E-1,-1.0907216E-1,3.0516487E-1,1.1285926E0,8.992306E-1,6.1545664E-1,1.073506E-1,5.006036E-1,7.2805893E-1,6.1056703E-1,-3.9872038E-1,6.996431E-1,1.0596502E0,1.1351761E0,8.575096E-1,1.1410598E0,1.2442505E0,-1.1299884E-1,-3.7217638E-1,-5.4376733E-1,-6.0540575E-1,-2.1745716E-1,-7.2759557E-1,-7.024614E-1,-6.613824E-1],"split_indices":[12,16,10,19,2,2,43,16,11,19,36,0,0,12,45,6,32,36,31,2,40,5,12,19,11,44,44,43,16,19,14,13,21,36,16,0,39,31,11,33,11,35,2,35,0,45,36,0,43,0,0,0,0,0,0,0,0,0,0,0,0,0,0,0,0,0,0,0,0,0,0,0,0,0,0,0,0,0,0,0,0,0,0,0,0,0,0,0,0],"split_type":[0,0,0,0,0,0,0,0,0,0,0,0,0,0,0,0,0,0,0,0,0,0,0,0,0,0,0,0,0,0,0,0,0,0,0,0,0,0,0,0,0,0,0,0,0,0,0,0,0,0,0,0,0,0,0,0,0,0,0,0,0,0,0,0,0,0,0,0,0,0,0,0,0,0,0,0,0,0,0,0,0,0,0,0,0,0,0,0,0],"sum_hessian":[2.2539E4,1.5103E4,7.436E3,1.0712E4,4.391E3,1.5E1,7.421E3,4.963E3,5.749E3,1.711E3,2.68E3,1E0,1.4E1,3.42E3,4.001E3,3.603E3,1.36E3,1.583E3,4.166E3,2.35E2,1.476E3,1.352E3,1.328E3,3.7E2,3.05E3,2.111E3,1.89E3,1.967E3,1.636E3,6.67E2,6.93E2,1.416E3,1.67E2,7.36E2,3.43E3,4E0,2.31E2,8.96E2,5.8E2,2.41E2,1.111E3,2.18E2,1.11E3,3.28E2,4.2E1,2.716E3,3.34E2,1.03E2,2.008E3,1.052E3,8.38E2,1.863E3,1.04E2,1.215E3,4.21E2,2.1E2,4.57E2,5.15E2,1.78E2,8.46E2,5.7E2,1.65E2,2E0,6.9E2,4.6E1,2.732E3,6.98E2,1.36E2,9.5E1,1.05E2,7.91E2,1.35E2,4.45E2,2.19E2,2.2E1,2.29E2,8.82E2,1.12E2,1.06E2,4.88E2,6.22E2,7.4E1,2.54E2,7.08E2,2.008E3,2E0,3.32E2,9.51E2,1.057E3],"tree_param":{"num_deleted":"0","num_feature":"46","num_nodes":"89","size_leaf_vector":"1"}},{"base_weights":[5.7277977E-3,5.8817077E0,-1.2370542E1,2.3703504E0,1.6516806E1,2.130743E1,-1.249087E1,5.243151E0,-5.296802E-1,6.59507E0,1.8801256E1,1.1636444E0,-1.4853721E0,-1.1080689E1,-1.3632928E1,4.2663217E0,1.8602001E1,-5.496328E0,9.769492E-1,1.818516E1,3.6959572E0,1.6280937E1,2.1971228E1,-1.0735613E-1,-1.546774E-3,-1.1163675E1,1.4104202E1,-1.2848143E1,-1.4494313E1,2.8888133E0,1.3406021E1,1.2888551E1,2.0475046E1,-6.6565156E0,-2.3685923E0,-1.3959492E0,6.846051E0,1.2969763E1,2.0820864E1,-5.094932E0,5.8279586E0,1.2731774E1,1.8848194E1,2.238136E1,1.0606246E1,-1.12286825E1,1.3164555E1,8.9325565E-1,-1.8465991E0,-6.639435E-1,-1.2464436E1,-7.0801276E-1,-7.437802E-1,2.6543146E-1,2.463047E-2,2.0628905E-1,7.367851E-1,-3.4677544E-1,6.7906696E-1,9.090538E-1,1.10297E0,-3.1194803E-1,-6.211405E-1,-1.6155414E-1,3.4290576E-1,7.431765E-2,-2.5276676E-1,1.4563328E-1,5.124081E-1,2.4759415E-1,7.423968E-1,1.0770932E0,6.7721134E-1,-3.267328E-1,4.289217E-1,1.13134205E-1,4.1265497E-1,9.8078233E-1,5.914158E-1,1.0065798E0,5.1812714E-1,1.0618705E0,1.1877588E0,-4.98131E-1,5.8478075E-1,-5.4520726E-1,-6.9106877E-1,9.65161E-1,3.2020837E-2,-1.3558027E-1,-4.146671E-4,-5.045272E-1,-6.2807477E-1],"categories":[],"categories_nodes":[],"categories_segments":[],"categories_sizes":[],"default_left":[0,0,0,0,0,0,0,0,0,0,0,0,0,0,0,0,0,0,0,0,0,0,0,0,0,0,0,0,0,0,0,0,0,0,0,0,0,0,0,0,0,0,0,0,0,0,0,0,0,0,0,0,0,0,0,0,0,0,0,0,0,0,0,0,0,0,0,0,0,0,0,0,0,0,0,0,0,0,0,0,0,0,0,0,0,0,0,0,0,0,0,0,0],"id":2,"left_children":[1,3,5,7,9,11,13,15,17,19,21,-1,23,25,27,29,31,33,35,37,39,41,43,-1,-1,45,47,49,51,53,55,57,59,61,63,65,67,69,71,73,75,77,79,81,83,85,87,-1,89,-1,91,-1,-1,-1,-1,-1,-1,-1,-1,-1,-1,-1,-1,-1,-1,-1,-1,-1,-1,-1,-1,-1,-1,-1,-1,-1,-1,-1,-1,-1,-1,-1,-1,-1,-1,-1,-1,-1,-1,-1,-1,-1,-1],"loss_changes":[1.6264428E6,5.662751E5,2.9442625E4,9.499572E4,8.5187125E4,1.2015029E3,1.1401875E4,7.466484E4,4.2471266E4,2.3652895E4,2.407775E4,0E0,2.6031952E0,6.8785938E3,2.488E3,6.717773E4,3.906375E3,4.776926E3,6.066124E4,1.6648008E3,1.0637846E4,1.5319531E4,6.0611875E3,0E0,0E0,5.217875E3,6.9447656E2,1.7584375E2,2.590625E1,2.6907055E4,8.56282E3,1.4545117E3,6.561875E2,2.239289E3,2.8786992E3,3.272608E4,1.6749621E4,6.7744336E2,1.8739453E2,2.2409844E3,3.9229834E3,4.2427344E3,1.05590625E4,1.540375E3,1.2146401E3,2.5376562E3,6.77577E2,0E0,4.475959E0,0E0,1.2835938E2,0E0,0E0,0E0,0E0,0E0,0E0,0E0,0E0,0E0,0E0,0E0,0E0,0E0,0E0,0E0,0E0,0E0,0E0,0E0,0E0,0E0,0E0,0E0,0E0,0E0,0E0,0E0,0E0,0E0,0E0,0E0,0E0,0E0,0E0,0E0,0E0,0E0,0E0,0E0,0E0,0E0,0E0],"parents":[2147483647,0,0,1,1,2,2,3,3,4,4,5,5,6,6,7,7,8,8,9,9,10,10,12,12,13,13,14,14,15,15,16,16,17,17,18,18,19,19,20,20,21,21,22,22,25,25,26,26,27,27,28,28,29,29,30,30,31,31,32,32,33,33,34,34,35,35,36,36,37,37,38,38,39,39,40,40,41,41,42,42,43,43,44,44,45,45,46,46,48,48,50,50],"right_children":[2,4,6,8,10,12,14,16,18,20,22,-1,24,26,28,30,32,34,36,38,40,42,44,-1,-1,46,48,50,52,54,56,58,60,62,64,66,68,70,72,74,76,78,80,82,84,86,88,-1,90,-1,92,-1,-1,-1,-1,-1,-1,-1,-1,-1,-1,-1,-1,-1,-1,-1,-1,-1,-1,-1,-1,-1,-1,-1,-1,-1,-1,-1,-1,-1,-1,-1,-1,-1,-1,-1,-1,-1,-1,-1,-1,-1,-1],"split_conditions":[-1.1144093E-1,-1.6564216E-2,-6.2852424E-1,7.25077E-2,-3.9998525E-1,4.3761376E-2,1.2410729E0,2.1185197E-1,-4.507839E-1,-1.5310504E-1,3.91324E-2,1.1636444E0,-5.6458294E-1,1.3285875E0,1.4329565E0,-2.8163108E-1,-4.9989578E-1,-1.7296089E-1,-3.2086903E-1,-3.3454376E-1,1.0256924E-1,-3.0880025E-1,9.197251E-1,-1.0735613E-1,-1.546774E-3,7.2016597E-1,3.5437682E0,1.4554662E0,1.5944525E0,1.496891E-1,-6.6025007E-1,-2.4898222E-1,-2.8017154E-1,-8.9752994E-2,6.275048E-1,1.824901E-1,-3.9849982E-1,5.1566374E-1,-5.7601553E-1,3.9045434E-2,1.4052783E-1,-2.5838676E-1,2.9206413E-1,-2.9863208E-3,-3.271684E-1,1.4169815E0,7.419819E-1,8.9325565E-1,3.022697E-1,-6.639435E-1,1.5176351E0,-7.0801276E-1,-7.437802E-1,2.6543146E-1,2.463047E-2,2.0628905E-1,7.367851E-1,-3.4677544E-1,6.7906696E-1,9.090538E-1,1.10297E0,-3.1194803E-1,-6.211405E-1,-1.6155414E-1,3.4290576E-1,7.431765E-2,-2.5276676E-1,1.4563328E-1,5.124081E-1,2.4759415E-1,7.423968E-1,1.0770932E0,6.7721134E-1,-3.267328E-1,4.289217E-1,1.13134205E-1,4.1265497E-1,9.8078233E-1,5.914158E-1,1.0065798E0,5.1812714E-1,1.0618705E0,1.1877588E0,-4.98131E-1,5.8478075E-1,-5.4520726E-1,-6.9106877E-1,9.65161E-1,3.2020837E-2,-1.3558027E-1,-4.146671E-4,-5.045272E-1,-6.2807477E-1],"split_indices":[13,16,9,17,40,8,43,14,11,17,36,0,0,34,45,36,31,16,16,36,18,11,19,0,0,14,14,43,44,8,16,5,11,36,18,8,11,38,31,7,16,19,8,2,2,11,2,0,0,0,44,0,0,0,0,0,0,0,0,0,0,0,0,0,0,0,0,0,0,0,0,0,0,0,0,0,0,0,0,0,0,0,0,0,0,0,0,0,0,0,0,0,0],"split_type":[0,0,0,0,0,0,0,0,0,0,0,0,0,0,0,0,0,0,0,0,0,0,0,0,0,0,0,0,0,0,0,0,0,0,0,0,0,0,0,0,0,0,0,0,0,0,0,0,0,0,0,0,0,0,0,0,0,0,0,0,0,0,0,0,0,0,0,0,0,0,0,0,0,0,0,0,0,0,0,0,0,0,0,0,0,0,0,0,0,0,0,0,0],"sum_hessian":[2.2363E4,1.5164E4,7.199E3,1.1401E4,3.763E3,2.5E1,7.174E3,5.727E3,5.674E3,7.05E2,3.058E3,2.3E1,2E0,3.215E3,3.959E3,5.338E3,3.89E2,1.32E3,4.354E3,1.4E2,5.65E2,1.707E3,1.351E3,1E0,1E0,3.205E3,1E1,2.08E3,1.879E3,4.64E3,6.98E2,9.8E1,2.91E2,9.62E2,3.58E2,3.101E3,1.253E3,4.9E1,9.1E1,1.1E2,4.55E2,7.19E2,9.88E2,1.303E3,4.8E1,3.197E3,8E0,8E0,2E0,9.64E2,1.116E3,1.022E3,8.57E2,2.308E3,2.332E3,8.8E1,6.1E2,3E0,9.5E1,1.24E2,1.67E2,8.99E2,6.3E1,3.28E2,3E1,1.735E3,1.366E3,5.82E2,6.71E2,1E1,3.9E1,8.1E1,1E1,1E2,1E1,1.85E2,2.7E2,8.1E1,6.38E2,8.57E2,1.31E2,7.2E2,5.83E2,2E0,4.6E1,2.846E3,3.51E2,5E0,3E0,1E0,1E0,4.8E1,1.068E3],"tree_param":{"num_deleted":"0","num_feature":"46","num_nodes":"93","size_leaf_vector":"1"}},{"base_weights":[2.3464032E-2,5.541399E0,-1.1865667E1,1.930216E0,1.4774818E1,1.9558945E1,-1.1966021E1,4.353208E0,-1.1635357E0,9.301081E0,1.924411E1,1.1110102E0,-5.556178E0,-1.0701965E1,-1.2948896E1,3.4675593E0,1.7371954E1,-7.316241E0,-1.2707515E-2,1.3993118E1,5.8073545E0,2.0006945E1,1.2264313E1,-4.1270524E-1,-1.5081024E-3,9.6523154E-1,-1.0756622E1,-1.22207365E1,-1.3766789E1,2.4491572E0,1.0435389E1,1.3709952E1,1.9480627E1,-1.2830509E0,-1.1166723E1,-1.9824439E0,3.9867444E0,1.7961245E1,9.742459E0,1.6196442E1,4.4869666E0,2.1187733E1,1.7450836E1,-2.8437836E0,1.4068323E1,-1.0463031E1,-1.3093357E1,-6.3089263E-1,-1.185042E1,-6.725745E-1,-7.0680743E-1,2.4008127E-1,-3.5636842E-3,6.092515E-1,-3.6207002E-1,-3.181373E-1,6.9458514E-1,8.464581E-1,1.0130838E0,1.2748289E-1,-4.4491553E-1,-6.344575E-1,-4.2970815E-1,7.821404E-2,-2.1183895E-1,-4.36354E-2,4.3491045E-1,1.023663E0,8.010727E-1,1.0584642E-2,5.612368E-1,8.5285294E-1,3.3312726E-1,-6.960823E-2,3.042704E-1,1.1286608E0,9.832578E-1,6.914934E-1,1.0613316E0,6.1105365E-1,-6.5146935E-1,7.409608E-1,-7.020187E-1,-3.9995694E-1,-5.404157E-1,-2.1640511E-1,-6.578932E-1,-5.965523E-1,-4.7840628E-1],"categories":[],"categories_nodes":[],"categories_segments":[],"categories_sizes":[],"default_left":[0,0,0,0,0,0,0,0,0,0,0,0,0,0,0,0,0,0,0,0,0,0,0,0,0,0,0,0,0,0,0,0,0,0,0,0,0,0,0,0,0,0,0,0,0,0,0,0,0,0,0,0,0,0,0,0,0,0,0,0,0,0,0,0,0,0,0,0,0,0,0,0,0,0,0,0,0,0,0,0,0,0,0,0,0,0,0,0,0],"id":3,"left_children":[1,3,5,7,9,11,13,15,17,19,21,-1,23,25,27,29,31,33,35,37,39,41,43,-1,-1,-1,45,47,49,51,53,55,57,59,61,63,65,67,69,71,73,75,77,79,81,83,85,-1,87,-1,-1,-1,-1,-1,-1,-1,-1,-1,-1,-1,-1,-1,-1,-1,-1,-1,-1,-1,-1,-1,-1,-1,-1,-1,-1,-1,-1,-1,-1,-1,-1,-1,-1,-1,-1,-1,-1,-1,-1],"loss_changes":[1.470829E6,5.1055984E5,2.2645562E4,8.253034E4,1.0513456E5,1.6623955E3,8.6615E3,7.11241E4,3.4241465E4,3.1669406E4,1.2365E4,0E0,4.364897E1,5.2992188E3,2.2000625E3,4.100253E4,2.7643281E3,1.7686215E4,3.211001E4,1.37545E4,1.5179254E4,6.0673125E3,6.4733516E3,0E0,0E0,0E0,1.9873438E3,1.5903125E2,2.45E1,2.9919725E4,2.2882695E4,6.2542773E2,1.4550781E2,8.72107E3,1.7100117E3,2.1842621E4,3.0802334E4,1.7441562E3,5.661496E3,9.096172E2,9.293617E3,2.6211875E3,8.999922E3,4.148875E3,4.6616367E3,2.2589062E3,1.346836E2,0E0,8.8125E1,0E0,0E0,0E0,0E0,0E0,0E0,0E0,0E0,0E0,0E0,0E0,0E0,0E0,0E0,0E0,0E0,0E0,0E0,0E0,0E0,0E0,0E0,0E0,0E0,0E0,0E0,0E0,0E0,0E0,0E0,0E0,0E0,0E0,0E0,0E0,0E0,0E0,0E0,0E0,0E0],"parents":[2147483647,0,0,1,1,2,2,3,3,4,4,5,5,6,6,7,7,8,8,9,9,10,10,12,12,13,13,14,14,15,15,16,16,17,17,18,18,19,19,20,20,21,21,22,22,26,26,27,27,28,28,29,29,30,30,31,31,32,32,33,33,34,34,35,35,36,36,37,37,38,38,39,39,40,40,41,41,42,42,43,43,44,44,45,45,46,46,48,48],"right_children":[2,4,6,8,10,12,14,16,18,20,22,-1,24,26,28,30,32,34,36,38,40,42,44,-1,-1,-1,46,48,50,52,54,56,58,60,62,64,66,68,70,72,74,76,78,80,82,84,86,-1,88,-1,-1,-1,-1,-1,-1,-1,-1,-1,-1,-1,-1,-1,-1,-1,-1,-1,-1,-1,-1,-1,-1,-1,-1,-1,-1,-1,-1,-1,-1,-1,-1,-1,-1,-1,-1,-1,-1,-1,-1],"split_conditions":[-9.766198E-2,-9.6747406E-2,-5.83022E-1,1.6839497E-1,-1.7643812E-1,-9.027838E-2,1.2410729E0,2.1185197E-1,6.091231E-1,8.157136E-1,-9.579191E-3,1.1110102E0,-1.3197424E0,-1.7910215E-1,1.4329565E0,-2.9692537E-1,-3.1954876E-1,5.9818715E-1,-6.6187185E-1,6.117282E-1,1.5284815E-3,8.770909E-1,-5.424204E-1,-4.1270524E-1,-1.5081024E-3,9.6523154E-1,1.4169815E0,1.4554662E0,1.5944525E0,1.5224904E-1,3.537121E-2,-2.8821358E-1,-2.619019E-1,1.4043816E0,4.7972742E-1,1.02991454E-1,-4.1669297E-1,2.4127568E-1,-4.7257668E-1,-3.8377854E-1,1.1488719E-1,1.5284815E-3,-1.6609998E-2,4.020649E-1,-4.2719823E-1,4.63019E-2,-1.3639857E0,-6.3089263E-1,-1.0734656E-1,-6.725745E-1,-7.0680743E-1,2.4008127E-1,-3.5636842E-3,6.092515E-1,-3.6207002E-1,-3.181373E-1,6.9458514E-1,8.464581E-1,1.0130838E0,1.2748289E-1,-4.4491553E-1,-6.344575E-1,-4.2970815E-1,7.821404E-2,-2.1183895E-1,-4.36354E-2,4.3491045E-1,1.023663E0,8.010727E-1,1.0584642E-2,5.612368E-1,8.5285294E-1,3.3312726E-1,-6.960823E-2,3.042704E-1,1.1286608E0,9.832578E-1,6.914934E-1,1.0613316E0,6.1105365E-1,-6.5146935E-1,7.409608E-1,-7.020187E-1,-3.9995694E-1,-5.404157E-1,-2.1640511E-1,-6.578932E-1,-5.965523E-1,-4.7840628E-1],"split_indices":[13,16,10,17,2,6,43,14,37,39,6,0,0,42,45,36,22,39,36,19,19,39,14,0,0,0,11,43,44,8,17,1,40,17,37,39,11,19,11,11,18,19,2,8,33,13,36,0,2,0,0,0,0,0,0,0,0,0,0,0,0,0,0,0,0,0,0,0,0,0,0,0,0,0,0,0,0,0,0,0,0,0,0,0,0,0,0,0,0],"split_type":[0,0,0,0,0,0,0,0,0,0,0,0,0,0,0,0,0,0,0,0,0,0,0,0,0,0,0,0,0,0,0,0,0,0,0,0,0,0,0,0,0,0,0,0,0,0,0,0,0,0,0,0,0,0,0,0,0,0,0,0,0,0,0,0,0,0,0,0,0,0,0,0,0,0,0,0,0,0,0,0,0,0,0,0,0,0,0,0,0],"sum_hessian":[2.2418E4,1.5312E4,7.106E3,1.1008E4,4.304E3,2.2E1,7.084E3,6.173E3,4.835E3,1.936E3,2.368E3,2E1,2E0,3.104E3,3.98E3,5.781E3,3.92E2,7.61E2,4.074E3,8.25E2,1.111E3,2.133E3,2.35E2,1E0,1E0,5E0,3.099E3,2.114E3,1.866E3,5.045E3,7.36E2,1.46E2,2.46E2,2.97E2,4.64E2,2.73E3,1.344E3,4.25E2,4E2,1.24E2,9.87E2,1.454E3,6.79E2,2.5E1,2.1E2,2.758E3,3.41E2,1.004E3,1.11E3,1.027E3,8.39E2,2.609E3,2.436E3,6.7E2,6.6E1,1E0,1.45E2,6.3E1,1.83E2,1.98E2,9.9E1,2.89E2,1.75E2,1.061E3,1.669E3,6.62E2,6.82E2,1.81E2,2.44E2,5.4E1,3.46E2,1.13E2,1.1E1,2.11E2,7.76E2,7.54E2,7E2,3.49E2,3.3E2,1E1,1.5E1,2.05E2,5E0,3.42E2,2.416E3,3E0,3.38E2,1.068E3,4.2E1],"tree_param":{"num_deleted":"0","num_feature":"46","num_nodes":"89","size_leaf_vector":"1"}},{"base_weights":[9.627152E-4,5.5303907E0,-1.1067522E1,9.531852E0,1.263344E0,1.8212948E1,-1.1144801E1,3.829941E0,1.4386922E1,-3.342333E0,3.2918143E0,1.0511352E0,-4.6832314E0,-6.805413E0,-1.1510895E1,4.368543E0,-6.588826E-1,1.7174738E1,9.5000515E0,-8.332207E0,-2.1970215E0,8.186291E0,-2.9518962E-1,-4.0238762E-1,4.864527E-2,-5.3523483E0,-1.13867235E1,-1.091779E1,-6.5397334E-1,5.4233413E0,6.106688E-1,1.80931E1,1.9806008E0,6.0989366E0,1.7469927E1,-1.235923E1,-7.5832505E0,1.7737854E-1,-4.545463E0,9.176648E0,-5.4513E-1,4.693145E0,-1.6847895E0,-6.2474957E0,1.0742788E0,-1.1611313E1,4.8766825E-1,-1.1626042E1,-1.0283786E1,1.96108E-1,4.7659236E-1,-1.3918559E-1,2.1967249E-1,1.0133079E0,7.734701E-1,-3.2001176E-1,2.6732188E-1,7.740664E-1,2.3982222E-1,6.9706374E-1,1.0145155E0,-6.365332E-1,-3.2683298E-2,-4.6485344E-1,-2.8671503E-1,-2.30633E-1,1.4386939E-1,-1.543254E-1,-4.1029987E-1,2.2190003E-1,5.492798E-1,2.8229743E-1,-1.5575777E-1,-9.328045E-2,5.284222E-1,-5.428368E-2,-5.0622106E-1,-3.1648868E-1,6.394106E-1,6.949436E-1,1.6310114E-2,-5.0915486E-1,-6.821278E-1,-5.825832E-1,6.113108E-1,-5.101382E-1,-6.596637E-1],"categories":[],"categories_nodes":[],"categories_segments":[],"categories_sizes":[],"default_left":[0,0,0,0,0,0,0,0,0,0,0,0,0,0,0,0,0,0,0,0,0,0,0,0,0,0,0,0,0,0,0,0,0,0,0,0,0,0,0,0,0,0,0,0,0,0,0,0,0,0,0,0,0,0,0,0,0,0,0,0,0,0,0,0,0,0,0,0,0,0,0,0,0,0,0,0,0,0,0,0,0,0,0,0,0,0,0],"id":4,"left_children":[1,3,5,7,9,11,13,15,17,19,21,-1,23,25,27,29,-1,31,33,35,37,39,41,-1,-1,43,45,47,-1,49,51,53,55,57,59,61,63,65,67,69,71,73,75,77,79,81,-1,83,85,-1,-1,-1,-1,-1,-1,-1,-1,-1,-1,-1,-1,-1,-1,-1,-1,-1,-1,-1,-1,-1,-1,-1,-1,-1,-1,-1,-1,-1,-1,-1,-1,-1,-1,-1,-1,-1,-1],"loss_changes":[1.3695866E6,2.5478847E5,1.7071E4,2.1313119E5,6.749172E4,1.3867412E3,1.1732875E4,3.251171E4,5.6495062E4,1.2604988E4,8.804908E4,0E0,6.562776E1,3.8050625E3,6.2331875E3,1.3611734E4,0E0,3.6897688E4,4.0903188E4,1.1469004E3,1.0027142E4,1.8346656E4,2.0075135E4,0E0,0E0,2.55571E3,7.733867E2,2.114875E3,0E0,1.6502797E4,9.6939E3,1.391375E4,4.3218086E3,1.2901875E4,4.212078E3,2.642539E2,1.05425E3,1.1588267E4,4.8014062E3,1.6279281E4,3.4700715E3,2.4335943E4,1.1440449E4,6.895615E2,5.217015E2,2.5904102E2,0E0,1.5755E3,4.846875E2,0E0,0E0,0E0,0E0,0E0,0E0,0E0,0E0,0E0,0E0,0E0,0E0,0E0,0E0,0E0,0E0,0E0,0E0,0E0,0E0,0E0,0E0,0E0,0E0,0E0,0E0,0E0,0E0,0E0,0E0,0E0,0E0,0E0,0E0,0E0,0E0,0E0,0E0],"parents":[2147483647,0,0,1,1,2,2,3,3,4,4,5,5,6,6,7,7,8,8,9,9,10,10,12,12,13,13,14,14,15,15,17,17,18,18,19,19,20,20,21,21,22,22,25,25,26,26,27,27,29,29,30,30,31,31,32,32,33,33,34,34,35,35,36,36,37,37,38,38,39,39,40,40,41,41,42,42,43,43,44,44,45,45,47,47,48,48],"right_children":[2,4,6,8,10,12,14,16,18,20,22,-1,24,26,28,30,-1,32,34,36,38,40,42,-1,-1,44,46,48,-1,50,52,54,56,58,60,62,64,66,68,70,72,74,76,78,80,82,-1,84,86,-1,-1,-1,-1,-1,-1,-1,-1,-1,-1,-1,-1,-1,-1,-1,-1,-1,-1,-1,-1,-1,-1,-1,-1,-1,-1,-1,-1,-1,-1,-1,-1,-1,-1,-1,-1,-1,-1],"split_conditions":[1.9092566E-1,5.445729E-1,-6.2323654E-1,-2.023294E-1,-4.2989728E-1,-1.611145E-1,-4.6981204E-2,9.098258E-1,8.680569E-1,1.745969E-1,1.2959878E-1,1.0511352E0,-1.3197424E0,9.411151E-1,1.4329565E0,-4.7974458E-1,-6.588826E-1,5.327655E-1,-4.1906273E-1,-4.3752887E-3,9.581191E-1,3.3004827E0,-4.0854537E-1,-4.0238762E-1,4.864527E-2,9.592054E-1,9.5159453E-1,1.0772676E0,-6.5397334E-1,-4.0766215E-1,-6.319261E-1,1.4488871E-1,1.7026767E0,-1.3446043E-1,-3.4305593E-1,-3.327049E-1,-5.004218E-1,-5.1847136E-1,9.82116E-1,-3.8377854E-1,-1.8122815E-1,7.510325E-1,1.2580036E-1,6.9816244E-1,-2.0503695E-1,5.4966778E-2,4.8766825E-1,1.3285875E0,2.9366338E0,1.96108E-1,4.7659236E-1,-1.3918559E-1,2.1967249E-1,1.0133079E0,7.734701E-1,-3.2001176E-1,2.6732188E-1,7.740664E-1,2.3982222E-1,6.9706374E-1,1.0145155E0,-6.365332E-1,-3.2683298E-2,-4.6485344E-1,-2.8671503E-1,-2.30633E-1,1.4386939E-1,-1.543254E-1,-4.1029987E-1,2.2190003E-1,5.492798E-1,2.8229743E-1,-1.5575777E-1,-9.328045E-2,5.284222E-1,-5.428368E-2,-5.0622106E-1,-3.1648868E-1,6.394106E-1,6.949436E-1,1.6310114E-2,-5.0915486E-1,-6.821278E-1,-5.825832E-1,6.113108E-1,-5.101382E-1,-6.596637E-1],"split_indices":[12,19,10,18,11,21,13,43,39,18,8,0,0,11,45,31,0,21,12,18,19,18,31,0,0,38,6,32,0,18,32,19,37,19,12,21,11,11,37,11,42,37,35,6,21,18,0,34,11,0,0,0,0,0,0,0,0,0,0,0,0,0,0,0,0,0,0,0,0,0,0,0,0,0,0,0,0,0,0,0,0,0,0,0,0,0,0],"split_type":[0,0,0,0,0,0,0,0,0,0,0,0,0,0,0,0,0,0,0,0,0,0,0,0,0,0,0,0,0,0,0,0,0,0,0,0,0,0,0,0,0,0,0,0,0,0,0,0,0,0,0,0,0,0,0,0,0,0,0,0,0,0,0,0,0,0,0,0,0,0,0,0,0,0,0,0,0,0,0,0,0,0,0,0,0,0,0],"sum_hessian":[2.2376E4,1.4922E4,7.454E3,7.7E3,7.222E3,1.9E1,7.435E3,3.542E3,4.158E3,2.208E3,5.014E3,1.7E1,2E0,5.8E2,6.855E3,3.434E3,1.08E2,2.646E3,1.512E3,4.11E2,1.797E3,2.12E3,2.894E3,1E0,1E0,4.42E2,1.38E2,4.98E3,1.875E3,2.681E3,7.53E2,2.495E3,1.51E2,1.061E3,4.51E2,6.2E1,3.49E2,8.94E2,9.03E2,1.904E3,2.16E2,6.3E2,2.264E3,3.88E2,5.4E1,1.37E2,1E0,2.344E3,2.636E3,1.965E3,7.16E2,3.97E2,3.56E2,1.361E3,1.134E3,4.3E1,1.08E2,1.28E2,9.33E2,2.03E2,2.48E2,6E1,2E0,1.79E2,1.7E2,3.22E2,5.72E2,6.47E2,2.56E2,5.27E2,1.377E3,6.3E1,1.53E2,2.98E2,3.32E2,2.115E3,1.49E2,3.87E2,1E0,2E0,5.2E1,8.4E1,5.3E1,2.342E3,2E0,2.569E3,6.7E1],"tree_param":{"num_deleted":"0","num_feature":"46","num_nodes":"87","size_leaf_vector":"1"}},{"base_weights":[6.146309E-2,5.2241397E0,-1.0598119E1,9.069449E0,1.2689722E0,1.7032543E1,-1.0649502E1,5.016737E0,1.6660496E1,-2.9576735E0,3.2487102E0,-3.9232793E-1,9.778797E-1,-9.339498E0,-1.1608144E1,2.430693E0,1.054025E1,1.3901919E1,1.9398315E1,1.5997947E0,-4.3684177E0,8.3755865E0,1.1437824E-1,-5.9264197E0,-9.824141E0,-1.0972643E1,-1.2422708E1,2.8948083E0,-6.331126E-1,1.2506939E1,-2.874567E0,1.2373997E1,1.675262E1,1.9497898E1,-5.5249846E-1,2.489882E0,-1.1142528E1,-2.8828683E0,-7.1292787E0,9.237037E0,-1.0823178E0,2.469015E0,-2.7766209E0,-5.016657E0,-5.918831E-1,-9.57977E0,-1.2131713E1,-1.1130437E1,-1.0036946E1,-6.07072E-1,-6.3966E-1,1.7714827E-1,-5.355342E-2,6.9054323E-1,1.522257E-1,2.7351153E-1,-1.7813419E-1,8.6373013E-1,5.338067E-1,8.604539E-1,-2.8178856E-1,9.125183E-1,1.0056803E0,1.861733E-2,3.1271902E-1,-6.0908324E-1,-1.0178571E-1,-4.4889742E-1,-7.535674E-2,-2.9704818E-1,-5.162667E-1,2.5330433E-1,5.3133017E-1,-2.0129493E-1,3.212985E-1,-1.6581294E-1,2.3721015E-1,-1.7070116E-1,3.1182566E-1,-2.657698E-1,7.96121E-1,-4.102531E-1,-4.857284E-1,-4.4599804E-1,-6.175568E-1,-5.762839E-1,-5.3999627E-1,-4.324689E-1,-5.1314616E-1],"categories":[],"categories_nodes":[],"categories_segments":[],"categories_sizes":[],"default_left":[0,0,0,0,0,0,0,0,0,0,0,0,0,0,0,0,0,0,0,0,0,0,0,0,0,0,0,0,0,0,0,0,0,0,0,0,0,0,0,0,0,0,0,0,0,0,0,0,0,0,0,0,0,0,0,0,0,0,0,0,0,0,0,0,0,0,0,0,0,0,0,0,0,0,0,0,0,0,0,0,0,0,0,0,0,0,0,0,0],"id":5,"left_children":[1,3,5,7,9,11,13,15,17,19,21,-1,-1,23,25,27,29,31,33,35,37,39,41,43,45,47,49,51,-1,53,55,57,59,61,-1,63,65,67,69,71,73,75,77,79,-1,81,83,85,87,-1,-1,-1,-1,-1,-1,-1,-1,-1,-1,-1,-1,-1,-1,-1,-1,-1,-1,-1,-1,-1,-1,-1,-1,-1,-1,-1,-1,-1,-1,-1,-1,-1,-1,-1,-1,-1,-1,-1,-1],"loss_changes":[1.2374488E6,2.3038625E5,1.05975E4,2.3621506E5,6.2507625E4,1.0341248E3,9.0871875E3,7.152188E4,1.991475E4,1.5328576E4,8.174289E4,0E0,0E0,5.068E3,2.0484375E3,2.3943283E4,4.2170188E4,5.604578E3,4.2763125E3,6.4236416E3,7.4429844E3,1.57355E4,2.1504127E4,2.0255264E3,1.4114844E3,2.37875E2,3.434375E1,8.517578E3,0E0,1.71435E4,1.196448E3,7.0766406E3,4.829703E3,6.5453125E2,0E0,4.2059385E3,3.2391943E2,9.92189E3,2.3525117E3,1.0197391E4,3.606033E3,2.2931941E4,8.167408E3,2.1978682E3,0E0,3.7396875E2,6.8109375E1,1.3832812E2,2.0339844E1,0E0,0E0,0E0,0E0,0E0,0E0,0E0,0E0,0E0,0E0,0E0,0E0,0E0,0E0,0E0,0E0,0E0,0E0,0E0,0E0,0E0,0E0,0E0,0E0,0E0,0E0,0E0,0E0,0E0,0E0,0E0,0E0,0E0,0E0,0E0,0E0,0E0,0E0,0E0,0E0],"parents":[2147483647,0,0,1,1,2,2,3,3,4,4,5,5,6,6,7,7,8,8,9,9,10,10,13,13,14,14,15,15,16,16,17,17,18,18,19,19,20,20,21,21,22,22,23,23,24,24,25,25,26,26,27,27,29,29,30,30,31,31,32,32,33,33,35,35,36,36,37,37,38,38,39,39,40,40,41,41,42,42,43,43,45,45,46,46,47,47,48,48],"right_children":[2,4,6,8,10,12,14,16,18,20,22,-1,-1,24,26,28,30,32,34,36,38,40,42,44,46,48,50,52,-1,54,56,58,60,62,-1,64,66,68,70,72,74,76,78,80,-1,82,84,86,88,-1,-1,-1,-1,-1,-1,-1,-1,-1,-1,-1,-1,-1,-1,-1,-1,-1,-1,-1,-1,-1,-1,-1,-1,-1,-1,-1,-1,-1,-1,-1,-1,-1,-1,-1,-1,-1,-1,-1,-1],"split_conditions":[2.4180338E-1,5.238144E-1,-6.2323654E-1,-2.593632E-1,-4.2487E-1,9.810075E-2,1.2344086E0,-6.368222E-1,6.982159E-2,-5.177052E-2,1.22708045E-1,-3.9232793E-1,9.778797E-1,5.710015E-1,1.4329565E0,9.098258E-1,1.7277678E0,-6.066864E-1,1.415329E-1,1.5721525E0,-2.8613472E-1,3.4358683E0,1.2449709E0,5.142633E-1,1.6641732E0,6.6186637E-1,1.5977463E0,-4.8826426E-1,-6.331126E-1,5.270263E-1,-1.0255277E-1,-2.5838676E-1,6.500928E-1,2.1431215E-1,-5.5249846E-1,-3.4478307E-1,-7.311164E-1,6.091231E-1,4.1467768E-1,-3.8377854E-1,-3.7855487E-2,5.536472E-1,1.8110486E0,7.787335E-1,-5.918831E-1,-1.0771594E0,-1.1571714E0,1.376126E0,1.3172064E0,-6.07072E-1,-6.3966E-1,1.7714827E-1,-5.355342E-2,6.9054323E-1,1.522257E-1,2.7351153E-1,-1.7813419E-1,8.6373013E-1,5.338067E-1,8.604539E-1,-2.8178856E-1,9.125183E-1,1.0056803E0,1.861733E-2,3.1271902E-1,-6.0908324E-1,-1.0178571E-1,-4.4889742E-1,-7.535674E-2,-2.9704818E-1,-5.162667E-1,2.5330433E-1,5.3133017E-1,-2.0129493E-1,3.212985E-1,-1.6581294E-1,2.3721015E-1,-1.7070116E-1,3.1182566E-1,-2.657698E-1,7.96121E-1,-4.102531E-1,-4.857284E-1,-4.4599804E-1,-6.175568E-1,-5.762839E-1,-5.3999627E-1,-4.324689E-1,-5.1314616E-1],"split_indices":[12,19,10,36,11,1,43,32,36,15,8,0,0,12,45,43,15,32,12,19,13,18,18,19,11,31,44,31,0,40,12,19,8,36,0,2,36,37,15,11,12,37,28,8,0,18,37,43,36,0,0,0,0,0,0,0,0,0,0,0,0,0,0,0,0,0,0,0,0,0,0,0,0,0,0,0,0,0,0,0,0,0,0,0,0,0,0,0,0],"split_type":[0,0,0,0,0,0,0,0,0,0,0,0,0,0,0,0,0,0,0,0,0,0,0,0,0,0,0,0,0,0,0,0,0,0,0,0,0,0,0,0,0,0,0,0,0,0,0,0,0,0,0,0,0,0,0,0,0,0,0,0,0,0,0,0,0,0,0,0,0,0,0,0,0,0,0,0,0,0,0,0,0,0,0,0,0,0,0,0,0],"sum_hessian":[2.2484E4,1.5148E4,7.336E3,7.68E3,7.468E3,1.3E1,7.323E3,5.008E3,2.672E3,2.382E3,5.086E3,1E0,1.2E1,3.099E3,4.224E3,3.412E3,1.596E3,1.334E3,1.338E3,5.63E2,1.819E3,1.929E3,3.157E3,3.87E2,2.712E3,2.381E3,1.843E3,3.311E3,1.01E2,1.392E3,2.04E2,8.72E2,4.62E2,1.334E3,4E0,5.27E2,3.6E1,1.184E3,6.35E2,1.768E3,1.61E2,1.74E3,1.417E3,3.37E2,5E1,2.457E3,2.55E2,2.028E3,3.53E2,1.067E3,7.76E2,2.846E3,4.65E2,1.223E3,1.69E2,1.5E1,1.89E2,2.22E2,6.5E2,4.53E2,9E0,4.51E2,8.83E2,3.38E2,1.89E2,3.2E1,4E0,2.17E2,9.67E2,4.65E2,1.7E2,4.43E2,1.325E3,1.16E2,4.5E1,4.91E2,1.249E3,1.324E3,9.3E1,3.33E2,4E0,2.25E2,2.232E3,1.9E1,2.36E2,9.08E2,1.12E3,5.5E1,2.98E2],"tree_param":{"num_deleted":"0","num_feature":"46","num_nodes":"89","size_leaf_vector":"1"}},{"base_weights":[-5.4589856E-2,4.9367537E0,-1.0003059E1,8.56614E0,1.1781228E0,1.4640577E1,-1.0064828E1,3.6455789E0,1.3334124E1,-2.7125833E0,3.1252573E0,9.488549E-1,-6.3406525E0,-8.671255E0,-1.096257E1,4.0220017E0,-5.952527E-1,5.5659785E0,1.504537E1,2.6080418E-1,-4.725871E0,8.327537E0,1.0844273E-1,4.3623503E-2,-4.5345917E-1,-4.9148006E0,-9.222831E0,-1.0369615E1,-1.18122835E1,6.163926E0,2.2891097E0,1.5205727E1,2.4521055E0,1.5692367E1,2.8240206E0,-2.6172187E0,3.097803E0,-3.270144E0,-7.327906E0,9.246873E0,-7.9827064E-1,5.1573486E0,-1.2528058E0,-4.048063E0,-1.187437E1,-8.901167E0,-1.1296963E1,-1.05720005E1,-9.673587E0,-5.7784414E-1,-6.087872E-1,2.3229542E-1,7.955893E-1,3.3242458E-1,1.23196645E-2,8.0207837E-1,2.39941E-1,6.090553E-1,2.0548828E-2,6.5364915E-1,8.974724E-1,-2.7450714E-1,2.8801072E-1,2.7143022E-1,-1.7639329E-1,2.7695832E-1,1.1867952E-2,-4.45335E-1,-1.0131403E-1,-3.0597723E-1,-4.9300137E-1,1.0935491E-1,5.1229876E-1,-2.99681E-1,1.665858E-1,-1.279777E-1,4.883789E-1,-1.500256E-1,7.338395E-2,1.0493658E-1,-2.5170267E-1,-7.4387014E-2,-6.047171E-1,-4.4564745E-1,4.2329407E-1,-4.229033E-1,-5.7292706E-1,-5.4615575E-1,-5.121157E-1,-4.8967606E-1,-4.2140266E-1],"categories":[],"categories_nodes":[],"categories_segments":[],"categories_sizes":[],"default_left":[0,0,0,0,0,0,0,0,0,0,0,0,0,0,0,0,0,0,0,0,0,0,0,0,0,0,0,0,0,0,0,0,0,0,0,0,0,0,0,0,0,0,0,0,0,0,0,0,0,0,0,0,0,0,0,0,0,0,0,0,0,0,0,0,0,0,0,0,0,0,0,0,0,0,0,0,0,0,0,0,0,0,0,0,0,0,0,0,0,0,0],"id":6,"left_children":[1,3,5,7,9,11,13,15,17,19,21,-1,23,25,27,29,-1,31,33,35,37,39,41,-1,-1,43,45,47,49,51,53,55,57,59,61,63,65,67,69,71,73,75,77,79,81,83,85,87,89,-1,-1,-1,-1,-1,-1,-1,-1,-1,-1,-1,-1,-1,-1,-1,-1,-1,-1,-1,-1,-1,-1,-1,-1,-1,-1,-1,-1,-1,-1,-1,-1,-1,-1,-1,-1,-1,-1,-1,-1,-1,-1],"loss_changes":[1.1054968E6,2.0222453E5,1.1469125E4,1.7689375E5,5.519012E4,1.8503164E3,9.185875E3,2.178157E4,5.0827188E4,1.4548352E4,7.619414E4,0E0,8.745717E1,5.9868125E3,2.1471875E3,1.3443754E4,0E0,2.0762695E4,2.4766562E4,8.026135E3,5.463574E3,1.4958641E4,2.1133889E4,0E0,0E0,2.2123857E3,1.5907344E3,2.7096875E2,2.828125E1,2.3910652E4,1.7861066E4,1.3909805E3,1.0419262E4,1.7380438E4,3.9131582E3,3.5944897E3,3.4548818E3,6.508199E3,1.5260566E3,1.1395859E4,3.5391377E3,2.3257297E4,1.1520219E4,2.0411865E3,7.432422E1,5.260781E2,5.567578E1,1.2365625E2,7.0625E0,0E0,0E0,0E0,0E0,0E0,0E0,0E0,0E0,0E0,0E0,0E0,0E0,0E0,0E0,0E0,0E0,0E0,0E0,0E0,0E0,0E0,0E0,0E0,0E0,0E0,0E0,0E0,0E0,0E0,0E0,0E0,0E0,0E0,0E0,0E0,0E0,0E0,0E0,0E0,0E0,0E0,0E0],"parents":[2147483647,0,0,1,1,2,2,3,3,4,4,5,5,6,6,7,7,8,8,9,9,10,10,12,12,13,13,14,14,15,15,17,17,18,18,19,19,20,20,21,21,22,22,25,25,26,26,27,27,28,28,29,29,30,30,31,31,32,32,33,33,34,34,35,35,36,36,37,37,38,38,39,39,40,40,41,41,42,42,43,43,44,44,45,45,46,46,47,47,48,48],"right_children":[2,4,6,8,10,12,14,16,18,20,22,-1,24,26,28,30,-1,32,34,36,38,40,42,-1,-1,44,46,48,50,52,54,56,58,60,62,64,66,68,70,72,74,76,78,80,82,84,86,88,90,-1,-1,-1,-1,-1,-1,-1,-1,-1,-1,-1,-1,-1,-1,-1,-1,-1,-1,-1,-1,-1,-1,-1,-1,-1,-1,-1,-1,-1,-1,-1,-1,-1,-1,-1,-1,-1,-1,-1,-1,-1,-1],"split_conditions":[1.9092566E-1,5.3474414E-1,-6.1694765E-1,-1.7465042E-1,-4.1970643E-1,-1.6864496E-1,6.6546637E-1,9.098258E-1,-3.762747E-1,5.0576553E-2,1.21565044E-1,9.488549E-1,1.0386243E-2,4.7489277E-1,1.4329565E0,1.067778E0,-5.952527E-1,2.6157154E-2,4.2471862E-1,-3.4998858E-1,-2.847525E-1,3.4358683E0,-4.0854537E-1,4.3623503E-2,-4.5345917E-1,4.4893178E-1,1.4169815E0,6.6186637E-1,1.5999107E0,-4.015847E-1,1.3634925E-1,6.318595E-1,-6.949453E-1,-2.0315428E-1,1.7026767E0,-3.79886E-1,9.581191E-1,5.751172E-1,4.1467768E-1,5.364432E-1,2.2733636E-1,6.7620057E-1,1.4497672E-1,2.0597519E-1,1.0527089E0,1.5399326E0,-1.1571714E0,1.4279425E0,-9.559608E-1,-5.7784414E-1,-6.087872E-1,2.3229542E-1,7.955893E-1,3.3242458E-1,1.23196645E-2,8.0207837E-1,2.39941E-1,6.090553E-1,2.0548828E-2,6.5364915E-1,8.974724E-1,-2.7450714E-1,2.8801072E-1,2.7143022E-1,-1.7639329E-1,2.7695832E-1,1.1867952E-2,-4.45335E-1,-1.0131403E-1,-3.0597723E-1,-4.9300137E-1,1.0935491E-1,5.1229876E-1,-2.99681E-1,1.665858E-1,-1.279777E-1,4.883789E-1,-1.500256E-1,7.338395E-2,1.0493658E-1,-2.5170267E-1,-7.4387014E-2,-6.047171E-1,-4.4564745E-1,4.2329407E-1,-4.229033E-1,-5.7292706E-1,-5.4615575E-1,-5.121157E-1,-4.8967606E-1,-4.2140266E-1],"split_indices":[12,19,9,18,11,21,45,43,40,15,8,0,5,12,45,15,0,19,40,2,13,18,31,0,0,19,11,31,44,12,8,15,31,40,37,15,19,37,15,37,11,37,5,15,1,8,37,43,39,0,0,0,0,0,0,0,0,0,0,0,0,0,0,0,0,0,0,0,0,0,0,0,0,0,0,0,0,0,0,0,0,0,0,0,0,0,0,0,0,0,0],"split_type":[0,0,0,0,0,0,0,0,0,0,0,0,0,0,0,0,0,0,0,0,0,0,0,0,0,0,0,0,0,0,0,0,0,0,0,0,0,0,0,0,0,0,0,0,0,0,0,0,0,0,0,0,0,0,0,0,0,0,0,0,0,0,0,0,0,0,0,0,0,0,0,0,0,0,0,0,0,0,0,0,0,0,0,0,0,0,0,0,0,0,0],"sum_hessian":[2.2261E4,1.4824E4,7.437E3,7.541E3,7.283E3,1.8E1,7.419E3,3.712E3,3.829E3,2.429E3,4.854E3,1.5E1,3E0,2.911E3,4.508E3,3.625E3,8.7E1,6.92E2,3.137E3,9.81E2,1.448E3,1.781E3,3.073E3,1E0,2E0,3.74E2,2.537E3,2.663E3,1.845E3,1.62E3,2.005E3,1.68E2,5.24E2,2.979E3,1.58E2,4.87E2,4.94E2,9.3E2,5.18E2,1.618E3,1.63E2,6.52E2,2.421E3,3.34E2,4E1,2.201E3,3.36E2,2.052E3,6.11E2,1.103E3,7.42E2,1.403E3,2.17E2,6.39E2,1.366E3,1.55E2,1.3E1,9E1,4.34E2,1.382E3,1.597E3,4.1E1,1.17E2,4.9E1,4.38E2,2.66E2,2.28E2,1.67E2,7.63E2,3.53E2,1.65E2,2.01E2,1.417E3,7.2E1,9.1E1,2.44E2,4.08E2,1.474E3,9.47E2,4.6E1,2.88E2,1E0,3.9E1,2.2E3,1E0,2.1E1,3.15E2,9.78E2,1.074E3,5.51E2,6E1],"tree_param":{"num_deleted":"0","num_feature":"46","num_nodes":"91","size_leaf_vector":"1"}},{"base_weights":[-4.610862E-2,4.6449695E0,-9.514381E0,1.4355699E0,1.1845944E1,1.5300879E1,-9.573535E0,3.9479694E0,-1.1550186E0,6.5005403E0,1.5462239E1,-4.348671E0,9.0175575E-1,-8.240351E0,-1.0428474E1,1.8613286E0,7.655658E0,2.9417284E0,-2.7146053E0,1.49136E1,5.240478E0,1.192265E1,1.6626574E1,-3.7118325E-1,4.2532932E-2,-5.085512E0,-8.834696E0,-9.857924E0,-1.1214697E1,2.318881E0,-1.1313951E1,1.7322104E0,1.0995574E1,-3.420786E0,6.560077E0,-2.0479507E0,-9.428753E0,1.5457328E1,7.2829127E0,2.180586E0,1.0100402E1,1.6809938E1,7.3456697E0,1.6979666E1,8.091981E0,-4.141149E0,-1.12085285E1,-8.456933E0,-1.0436367E1,-1.0203878E1,-9.48598E0,-5.4726905E-1,-5.768295E-1,1.7531852E-1,-1.1380929E-1,-4.8916063E-1,-6.0734195E-1,4.4075537E-1,6.4781527E-3,3.764182E-1,6.6943145E-1,-3.2114694E-1,1.2064071E-1,-6.8182494E-3,4.4982168E-1,-3.0363917E-1,-5.4347854E-2,-4.9995098E-1,9.2717755E-1,8.883091E-1,7.030132E-1,9.438878E-2,5.2677375E-1,4.1863528E-1,4.251934E-2,4.2502746E-1,6.088991E-1,8.7291145E-1,2.6371622E-1,7.053376E-1,2.6151577E-1,9.343535E-1,8.0042076E-1,-5.176171E-1,7.8219575E-1,1.0051781E-1,-2.583287E-1,-7.252735E-2,-5.672659E-1,-3.3290097E-1,-4.276683E-1,-4.711507E-1,-5.704158E-1,-5.2133256E-1,-4.89027E-1,-4.8412094E-1,-4.5084196E-1],"categories":[],"categories_nodes":[],"categories_segments":[],"categories_sizes":[],"default_left":[0,0,0,0,0,0,0,0,0,0,0,0,0,0,0,0,0,0,0,0,0,0,0,0,0,0,0,0,0,0,0,0,0,0,0,0,0,0,0,0,0,0,0,0,0,0,0,0,0,0,0,0,0,0,0,0,0,0,0,0,0,0,0,0,0,0,0,0,0,0,0,0,0,0,0,0,0,0,0,0,0,0,0,0,0,0,0,0,0,0,0,0,0,0,0,0,0],"id":7,"left_children":[1,3,5,7,9,11,13,15,17,19,21,23,-1,25,27,29,31,33,35,37,39,41,43,-1,-1,45,47,49,51,53,55,57,59,61,63,65,67,69,71,73,75,77,79,81,83,85,87,89,91,93,95,-1,-1,-1,-1,-1,-1,-1,-1,-1,-1,-1,-1,-1,-1,-1,-1,-1,-1,-1,-1,-1,-1,-1,-1,-1,-1,-1,-1,-1,-1,-1,-1,-1,-1,-1,-1,-1,-1,-1,-1,-1,-1,-1,-1,-1,-1],"loss_changes":[9.932843E5,3.4558066E5,1.1021625E4,6.7336234E4,8.9011125E4,1.0468745E3,8.337625E3,4.0617492E4,3.255471E4,1.9658852E4,1.112825E4,5.4936035E1,0E0,5.3782188E3,1.9059688E3,2.029275E4,3.739089E4,3.2368375E4,1.6496043E4,8.8921094E2,2.4082383E4,1.5174523E4,6.0859375E3,0E0,0E0,2.617712E3,1.3819531E3,2.3785938E2,3.4875E1,1.7742037E4,2.304004E1,7.750961E3,9.928453E3,8.947711E3,1.4620285E4,1.2980886E4,5.4964746E3,4.7278906E2,2.9473334E2,8.195764E3,1.9751328E3,2.3735312E3,5.0015254E3,2.9858125E3,1.1862866E4,2.5401724E3,6.3686035E1,2.8395312E2,3.4348438E2,2.25625E1,2.8320312E1,0E0,0E0,0E0,0E0,0E0,0E0,0E0,0E0,0E0,0E0,0E0,0E0,0E0,0E0,0E0,0E0,0E0,0E0,0E0,0E0,0E0,0E0,0E0,0E0,0E0,0E0,0E0,0E0,0E0,0E0,0E0,0E0,0E0,0E0,0E0,0E0,0E0,0E0,0E0,0E0,0E0,0E0,0E0,0E0,0E0,0E0],"parents":[2147483647,0,0,1,1,2,2,3,3,4,4,5,5,6,6,7,7,8,8,9,9,10,10,11,11,13,13,14,14,15,15,16,16,17,17,18,18,19,19,20,20,21,21,22,22,25,25,26,26,27,27,28,28,29,29,30,30,31,31,32,32,33,33,34,34,35,35,36,36,37,37,38,38,39,39,40,40,41,41,42,42,43,43,44,44,45,45,46,46,47,47,48,48,49,49,50,50],"right_children":[2,4,6,8,10,12,14,16,18,20,22,24,-1,26,28,30,32,34,36,38,40,42,44,-1,-1,46,48,50,52,54,56,58,60,62,64,66,68,70,72,74,76,78,80,82,84,86,88,90,92,94,96,-1,-1,-1,-1,-1,-1,-1,-1,-1,-1,-1,-1,-1,-1,-1,-1,-1,-1,-1,-1,-1,-1,-1,-1,-1,-1,-1,-1,-1,-1,-1,-1,-1,-1,-1,-1,-1,-1,-1,-1,-1,-1,-1,-1,-1,-1],"split_conditions":[1.9092566E-1,-1.3220525E-1,-6.4068604E-1,6.384576E-2,-2.086916E-1,-1.2301593E0,6.6546637E-1,-6.404301E-1,1.24245256E-1,1.22965015E-1,-2.658549E-1,-1.3197424E0,9.0175575E-1,5.710015E-1,1.4329565E0,1.489092E0,-3.3812395E-1,-1.1724831E0,-1.4209938E-1,1.0539535E0,-3.2531092E-1,9.6223086E-1,5.0596195E-1,-3.7118325E-1,4.2532932E-2,5.142633E-1,-7.247999E-1,5.379405E-1,1.5944525E0,9.370295E-1,7.711334E-1,-2.3665333E-1,-6.2378764E-1,-2.0264518E-2,-4.955567E-1,-3.464617E-1,3.09828E0,7.5521666E-1,-6.074452E-1,-6.905178E-1,4.1306995E-2,-4.5467493E-1,-3.48653E-1,-1.3446043E-1,1.5519106E0,1.9255774E0,1.0527089E0,8.496954E-3,-1.4209828E0,1.051291E0,-1.10312775E-1,-5.4726905E-1,-5.768295E-1,1.7531852E-1,-1.1380929E-1,-4.8916063E-1,-6.0734195E-1,4.4075537E-1,6.4781527E-3,3.764182E-1,6.6943145E-1,-3.2114694E-1,1.2064071E-1,-6.8182494E-3,4.4982168E-1,-3.0363917E-1,-5.4347854E-2,-4.9995098E-1,9.2717755E-1,8.883091E-1,7.030132E-1,9.438878E-2,5.2677375E-1,4.1863528E-1,4.251934E-2,4.2502746E-1,6.088991E-1,8.7291145E-1,2.6371622E-1,7.053376E-1,2.6151577E-1,9.343535E-1,8.0042076E-1,-5.176171E-1,7.8219575E-1,1.0051781E-1,-2.583287E-1,-7.252735E-2,-5.672659E-1,-3.3290097E-1,-4.276683E-1,-4.711507E-1,-5.704158E-1,-5.2133256E-1,-4.89027E-1,-4.8412094E-1,-4.5084196E-1],"split_indices":[12,16,9,17,1,16,45,32,39,19,40,0,0,12,45,44,18,16,35,39,40,39,8,0,0,19,19,31,44,39,45,40,32,12,12,40,9,39,33,31,16,31,17,19,30,15,1,13,16,45,1,0,0,0,0,0,0,0,0,0,0,0,0,0,0,0,0,0,0,0,0,0,0,0,0,0,0,0,0,0,0,0,0,0,0,0,0,0,0,0,0,0,0,0,0,0,0],"split_type":[0,0,0,0,0,0,0,0,0,0,0,0,0,0,0,0,0,0,0,0,0,0,0,0,0,0,0,0,0,0,0,0,0,0,0,0,0,0,0,0,0,0,0,0,0,0,0,0,0,0,0,0,0,0,0,0,0,0,0,0,0,0,0,0,0,0,0,0,0,0,0,0,0,0,0,0,0,0,0,0,0,0,0,0,0,0,0,0,0,0,0,0,0,0,0,0,0],"sum_hessian":[2.2361E4,1.4953E4,7.408E3,1.0344E4,4.609E3,1.7E1,7.391E3,5.251E3,5.093E3,1.861E3,2.748E3,2E0,1.5E1,2.892E3,4.499E3,3.361E3,1.89E3,1.404E3,3.689E3,2.41E2,1.62E3,6.83E2,2.065E3,1E0,1E0,4.6E2,2.432E3,2.615E3,1.884E3,3.249E3,1.12E2,6.82E2,1.208E3,5.09E2,8.95E2,3.357E3,3.32E2,2.24E2,1.7E1,9.95E2,6.25E2,3.29E2,3.54E2,1.982E3,8.3E1,4E2,6E1,1.973E3,4.59E2,1.341E3,1.274E3,1.045E3,8.39E2,2.582E3,6.67E2,4.4E1,6.8E1,1.25E2,5.57E2,4.95E2,7.13E2,3.36E2,1.73E2,2.39E2,6.56E2,6.46E2,2.711E3,3.26E2,6E0,8E1,1.44E2,7E0,1E1,1.75E2,8.2E2,3.56E2,2.69E2,3.11E2,1.8E1,8.3E1,2.71E2,7.12E2,1.27E3,2.4E1,5.9E1,5.7E1,3.43E2,1E0,5.9E1,1.04E2,1.869E3,2.3E2,2.29E2,8.63E2,4.78E2,8.84E2,3.9E2],"tree_param":{"num_deleted":"0","num_feature":"46","num_nodes":"97","size_leaf_vector":"1"}},{"base_weights":[-2.313991E-2,4.4881597E0,-8.964557E0,1.7708191E0,1.215294E1,-9.083846E0,6.2343163E0,4.2468486E0,-3.2719198E-1,4.1348033E0,1.4037766E1,-6.0182333E0,-9.399679E0,8.742076E-1,1.4294609E-2,2.2745368E0,8.888938E0,-4.918551E0,9.950493E-1,2.1235828E0,1.1799568E1,1.1274193E1,1.5842707E1,-4.732083E0,-9.584806E0,-1.0249555E1,-8.9025545E0,1.6990217E0,-9.518208E0,2.6452577E0,-5.445635E-1,-1.1216642E0,1.1135379E1,-4.3935046E0,-9.208043E0,6.611662E0,-3.3559936E-1,1.00230055E1,3.288622E-1,1.4210709E1,5.02913E0,1.277883E1,7.86801E0,1.6428974E1,9.028997E0,2.0229576E0,-5.1691265E0,-9.736185E0,4.5043713E-1,-5.2659935E-1,-9.844815E0,-8.71802E0,-5.5523175E-1,4.0876278E-1,5.596819E-1,-1.2399947E-1,-5.2049273E-1,1.8514681E-1,-5.036157E-2,-1.3844784E-1,1.747862E-1,6.137573E-1,2.6132506E-1,-1.9781299E-1,-5.115422E-1,-1.3518143E-1,-4.8104516E-1,4.325725E-1,-3.9849374E-1,-9.1316596E-2,2.505225E-1,2.7734336E-1,5.825663E-1,-3.0018792E-1,1.2968451E-1,8.4261656E-1,5.922549E-1,3.3344162E-1,-6.095125E-1,7.197625E-1,4.6868035E-1,6.66133E-1,3.0791897E-1,6.6687167E-1,8.425337E-1,7.164161E-2,7.3111916E-1,3.58847E-2,7.18397E-1,-2.148325E-1,-3.0895007E-1,-5.7951355E-1,-4.214109E-1,-4.925882E-1,-6.383025E-2,6.4464587E-1,-4.3661496E-1,-3.1243384E-2,8.96278E-2],"categories":[],"categories_nodes":[],"categories_segments":[],"categories_sizes":[],"default_left":[0,0,0,0,0,0,0,0,0,0,0,0,0,0,0,0,0,0,0,0,0,0,0,0,0,0,0,0,0,0,0,0,0,0,0,0,0,0,0,0,0,0,0,0,0,0,0,0,0,0,0,0,0,0,0,0,0,0,0,0,0,0,0,0,0,0,0,0,0,0,0,0,0,0,0,0,0,0,0,0,0,0,0,0,0,0,0,0,0,0,0,0,0,0,0,0,0,0,0],"id":8,"left_children":[1,3,5,7,9,11,13,15,17,19,21,23,25,-1,27,29,31,33,35,37,39,41,43,45,47,49,51,53,55,57,-1,59,61,63,65,67,69,71,73,75,77,79,81,83,85,87,89,91,-1,-1,93,95,-1,-1,97,-1,-1,-1,-1,-1,-1,-1,-1,-1,-1,-1,-1,-1,-1,-1,-1,-1,-1,-1,-1,-1,-1,-1,-1,-1,-1,-1,-1,-1,-1,-1,-1,-1,-1,-1,-1,-1,-1,-1,-1,-1,-1,-1,-1],"loss_changes":[9.022675E5,3.0962425E5,1.3656625E4,5.7024414E4,5.8744062E4,7.148375E3,4.126479E3,4.607735E4,3.6084555E4,1.1411873E4,1.5531125E4,3.155043E3,2.757E3,0E0,6.417166E2,1.7281742E4,3.3768336E4,2.951334E3,3.4494152E4,8.346073E3,2.4405781E3,6.2934688E3,7.4509688E3,1.5311787E3,6.056836E2,1.78125E2,1.633875E3,2.4542441E2,1.054834E1,1.3289402E4,0E0,2.108915E3,8.190875E3,2.9851855E3,3.5945508E2,2.636205E4,2.9751113E4,7.281084E2,6.9138745E3,5.0365625E2,1.2665983E3,4.6183906E3,3.5062988E3,2.0550312E3,6.4781504E3,5.0381015E2,3.9885156E2,3.4410156E2,0E0,0E0,4.7976562E1,1.3276875E3,0E0,0E0,4.5048897E1,0E0,0E0,0E0,0E0,0E0,0E0,0E0,0E0,0E0,0E0,0E0,0E0,0E0,0E0,0E0,0E0,0E0,0E0,0E0,0E0,0E0,0E0,0E0,0E0,0E0,0E0,0E0,0E0,0E0,0E0,0E0,0E0,0E0,0E0,0E0,0E0,0E0,0E0,0E0,0E0,0E0,0E0,0E0,0E0],"parents":[2147483647,0,0,1,1,2,2,3,3,4,4,5,5,6,6,7,7,8,8,9,9,10,10,11,11,12,12,14,14,15,15,16,16,17,17,18,18,19,19,20,20,21,21,22,22,23,23,24,24,25,25,26,26,27,27,28,28,29,29,31,31,32,32,33,33,34,34,35,35,36,36,37,37,38,38,39,39,40,40,41,41,42,42,43,43,44,44,45,45,46,46,47,47,50,50,51,51,54,54],"right_children":[2,4,6,8,10,12,14,16,18,20,22,24,26,-1,28,30,32,34,36,38,40,42,44,46,48,50,52,54,56,58,-1,60,62,64,66,68,70,72,74,76,78,80,82,84,86,88,90,92,-1,-1,94,96,-1,-1,98,-1,-1,-1,-1,-1,-1,-1,-1,-1,-1,-1,-1,-1,-1,-1,-1,-1,-1,-1,-1,-1,-1,-1,-1,-1,-1,-1,-1,-1,-1,-1,-1,-1,-1,-1,-1,-1,-1,-1,-1,-1,-1,-1,-1],"split_conditions":[1.415329E-1,-4.0304802E-2,1.3285875E0,5.9215254E-1,-3.9998525E-1,-2.0882202E-2,-2.0061623E-1,-6.327794E-1,-4.507839E-1,-2.9692537E-1,-1.393431E-1,9.411151E-1,2.695573E-1,8.742076E-1,8.076554E-1,1.489092E0,-1.2147129E0,4.1467768E-1,-4.6132487E-1,-6.99188E-1,3.1271455E-1,8.490517E-1,5.924774E-1,1.2372544E0,3.7076561E0,1.751536E-1,1.6303654E0,3.596889E-1,-1.1145018E0,9.2407E-1,-5.445635E-1,1.7097799E0,9.2407E-1,-8.9752994E-2,-2.9091173E-1,-3.048554E-1,-2.9226792E-1,-4.8811993E-1,9.5784485E-2,-6.0235924E-1,-1.9098678E-1,6.3032985E-1,-1.3446043E-1,-3.0218396E-1,1.4998635E0,9.3466383E-1,1.1966835E0,9.546481E-1,4.5043713E-1,-5.2659935E-1,-1.07323274E-1,6.6812644E-3,-5.5523175E-1,4.0876278E-1,1.0589819E0,-1.2399947E-1,-5.2049273E-1,1.8514681E-1,-5.036157E-2,-1.3844784E-1,1.747862E-1,6.137573E-1,2.6132506E-1,-1.9781299E-1,-5.115422E-1,-1.3518143E-1,-4.8104516E-1,4.325725E-1,-3.9849374E-1,-9.1316596E-2,2.505225E-1,2.7734336E-1,5.825663E-1,-3.0018792E-1,1.2968451E-1,8.4261656E-1,5.922549E-1,3.3344162E-1,-6.095125E-1,7.197625E-1,4.6868035E-1,6.66133E-1,3.0791897E-1,6.6687167E-1,8.425337E-1,7.164161E-2,7.3111916E-1,3.58847E-2,7.18397E-1,-2.148325E-1,-3.0895007E-1,-5.7951355E-1,-4.214109E-1,-4.925882E-1,-6.383025E-2,6.4464587E-1,-4.3661496E-1,-3.1243384E-2,8.96278E-2],"split_indices":[12,16,34,19,40,13,24,32,11,36,2,11,11,0,3,44,16,15,31,31,19,39,10,15,7,11,44,24,5,39,0,37,39,36,13,36,16,11,18,31,26,19,19,40,27,15,2,15,0,0,1,8,0,0,31,0,0,0,0,0,0,0,0,0,0,0,0,0,0,0,0,0,0,0,0,0,0,0,0,0,0,0,0,0,0,0,0,0,0,0,0,0,0,0,0,0,0,0,0],"split_type":[0,0,0,0,0,0,0,0,0,0,0,0,0,0,0,0,0,0,0,0,0,0,0,0,0,0,0,0,0,0,0,0,0,0,0,0,0,0,0,0,0,0,0,0,0,0,0,0,0,0,0,0,0,0,0,0,0,0,0,0,0,0,0,0,0,0,0,0,0,0,0,0,0,0,0,0,0,0,0,0,0,0,0,0,0,0,0,0,0,0,0,0,0,0,0,0,0,0,0],"sum_hessian":[2.2366E4,1.4866E4,7.5E3,1.0976E4,3.89E3,7.442E3,5.8E1,5.034E3,5.942E3,7.41E2,3.149E3,6.97E2,6.745E3,2E1,3.8E1,3.534E3,1.5E3,1.328E3,4.614E3,5.88E2,1.53E2,1.247E3,1.902E3,5.14E2,1.83E2,2.482E3,4.263E3,3.3E1,5E0,3.438E3,9.6E1,2.75E2,1.225E3,1.185E3,1.43E2,8.83E2,3.731E3,1.08E2,4.8E2,1.12E2,4.1E1,8.63E2,3.84E2,1.75E3,1.52E2,3.1E1,4.83E2,1.82E2,1E0,1.447E3,1.035E3,3.938E3,3.25E2,4E0,2.9E1,1E0,4E0,2.666E3,7.72E2,2.03E2,7.2E1,1.026E3,1.99E2,1.104E3,8.1E1,9E0,1.34E2,7.75E2,1.08E2,2.918E3,8.13E2,3E1,7.8E1,1.26E2,3.54E2,5E1,6.2E1,3.8E1,3E0,5.83E2,2.8E2,9E1,2.94E2,2.14E2,1.536E3,6.5E1,8.7E1,2.9E1,2E0,2.62E2,2.21E2,7.2E1,1.1E2,1.034E3,1E0,2E0,3.936E3,1.5E1,1.4E1],"tree_param":{"num_deleted":"0","num_feature":"46","num_nodes":"99","size_leaf_vector":"1"}},{"base_weights":[-7.7999886E-3,4.316174E0,-8.506539E0,1.4483159E0,1.0612255E1,1.5305545E1,-8.591051E0,3.960571E0,-4.9888414E-1,4.704815E0,1.3388277E1,-4.0660057E0,8.510955E-1,-5.1979995E0,-8.910789E0,2.1907794E0,8.191462E0,-4.193662E0,1.0143653E0,1.4249877E1,2.302426E0,1.0711558E1,1.5091084E1,-3.4802288E-1,4.057246E-2,-3.9403548E0,-9.248662E0,-8.44645E0,-1.0133555E1,2.6415305E0,-1.02238865E1,5.3133774E0,1.219615E1,-5.9041767E0,-2.4130745E0,5.21921E0,-1.2375551E0,-4.549589E0,1.445682E1,3.282427E0,-3.4156399E0,1.5491363E1,9.462733E0,1.5470814E1,6.587814E0,2.364678E0,-4.8446693E0,-9.425738E0,4.3917617E-1,-9.039119E0,-7.9458623E0,-4.9610946E-1,-5.237829E-1,2.5607893E-1,-2.9581869E-2,-4.1764233E-1,-5.425547E-1,4.937974E-1,1.1709698E-1,6.3712823E-1,-3.3640742E-1,-2.308108E-1,-4.019998E-1,4.2759314E-2,-2.1340854E-1,-7.254716E-2,3.2722053E-1,-9.998111E-2,2.1585906E-1,-6.250383E-2,-2.5997004E-1,8.1728405E-1,6.6307443E-1,3.8217887E-1,1.01723306E-1,-3.049784E-1,3.3421487E-1,8.2080835E-1,6.41886E-1,2.7085003E-1,5.589642E-1,7.7545893E-1,-6.585123E-1,-6.486817E-1,6.452521E-1,6.4132017E-1,3.039735E-2,-1.9595955E-1,-2.8112277E-1,-5.5994385E-1,-3.9667878E-1,-2.9567552E-1,-4.5664126E-1,-3.937405E-1,-5.217705E-1],"categories":[],"categories_nodes":[],"categories_segments":[],"categories_sizes":[],"default_left":[0,0,0,0,0,0,0,0,0,0,0,0,0,0,0,0,0,0,0,0,0,0,0,0,0,0,0,0,0,0,0,0,0,0,0,0,0,0,0,0,0,0,0,0,0,0,0,0,0,0,0,0,0,0,0,0,0,0,0,0,0,0,0,0,0,0,0,0,0,0,0,0,0,0,0,0,0,0,0,0,0,0,0,0,0,0,0,0,0,0,0,0,0,0,0],"id":9,"left_children":[1,3,5,7,9,11,13,15,17,19,21,23,-1,25,27,29,31,33,35,37,39,41,43,-1,-1,45,47,49,51,53,55,57,59,61,63,65,67,69,71,73,75,77,79,81,83,85,87,89,-1,91,93,-1,-1,-1,-1,-1,-1,-1,-1,-1,-1,-1,-1,-1,-1,-1,-1,-1,-1,-1,-1,-1,-1,-1,-1,-1,-1,-1,-1,-1,-1,-1,-1,-1,-1,-1,-1,-1,-1,-1,-1,-1,-1,-1,-1],"loss_changes":[8.210315E5,2.6736066E5,1.5292375E4,4.977703E4,7.592903E4,9.6821924E2,8.0975625E3,3.324928E4,3.2058465E4,3.3972137E4,1.4202375E4,4.8615635E1,0E0,3.2684355E3,3.8075E3,1.7563879E4,1.5032289E4,5.05909E3,3.8526652E4,1.2261094E3,6.6571987E3,7.1869688E3,6.108375E3,0E0,0E0,2.8454648E3,5.7139844E2,1.4033438E3,3.01875E1,2.425917E4,3.6530273E1,1.03335E4,5.7425938E3,2.2970918E3,4.963476E3,1.2552953E4,1.1226064E4,1.4316483E0,4.4632422E2,5.4967803E3,4.7574185E3,4.0721094E2,6.7227656E3,2.227375E3,1.0547645E4,1.1487004E3,2.901338E2,3.1140234E2,0E0,6.099375E2,3.9484375E2,0E0,0E0,0E0,0E0,0E0,0E0,0E0,0E0,0E0,0E0,0E0,0E0,0E0,0E0,0E0,0E0,0E0,0E0,0E0,0E0,0E0,0E0,0E0,0E0,0E0,0E0,0E0,0E0,0E0,0E0,0E0,0E0,0E0,0E0,0E0,0E0,0E0,0E0,0E0,0E0,0E0,0E0,0E0,0E0],"parents":[2147483647,0,0,1,1,2,2,3,3,4,4,5,5,6,6,7,7,8,8,9,9,10,10,11,11,13,13,14,14,15,15,16,16,17,17,18,18,19,19,20,20,21,21,22,22,25,25,26,26,27,27,28,28,29,29,30,30,31,31,32,32,33,33,34,34,35,35,36,36,37,37,38,38,39,39,40,40,41,41,42,42,43,43,44,44,45,45,46,46,47,47,49,49,50,50],"right_children":[2,4,6,8,10,12,14,16,18,20,22,24,-1,26,28,30,32,34,36,38,40,42,44,-1,-1,46,48,50,52,54,56,58,60,62,64,66,68,70,72,74,76,78,80,82,84,86,88,90,-1,92,94,-1,-1,-1,-1,-1,-1,-1,-1,-1,-1,-1,-1,-1,-1,-1,-1,-1,-1,-1,-1,-1,-1,-1,-1,-1,-1,-1,-1,-1,-1,-1,-1,-1,-1,-1,-1,-1,-1,-1,-1,-1,-1,-1,-1],"split_conditions":[1.415329E-1,-1.3220525E-1,-6.2323654E-1,5.238144E-1,-3.895475E-1,-1.2301593E0,-4.6981204E-2,-6.842301E-1,-4.2487E-1,6.591486E-2,-2.859211E-1,-1.3197424E0,8.510955E-1,9.411151E-1,1.4329565E0,1.489092E0,-6.246709E-1,-3.137265E-1,1.2852103E-1,-3.766396E-1,-8.375442E-2,-2.5838676E-1,5.29629E-1,-3.4802288E-1,4.057246E-2,1.7277678E0,9.5159453E-1,1.0638831E0,1.618428E0,1.3742238E-1,6.64216E-1,-1.7493556E-1,5.242913E-1,7.826745E-1,7.0674944E-1,-1.1210035E0,-3.4805793E-1,-2.723849E-1,-5.750195E-2,-3.065822E-1,1.1716429E0,9.2407E-1,-6.351913E-1,1.5721525E0,6.6897905E-1,3.596889E-1,3.631128E-1,9.546481E-1,4.3917617E-1,-5.016593E-1,2.9366338E0,-4.9610946E-1,-5.237829E-1,2.5607893E-1,-2.9581869E-2,-4.1764233E-1,-5.425547E-1,4.937974E-1,1.1709698E-1,6.3712823E-1,-3.3640742E-1,-2.308108E-1,-4.019998E-1,4.2759314E-2,-2.1340854E-1,-7.254716E-2,3.2722053E-1,-9.998111E-2,2.1585906E-1,-6.250383E-2,-2.5997004E-1,8.1728405E-1,6.6307443E-1,3.8217887E-1,1.01723306E-1,-3.049784E-1,3.3421487E-1,8.2080835E-1,6.41886E-1,2.7085003E-1,5.589642E-1,7.7545893E-1,-6.585123E-1,-6.486817E-1,6.452521E-1,6.4132017E-1,3.039735E-2,-1.9595955E-1,-2.8112277E-1,-5.5994385E-1,-3.9667878E-1,-2.9567552E-1,-4.5664126E-1,-3.937405E-1,-5.217705E-1],"split_indices":[12,16,10,19,11,16,13,16,11,19,11,0,0,11,45,44,32,16,8,36,35,19,8,0,0,15,6,32,44,8,45,35,3,38,39,16,16,1,37,15,39,39,32,19,26,24,12,15,0,32,11,0,0,0,0,0,0,0,0,0,0,0,0,0,0,0,0,0,0,0,0,0,0,0,0,0,0,0,0,0,0,0,0,0,0,0,0,0,0,0,0,0,0,0,0],"split_type":[0,0,0,0,0,0,0,0,0,0,0,0,0,0,0,0,0,0,0,0,0,0,0,0,0,0,0,0,0,0,0,0,0,0,0,0,0,0,0,0,0,0,0,0,0,0,0,0,0,0,0,0,0,0,0,0,0,0,0,0,0,0,0,0,0,0,0,0,0,0,0,0,0,0,0,0,0,0,0,0,0,0,0,0,0,0,0,0,0,0,0,0,0,0,0],"sum_hessian":[2.234E4,1.4807E4,7.533E3,1.0174E4,4.633E3,2.6E1,7.507E3,4.442E3,5.732E3,1.482E3,3.151E3,2E0,2.4E1,6.48E2,6.859E3,3.133E3,1.309E3,1.665E3,4.067E3,2.97E2,1.185E3,1.228E3,1.923E3,1E0,1E0,4.96E2,1.52E2,4.977E3,1.882E3,3.024E3,1.09E2,7.63E2,5.46E2,8.48E2,8.17E2,1.418E3,2.649E3,3E0,2.94E2,1.012E3,1.73E2,2.52E2,9.76E2,1.84E3,8.3E1,6.2E1,4.34E2,1.51E2,1E0,2.271E3,2.706E3,1.182E3,7E2,1.711E3,1.313E3,3.1E1,7.8E1,3E2,4.63E2,5.31E2,1.5E1,5.31E2,3.17E2,2.96E2,5.21E2,2.35E2,1.183E3,2.33E3,3.19E2,1E0,2E0,1.09E2,1.85E2,2.24E2,7.88E2,1.37E2,3.6E1,1.83E2,6.9E1,2.92E2,6.84E2,1.838E3,2E0,2E1,6.3E1,8E0,5.4E1,2.01E2,2.33E2,6.6E1,8.5E1,6.8E1,2.203E3,2.635E3,7.1E1],"tree_param":{"num_deleted":"0","num_feature":"46","num_nodes":"95","size_leaf_vector":"1"}},{"base_weights":[4.1724533E-2,4.076373E0,-8.165516E0,3.132739E0,1.2970767E1,1.3040986E1,-8.21073E0,1.1321362E-1,4.9899383E0,1.4531466E1,1.1412796E0,7.880227E-1,-3.9635224E0,-7.0843973E0,-8.94584E0,1.0133221E0,-3.1655328E0,9.481738E0,1.9979709E0,-1.0007609E1,1.5054567E1,4.004147E0,-7.540279E0,-3.393223E-1,3.9558135E-2,-4.1842217E0,-7.5336733E0,-8.4566965E0,-9.623106E0,1.2798706E0,-9.938564E0,-1.3526163E0,-6.177758E0,1.0105124E1,1.990537E0,4.317594E0,-1.2816396E0,-6.027673E-1,5.1796997E-1,7.271539E0,1.5254805E1,1.0885351E0,7.7993383E0,-8.021745E0,3.0249506E-1,-4.818539E0,1.1989995E0,-7.2413864E0,-9.344905E0,-8.640368E0,-7.943958E0,-4.693229E-1,-4.950629E-1,2.0488797E-1,6.433222E-3,-4.0428218E-1,-5.221258E-1,-4.0176015E-2,-4.9210462E-1,-3.4150317E-1,2.4403611E-2,3.2851058E-1,5.8044165E-1,4.3484765E-1,-6.196728E-2,9.0322904E-2,3.4205666E-1,-1.1201578E-1,1.7234124E-1,-5.334052E-1,5.828473E-1,-3.1059885E-1,7.638919E-1,-7.018354E-2,1.336328E-1,4.1431624E-1,-4.599474E-1,-2.7349827E-1,-5.2113074E-1,-2.0721999E-1,-4.590726E-1,1.0778346E-1,6.745855E-3,-4.843907E-1,-3.586473E-1,-1.0784681E-1,-4.6901187E-1,-4.459868E-1,-4.168627E-1,-4.0249616E-1,-3.2832935E-1],"categories":[],"categories_nodes":[],"categories_segments":[],"categories_sizes":[],"default_left":[0,0,0,0,0,0,0,0,0,0,0,0,0,0,0,0,0,0,0,0,0,0,0,0,0,0,0,0,0,0,0,0,0,0,0,0,0,0,0,0,0,0,0,0,0,0,0,0,0,0,0,0,0,0,0,0,0,0,0,0,0,0,0,0,0,0,0,0,0,0,0,0,0,0,0,0,0,0,0,0,0,0,0,0,0,0,0,0,0,0,0],"id":10,"left_children":[1,3,5,7,9,11,13,15,17,19,21,-1,23,25,27,29,31,33,35,37,39,41,43,-1,-1,45,47,49,51,53,55,57,59,61,63,65,67,-1,-1,69,71,73,75,77,-1,79,81,83,85,87,89,-1,-1,-1,-1,-1,-1,-1,-1,-1,-1,-1,-1,-1,-1,-1,-1,-1,-1,-1,-1,-1,-1,-1,-1,-1,-1,-1,-1,-1,-1,-1,-1,-1,-1,-1,-1,-1,-1,-1,-1],"loss_changes":[7.375661E5,1.25291234E5,7.145375E3,7.571625E4,2.6419781E4,8.035376E2,6.00075E3,1.5181156E4,1.12332625E5,1.6389281E4,4.2053364E3,0E0,4.6235058E1,3.7433438E3,1.3840625E3,1.1793782E4,6.041583E3,1.5585531E4,3.818768E4,1.251125E3,1.8177188E3,1.3959149E3,3.2354224E2,0E0,0E0,1.3412759E3,1.2584062E3,1.7267188E2,2.690625E1,1.2783539E4,3.3554688E0,3.2214727E3,1.8128008E3,1.6320156E4,5.6000454E3,1.861741E4,9.436377E3,0E0,0E0,2.7206523E3,6.9265625E2,2.9207913E2,5.3142017E2,1.925857E2,0E0,9.9003955E2,4.223507E1,2.9115625E2,6.623047E1,8.378125E1,4.6820312E1,0E0,0E0,0E0,0E0,0E0,0E0,0E0,0E0,0E0,0E0,0E0,0E0,0E0,0E0,0E0,0E0,0E0,0E0,0E0,0E0,0E0,0E0,0E0,0E0,0E0,0E0,0E0,0E0,0E0,0E0,0E0,0E0,0E0,0E0,0E0,0E0,0E0,0E0,0E0,0E0],"parents":[2147483647,0,0,1,1,2,2,3,3,4,4,5,5,6,6,7,7,8,8,9,9,10,10,12,12,13,13,14,14,15,15,16,16,17,17,18,18,19,19,20,20,21,21,22,22,25,25,26,26,27,27,28,28,29,29,30,30,31,31,32,32,33,33,34,34,35,35,36,36,39,39,40,40,41,41,42,42,43,43,45,45,46,46,47,47,48,48,49,49,50,50],"right_children":[2,4,6,8,10,12,14,16,18,20,22,-1,24,26,28,30,32,34,36,38,40,42,44,-1,-1,46,48,50,52,54,56,58,60,62,64,66,68,-1,-1,70,72,74,76,78,-1,80,82,84,86,88,90,-1,-1,-1,-1,-1,-1,-1,-1,-1,-1,-1,-1,-1,-1,-1,-1,-1,-1,-1,-1,-1,-1,-1,-1,-1,-1,-1,-1,-1,-1,-1,-1,-1,-1,-1,-1,-1,-1,-1,-1],"split_conditions":[1.9092566E-1,1.0515847E-1,-6.4068604E-1,-4.014474E-1,7.415774E-1,-1.611145E-1,6.6546637E-1,9.2133385E-1,1.1572437E-1,-6.051513E-1,1.4267108E0,7.880227E-1,-1.3197424E0,4.9961767E-1,1.4329565E0,9.098258E-1,-2.8613472E-1,3.3004827E0,-7.3440574E-2,-2.7077067E-1,-5.201973E-1,-5.4179144E-1,2.5196412E-1,-3.393223E-1,3.9558135E-2,2.3690443E0,1.4169815E0,6.3938075E-1,1.5944525E0,3.2261392E-1,1.2326698E0,8.6356694E-1,-1.9479923E-1,-6.319261E-1,-1.9613837E-1,-6.319261E-1,1.3837935E0,-6.027673E-1,5.1796997E-1,-5.0576717E-1,-4.208872E-1,-1.9801526E-1,-1.4584365E-1,-2.2884223E-1,3.0249506E-1,-7.5894517E-1,-1.091378E0,-2.4661338E-1,-1.3639857E0,1.4554662E0,8.6132467E-1,-4.693229E-1,-4.950629E-1,2.0488797E-1,6.433222E-3,-4.0428218E-1,-5.221258E-1,-4.0176015E-2,-4.9210462E-1,-3.4150317E-1,2.4403611E-2,3.2851058E-1,5.8044165E-1,4.3484765E-1,-6.196728E-2,9.0322904E-2,3.4205666E-1,-1.1201578E-1,1.7234124E-1,-5.334052E-1,5.828473E-1,-3.1059885E-1,7.638919E-1,-7.018354E-2,1.336328E-1,4.1431624E-1,-4.599474E-1,-2.7349827E-1,-5.2113074E-1,-2.0721999E-1,-4.590726E-1,1.0778346E-1,6.745855E-3,-4.843907E-1,-3.586473E-1,-1.0784681E-1,-4.6901187E-1,-4.459868E-1,-4.168627E-1,-4.0249616E-1,-3.2832935E-1],"split_indices":[12,36,9,11,18,21,45,37,8,35,18,0,0,12,45,43,13,18,40,1,12,32,36,0,0,18,11,31,44,37,43,18,14,32,26,32,26,0,0,35,1,21,1,11,0,18,35,4,36,43,35,0,0,0,0,0,0,0,0,0,0,0,0,0,0,0,0,0,0,0,0,0,0,0,0,0,0,0,0,0,0,0,0,0,0,0,0,0,0,0,0],"split_type":[0,0,0,0,0,0,0,0,0,0,0,0,0,0,0,0,0,0,0,0,0,0,0,0,0,0,0,0,0,0,0,0,0,0,0,0,0,0,0,0,0,0,0,0,0,0,0,0,0,0,0,0,0,0,0,0,0,0,0,0,0,0,0,0,0,0,0,0,0,0,0,0,0,0,0,0,0,0,0,0,0,0,0,0,0,0,0,0,0,0,0],"sum_hessian":[2.2272E4,1.4932E4,7.34E3,1.3501E4,1.431E3,1.5E1,7.325E3,5.142E3,8.359E3,1.264E3,1.67E2,1.3E1,2E0,2.897E3,4.428E3,4.035E3,1.107E3,3.341E3,5.018E3,2.6E1,1.238E3,1.26E2,4.1E1,1E0,1E0,3.9E2,2.507E3,2.579E3,1.849E3,3.94E3,9.5E1,6.92E2,4.15E2,3.084E3,2.57E2,2.939E3,2.079E3,2.4E1,2E0,3.2E1,1.206E3,7.2E1,5.4E1,4E1,1E0,3.49E2,4.1E1,2.163E3,3.44E2,1.887E3,6.92E2,1.018E3,8.31E2,1.142E3,2.798E3,2.4E1,7.1E1,6.51E2,4.1E1,3.78E2,3.7E1,9.22E2,2.162E3,8.3E1,1.74E2,1.474E3,1.465E3,1.729E3,3.5E2,6E0,2.6E1,1E0,1.205E3,2.8E1,4.4E1,5.3E1,1E0,2.1E1,1.9E1,3.04E2,4.5E1,2.1E1,2E1,5.5E1,2.108E3,2E0,3.42E2,9.67E2,9.2E2,6.38E2,5.4E1],"tree_param":{"num_deleted":"0","num_feature":"46","num_nodes":"91","size_leaf_vector":"1"}},{"base_weights":[-9.681005E-3,3.802148E0,-7.7986298E0,1.0744874E0,9.720222E0,1.3356546E1,-7.8439674E0,3.1873453E0,-7.5272465E-1,4.017291E0,1.2053714E1,-3.3083925E-1,7.567944E-1,-6.9355807E0,-8.592376E0,1.5763232E0,7.1852813E0,-3.6228883E0,8.302709E-1,1.2753132E1,1.7715051E0,9.480029E0,1.3744325E1,-4.437717E0,-7.2397947E0,-8.136715E0,-9.120213E0,3.5054078E0,-9.4116545E-1,1.2661002E0,9.069158E0,-5.675578E0,-1.8506539E0,7.226649E0,-9.736842E-1,-1.3374805E0,1.322639E1,-5.103054E0,2.5476565E0,-1.127171E1,9.725575E0,1.4179938E1,6.551932E0,-3.7774775E0,-4.4939503E-1,-7.0583262E0,-9.0528E0,-3.4103692E-1,-8.192739E0,-4.4573694E-1,-4.7173372E-1,7.748452E-2,4.1718957E-1,-9.9481605E-2,1.3052417E-1,2.9785275E-1,-2.5710163E-1,5.3802913E-1,2.2068226E-1,-8.8475615E-2,-3.0743885E-1,-4.8480615E-2,-4.3275642E-1,1.8618123E-1,5.387109E-1,7.975536E-2,-1.682849E-1,2.6748297E-1,-1.8452364E-1,7.6066846E-1,6.0683936E-1,4.377582E-1,-3.281415E-1,4.411761E-2,2.671615E-1,-1.1676852E-1,-5.852554E-1,5.329133E-1,3.3791128E-1,7.4209803E-1,6.323753E-1,-4.2839193E-1,6.297515E-1,-1.9977312E-1,7.126856E-1,-4.5479646E-1,-3.4915486E-1,-2.5966987E-1,-4.591953E-1,-4.224014E-1,-3.9929423E-1],"categories":[],"categories_nodes":[],"categories_segments":[],"categories_sizes":[],"default_left":[0,0,0,0,0,0,0,0,0,0,0,0,0,0,0,0,0,0,0,0,0,0,0,0,0,0,0,0,0,0,0,0,0,0,0,0,0,0,0,0,0,0,0,0,0,0,0,0,0,0,0,0,0,0,0,0,0,0,0,0,0,0,0,0,0,0,0,0,0,0,0,0,0,0,0,0,0,0,0,0,0,0,0,0,0,0,0,0,0,0,0],"id":11,"left_children":[1,3,5,7,9,11,13,15,17,19,21,-1,-1,23,25,27,29,31,33,35,37,39,41,43,45,47,49,51,53,55,57,59,61,63,65,67,69,71,73,75,77,79,81,83,-1,85,87,-1,89,-1,-1,-1,-1,-1,-1,-1,-1,-1,-1,-1,-1,-1,-1,-1,-1,-1,-1,-1,-1,-1,-1,-1,-1,-1,-1,-1,-1,-1,-1,-1,-1,-1,-1,-1,-1,-1,-1,-1,-1,-1,-1],"loss_changes":[6.6060606E5,2.4114122E5,7.1164062E3,3.94854E4,6.2669344E4,6.696328E2,4.899E3,3.0536332E4,2.4924146E4,2.685375E4,1.4417469E4,0E0,0E0,2.4750938E3,8.8515625E2,1.6428066E4,1.5175164E4,7.082547E3,4.080878E4,1.8860586E3,5.833993E3,6.8813984E3,6.2213438E3,1.049292E3,9.0209375E2,1.01421875E2,3.3140625E1,1.8106783E4,5.471649E3,9.950599E3,8.0852812E3,1.6573848E3,6.2734316E3,9.626809E3,1.6958453E4,1.7692473E2,3.9933984E2,2.3027566E3,4.5616895E3,3.322815E1,3.5628828E3,1.7370938E3,1.0798635E4,1.3019019E3,0E0,3.45375E2,8.4447266E1,0E0,3.9734375E1,0E0,0E0,0E0,0E0,0E0,0E0,0E0,0E0,0E0,0E0,0E0,0E0,0E0,0E0,0E0,0E0,0E0,0E0,0E0,0E0,0E0,0E0,0E0,0E0,0E0,0E0,0E0,0E0,0E0,0E0,0E0,0E0,0E0,0E0,0E0,0E0,0E0,0E0,0E0,0E0,0E0,0E0],"parents":[2147483647,0,0,1,1,2,2,3,3,4,4,5,5,6,6,7,7,8,8,9,9,10,10,13,13,14,14,15,15,16,16,17,17,18,18,19,19,20,20,21,21,22,22,23,23,24,24,25,25,26,26,27,27,28,28,29,29,30,30,31,31,32,32,33,33,34,34,35,35,36,36,37,37,38,38,39,39,40,40,41,41,42,42,43,43,45,45,46,46,48,48],"right_children":[2,4,6,8,10,12,14,16,18,20,22,-1,-1,24,26,28,30,32,34,36,38,40,42,44,46,48,50,52,54,56,58,60,62,64,66,68,70,72,74,76,78,80,82,84,-1,86,88,-1,90,-1,-1,-1,-1,-1,-1,-1,-1,-1,-1,-1,-1,-1,-1,-1,-1,-1,-1,-1,-1,-1,-1,-1,-1,-1,-1,-1,-1,-1,-1,-1,-1,-1,-1,-1,-1,-1,-1,-1,-1,-1,-1],"split_conditions":[2.4180338E-1,-1.4125238E-1,-6.2323654E-1,5.629952E-1,-4.043297E-1,9.810075E-2,1.2402289E0,-6.842301E-1,-4.014474E-1,1.13104746E-1,-1.3621457E-1,-3.3083925E-1,7.567944E-1,5.4154235E-1,1.5912104E0,1.3742238E-1,-2.3616469E-1,-3.274975E-1,-4.4051796E-1,-3.5274434E-1,7.7906385E-2,-2.1272679E-1,1.6747153E-1,5.142633E-1,1.6641732E0,1.5176351E0,1.6050539E0,4.9796093E-1,-7.803361E-1,8.361702E-1,9.10231E-1,-5.620971E-1,-1.3365315E-1,-6.263089E-1,1.824901E-1,-2.890358E-1,-5.970181E-1,-7.053965E-1,8.480547E-2,-2.7853122E-1,9.704417E-1,9.2407E-1,1.4998635E0,8.850514E-1,-4.4939503E-1,-1.3814674E-1,-1.1970528E0,-3.4103692E-1,1.376126E0,-4.4573694E-1,-4.7173372E-1,7.748452E-2,4.1718957E-1,-9.9481605E-2,1.3052417E-1,2.9785275E-1,-2.5710163E-1,5.3802913E-1,2.2068226E-1,-8.8475615E-2,-3.0743885E-1,-4.8480615E-2,-4.3275642E-1,1.8618123E-1,5.387109E-1,7.975536E-2,-1.682849E-1,2.6748297E-1,-1.8452364E-1,7.6066846E-1,6.0683936E-1,4.377582E-1,-3.281415E-1,4.411761E-2,2.671615E-1,-1.1676852E-1,-5.852554E-1,5.329133E-1,3.3791128E-1,7.4209803E-1,6.323753E-1,-4.2839193E-1,6.297515E-1,-1.9977312E-1,7.126856E-1,-4.5479646E-1,-3.4915486E-1,-2.5966987E-1,-4.591953E-1,-4.224014E-1,-3.9929423E-1],"split_indices":[12,16,10,19,11,1,43,16,11,19,1,0,0,12,43,8,1,16,31,36,18,18,6,19,11,44,44,39,16,39,39,14,36,32,8,13,31,31,16,13,39,39,27,8,0,41,37,0,43,0,0,0,0,0,0,0,0,0,0,0,0,0,0,0,0,0,0,0,0,0,0,0,0,0,0,0,0,0,0,0,0,0,0,0,0,0,0,0,0,0,0],"split_type":[0,0,0,0,0,0,0,0,0,0,0,0,0,0,0,0,0,0,0,0,0,0,0,0,0,0,0,0,0,0,0,0,0,0,0,0,0,0,0,0,0,0,0,0,0,0,0,0,0,0,0,0,0,0,0,0,0,0,0,0,0,0,0,0,0,0,0,0,0,0,0,0,0,0,0,0,0,0,0,0,0,0,0,0,0,0,0,0,0,0,0],"sum_hessian":[2.2248E4,1.4938E4,7.31E3,1.0226E4,4.712E3,1.5E1,7.295E3,4.742E3,5.484E3,1.369E3,3.343E3,1E0,1.4E1,3.3E3,3.995E3,3.381E3,1.361E3,1.949E3,3.535E3,2.79E2,1.09E3,1.328E3,2.015E3,3.6E2,2.94E3,2.153E3,1.842E3,1.914E3,1.467E3,3.29E2,1.032E3,9.02E2,1.047E3,7.77E2,2.758E3,9E0,2.7E2,1.1E2,9.8E2,1.5E1,1.313E3,1.899E3,1.16E2,3.16E2,4.4E1,2.677E3,2.63E2,9.3E1,2.06E3,1.132E3,7.1E2,1.364E3,5.5E2,1.133E3,3.34E2,1.9E2,1.39E2,7.56E2,2.76E2,9.8E1,8.04E2,9.28E2,1.19E2,3.92E2,3.85E2,1.33E3,1.428E3,2E0,7E0,9.1E1,1.79E2,1E1,1E2,6.15E2,3.65E2,1E0,1.4E1,9.97E2,3.16E2,1.32E3,5.79E2,3.3E1,8.3E1,3.13E2,3E0,9.1E1,2.586E3,1E1,2.53E2,9.04E2,1.156E3],"tree_param":{"num_deleted":"0","num_feature":"46","num_nodes":"91","size_leaf_vector":"1"}},{"base_weights":[-1.5584375E-3,3.6150932E0,-7.4206853E0,1.4266441E0,1.0236807E1,1.2083282E1,-7.456963E0,3.436924E0,-2.5740126E-1,6.4982924E0,1.2525776E1,-3.2256827E-1,7.006488E-1,-6.455391E0,-8.074556E0,1.6122347E0,7.150808E0,-4.038841E0,8.509437E-1,9.79805E0,3.935016E0,1.3009454E1,7.8063545E0,-4.2684507E0,-6.8044696E0,-7.6363144E0,-8.692533E0,3.556154E0,-7.658862E-1,9.970775E0,3.6283777E0,-4.984878E0,-1.9718025E0,-3.4723765E-1,6.1310654E0,-8.3473426E-1,1.0512161E1,3.070253E0,9.645202E0,1.0926001E1,1.3912532E1,3.8377454E0,1.228107E1,-3.5734546E0,-4.204773E-1,-6.4889874E0,-8.223134E0,-7.3775573E0,-7.9055386E0,-4.0953228E-1,-4.398891E-1,2.1569823E-1,-4.668892E-1,-8.0904E-2,1.4123377E-1,5.173028E-1,-3.1028023E-1,-2.5784916E-1,2.7038696E-1,-1.777352E-1,-3.2708117E-1,2.3713043E-1,-1.7047061E-1,-2.952704E-1,4.088938E-2,2.4630494E-1,6.347422E-1,1.3191628E-1,-3.7401488E-1,6.637221E-1,4.621025E-1,-1.1585989E-1,2.3712866E-1,5.366129E-1,-8.7253086E-2,6.427304E-1,3.513136E-1,6.611729E-1,7.3228186E-1,4.0538952E-1,-7.482537E-1,6.4421505E-1,-9.892428E-2,-1.8874736E-1,6.984207E-1,-2.5875732E-1,-3.3008578E-1,-3.7409118E-1,-4.5401207E-1,-3.7351182E-1,-3.361395E-1,-4.051334E-1,-3.796863E-1],"categories":[],"categories_nodes":[],"categories_segments":[],"categories_sizes":[],"default_left":[0,0,0,0,0,0,0,0,0,0,0,0,0,0,0,0,0,0,0,0,0,0,0,0,0,0,0,0,0,0,0,0,0,0,0,0,0,0,0,0,0,0,0,0,0,0,0,0,0,0,0,0,0,0,0,0,0,0,0,0,0,0,0,0,0,0,0,0,0,0,0,0,0,0,0,0,0,0,0,0,0,0,0,0,0,0,0,0,0,0,0,0,0],"id":12,"left_children":[1,3,5,7,9,11,13,15,17,19,21,-1,-1,23,25,27,29,31,33,35,37,39,41,43,45,47,49,51,53,55,57,59,61,63,65,67,69,71,73,75,77,79,81,83,-1,85,87,89,91,-1,-1,-1,-1,-1,-1,-1,-1,-1,-1,-1,-1,-1,-1,-1,-1,-1,-1,-1,-1,-1,-1,-1,-1,-1,-1,-1,-1,-1,-1,-1,-1,-1,-1,-1,-1,-1,-1,-1,-1,-1,-1,-1,-1],"loss_changes":[6.0080456E5,2.181215E5,5.2817188E3,3.830703E4,3.1912594E4,5.918855E2,4.4774062E3,3.4941727E4,2.5812791E4,1.1987613E4,5.1876562E3,0E0,0E0,2.1066406E3,1.158E3,1.5998149E4,1.6838867E4,2.7193477E3,3.013603E4,4.724996E3,3.9293574E3,3.7985938E3,3.822585E3,1.0854321E3,1.0246953E3,1.2525E2,2.50625E1,1.8644072E4,4.7686436E3,5.7892812E3,1.1861589E4,2.106418E3,4.263225E3,2.5149348E4,6.9036523E3,9.434372E2,1.9169531E3,6.299892E3,1.3197217E3,4.721164E3,5.420625E2,9.514447E3,9.0396875E2,1.232252E3,0E0,2.5760938E2,2.0679688E2,3.1492188E1,1.6070312E1,0E0,0E0,0E0,0E0,0E0,0E0,0E0,0E0,0E0,0E0,0E0,0E0,0E0,0E0,0E0,0E0,0E0,0E0,0E0,0E0,0E0,0E0,0E0,0E0,0E0,0E0,0E0,0E0,0E0,0E0,0E0,0E0,0E0,0E0,0E0,0E0,0E0,0E0,0E0,0E0,0E0,0E0,0E0,0E0],"parents":[2147483647,0,0,1,1,2,2,3,3,4,4,5,5,6,6,7,7,8,8,9,9,10,10,13,13,14,14,15,15,16,16,17,17,18,18,19,19,20,20,21,21,22,22,23,23,24,24,25,25,26,26,27,27,28,28,29,29,30,30,31,31,32,32,33,33,34,34,35,35,36,36,37,37,38,38,39,39,40,40,41,41,42,42,43,43,45,45,46,46,47,47,48,48],"right_children":[2,4,6,8,10,12,14,16,18,20,22,-1,-1,24,26,28,30,32,34,36,38,40,42,44,46,48,50,52,54,56,58,60,62,64,66,68,70,72,74,76,78,80,82,84,-1,86,88,90,92,-1,-1,-1,-1,-1,-1,-1,-1,-1,-1,-1,-1,-1,-1,-1,-1,-1,-1,-1,-1,-1,-1,-1,-1,-1,-1,-1,-1,-1,-1,-1,-1,-1,-1,-1,-1,-1,-1,-1,-1,-1,-1,-1,-1],"split_conditions":[2.4180338E-1,-1.6564216E-2,-6.2323654E-1,5.7192177E-1,-1.8827559E-1,9.1426307E-1,6.6546637E-1,-6.842301E-1,-4.507839E-1,8.445425E-1,-1.0678872E-2,-3.2256827E-1,7.006488E-1,5.710015E-1,1.4329565E0,1.2959878E-1,8.208696E-1,-1.9851078E-1,-2.3712464E-1,-3.6331433E-1,-1.3365315E-1,-1.1658323E-1,1.4998635E0,5.3474414E-1,-7.1491635E-1,-1.2805569E0,1.5578657E0,9.098258E-1,1.1453199E0,2.00322E0,-4.6557933E-1,5.738942E-1,6.502013E-1,6.1501044E-1,-4.8892954E-1,-1.9149269E-1,3.2200643E-1,9.5784485E-2,-3.866679E-1,8.490517E-1,-3.5380298E-1,1.18683346E-1,2.3194456E0,8.850514E-1,-4.204773E-1,1.06029525E-1,-1.3905926E0,4.1018578E-1,1.3679224E0,-4.0953228E-1,-4.398891E-1,2.1569823E-1,-4.668892E-1,-8.0904E-2,1.4123377E-1,5.173028E-1,-3.1028023E-1,-2.5784916E-1,2.7038696E-1,-1.777352E-1,-3.2708117E-1,2.3713043E-1,-1.7047061E-1,-2.952704E-1,4.088938E-2,2.4630494E-1,6.347422E-1,1.3191628E-1,-3.7401488E-1,6.637221E-1,4.621025E-1,-1.1585989E-1,2.3712866E-1,5.366129E-1,-8.7253086E-2,6.427304E-1,3.513136E-1,6.611729E-1,7.3228186E-1,4.0538952E-1,-7.482537E-1,6.4421505E-1,-9.892428E-2,-1.8874736E-1,6.984207E-1,-2.5875732E-1,-3.3008578E-1,-3.7409118E-1,-4.5401207E-1,-3.7351182E-1,-3.361395E-1,-4.051334E-1,-3.796863E-1],"split_indices":[12,16,10,19,2,2,45,16,11,39,6,0,0,12,45,8,39,16,16,2,36,2,27,19,19,37,44,43,34,10,11,39,39,37,12,26,19,18,11,39,12,21,6,8,0,13,16,11,43,0,0,0,0,0,0,0,0,0,0,0,0,0,0,0,0,0,0,0,0,0,0,0,0,0,0,0,0,0,0,0,0,0,0,0,0,0,0,0,0,0,0,0,0],"split_type":[0,0,0,0,0,0,0,0,0,0,0,0,0,0,0,0,0,0,0,0,0,0,0,0,0,0,0,0,0,0,0,0,0,0,0,0,0,0,0,0,0,0,0,0,0,0,0,0,0,0,0,0,0,0,0,0,0,0,0,0,0,0,0,0,0,0,0,0,0,0,0,0,0,0,0,0,0,0,0,0,0,0,0,0,0,0,0,0,0,0,0,0,0],"sum_hessian":[2.2389E4,1.5052E4,7.337E3,1.1314E4,3.738E3,1.3E1,7.324E3,5.157E3,6.157E3,1.421E3,2.317E3,1E0,1.2E1,2.798E3,4.526E3,3.459E3,1.698E3,1.395E3,4.762E3,6.2E2,8.01E2,2.1E3,2.17E2,3.87E2,2.411E3,2.656E3,1.87E3,1.903E3,1.556E3,9.42E2,7.56E2,9.56E2,4.39E2,3.882E3,8.8E2,3.9E1,5.81E2,6.97E2,1.04E2,6.39E2,1.461E3,1.16E2,1.01E2,3.33E2,5.4E1,1.977E3,4.34E2,1.369E3,1.287E3,3.38E2,1.532E3,1.798E3,1.05E2,1.258E3,2.98E2,9.21E2,2.1E1,1.27E2,6.29E2,5E2,4.56E2,7.7E1,3.62E2,6.72E2,3.21E3,7.45E2,1.35E2,2.6E1,1.3E1,1.8E2,4.01E2,1.65E2,5.32E2,9.5E1,9E0,4.26E2,2.13E2,7.63E2,6.98E2,9.5E1,2.1E1,9.7E1,4E0,3.3E2,3E0,1.6E2,1.817E3,2.38E2,1.96E2,1.19E3,1.79E2,7.73E2,5.14E2],"tree_param":{"num_deleted":"0","num_feature":"46","num_nodes":"93","size_leaf_vector":"1"}},{"base_weights":[3.128635E-2,3.4842522E0,-7.0321875E0,6.0659375E0,8.450843E-1,1.2189794E1,-7.0758457E0,3.128554E0,1.1126182E1,-2.0407832E0,2.2805965E0,-3.145041E-1,6.872083E-1,-6.2497144E0,-7.758923E0,1.3670405E0,6.3656263E0,9.069654E0,1.2974448E1,-1.1332377E0,-5.8860803E0,5.1278214E0,-9.9706405E-1,-3.8325617E0,-6.5115037E0,-7.341779E0,-8.235726E0,1.7110925E0,-8.805035E0,-7.5109786E-1,8.611346E0,1.3164692E1,8.32854E0,1.3006414E1,-3.4583238E-1,4.250486E0,-1.6915519E0,-4.3157277E0,-7.657639E0,5.937555E0,-2.4830685E0,-1.9893407E0,3.724054E0,-3.2982862E0,-4.0964252E-1,-6.332946E0,-8.1868E0,-3.0775777E-1,-7.3967195E0,-4.0313315E-1,-4.2796764E-1,1.3664229E-1,-1.2306714E-1,-3.706324E-1,-4.8088714E-1,2.929345E-1,-1.9198321E-1,4.7191247E-1,-1.6070632E-2,6.71118E-1,-1.4280453E-1,3.210071E-1,5.229552E-1,5.9654224E-1,6.8824434E-1,2.9331295E-2,3.8041246E-1,-1.392604E-1,3.532555E-2,-2.356669E-1,1.3865875E-1,-3.9678237E-1,-5.079465E-2,3.0367782E-2,3.466826E-1,3.0917114E-1,-2.011282E-1,-1.3994566E-1,9.088324E-2,4.378317E-1,-2.2449544E-1,1.1148932E-1,-1.8559037E-1,-3.1758964E-1,3.992338E-1,-8.3239906E-2,-4.1249624E-1,-3.8049337E-1,-3.597352E-1],"categories":[],"categories_nodes":[],"categories_segments":[],"categories_sizes":[],"default_left":[0,0,0,0,0,0,0,0,0,0,0,0,0,0,0,0,0,0,0,0,0,0,0,0,0,0,0,0,0,0,0,0,0,0,0,0,0,0,0,0,0,0,0,0,0,0,0,0,0,0,0,0,0,0,0,0,0,0,0,0,0,0,0,0,0,0,0,0,0,0,0,0,0,0,0,0,0,0,0,0,0,0,0,0,0,0,0,0,0],"id":13,"left_children":[1,3,5,7,9,11,13,15,17,19,21,-1,-1,23,25,27,29,31,33,35,37,39,41,43,45,47,49,51,53,55,57,59,61,63,-1,65,67,69,71,73,75,77,79,81,-1,83,85,-1,87,-1,-1,-1,-1,-1,-1,-1,-1,-1,-1,-1,-1,-1,-1,-1,-1,-1,-1,-1,-1,-1,-1,-1,-1,-1,-1,-1,-1,-1,-1,-1,-1,-1,-1,-1,-1,-1,-1,-1,-1],"loss_changes":[5.453831E5,1.0232617E5,6.247125E3,1.1281031E5,3.077664E4,5.755156E2,4.08425E3,2.7389344E4,1.0477344E4,8.60541E3,4.6302758E4,0E0,0E0,2.0755E3,7.3475E2,1.0908992E4,2.706507E4,3.9033672E3,1.02271875E3,6.0125405E3,1.2760615E3,1.6377297E4,1.0814733E4,7.3360596E2,8.42625E2,9.3015625E1,3.3554688E1,1.2847512E4,4.2427246E1,8.3311045E3,9.510406E3,8.691328E2,4.4972344E3,1.0275312E3,0E0,2.307564E3,4.7518057E3,7.235576E2,3.9726562E2,1.2737578E4,3.4402158E3,5.8826494E3,1.6616049E4,6.782151E2,0E0,7.8210156E2,1.02609375E2,0E0,3.1875E1,0E0,0E0,0E0,0E0,0E0,0E0,0E0,0E0,0E0,0E0,0E0,0E0,0E0,0E0,0E0,0E0,0E0,0E0,0E0,0E0,0E0,0E0,0E0,0E0,0E0,0E0,0E0,0E0,0E0,0E0,0E0,0E0,0E0,0E0,0E0,0E0,0E0,0E0,0E0,0E0],"parents":[2147483647,0,0,1,1,2,2,3,3,4,4,5,5,6,6,7,7,8,8,9,9,10,10,13,13,14,14,15,15,16,16,17,17,18,18,19,19,20,20,21,21,22,22,23,23,24,24,25,25,26,26,27,27,28,28,29,29,30,30,31,31,32,32,33,33,35,35,36,36,37,37,38,38,39,39,40,40,41,41,42,42,43,43,45,45,46,46,48,48],"right_children":[2,4,6,8,10,12,14,16,18,20,22,-1,-1,24,26,28,30,32,34,36,38,40,42,44,46,48,50,52,54,56,58,60,62,64,-1,66,68,70,72,74,76,78,80,82,-1,84,86,-1,88,-1,-1,-1,-1,-1,-1,-1,-1,-1,-1,-1,-1,-1,-1,-1,-1,-1,-1,-1,-1,-1,-1,-1,-1,-1,-1,-1,-1,-1,-1,-1,-1,-1,-1,-1,-1,-1,-1,-1,-1],"split_conditions":[2.4180338E-1,5.238144E-1,-6.2323654E-1,-2.8163108E-1,-4.1970643E-1,9.810075E-2,1.2402289E0,-2.1272679E-1,1.9761913E-2,2.9638708E-1,1.5780781E-1,-3.145041E-1,6.872083E-1,4.9961767E-1,1.5912104E0,9.098258E-1,-4.014474E-1,-2.7606994E-1,1.06029525E-1,-5.1341456E-1,-2.8233305E-1,3.4358683E0,1.2839454E0,5.142633E-1,1.6641732E0,1.5176351E0,1.7960253E0,-5.7025563E-2,1.2410729E0,-2.1091378E-1,-4.2719823E-1,2.2198863E-1,3.5913047E-1,2.1431215E-1,-3.4583238E-1,-5.0437E-1,-4.507839E-1,-3.4822863E-1,-2.601318E-1,5.5975443E-1,-1.8490288E0,6.6897905E-1,3.4289877E0,-6.242361E-1,-4.0964252E-1,1.5399326E0,-1.3639857E0,-3.0775777E-1,1.4554662E0,-4.0313315E-1,-4.2796764E-1,1.3664229E-1,-1.2306714E-1,-3.706324E-1,-4.8088714E-1,2.929345E-1,-1.9198321E-1,4.7191247E-1,-1.6070632E-2,6.71118E-1,-1.4280453E-1,3.210071E-1,5.229552E-1,5.9654224E-1,6.8824434E-1,2.9331295E-2,3.8041246E-1,-1.392604E-1,3.532555E-2,-2.356669E-1,1.3865875E-1,-3.9678237E-1,-5.079465E-2,3.0367782E-2,3.466826E-1,3.0917114E-1,-2.011282E-1,-1.3994566E-1,9.088324E-2,4.378317E-1,-2.2449544E-1,1.1148932E-1,-1.8559037E-1,-3.1758964E-1,3.992338E-1,-8.3239906E-2,-4.1249624E-1,-3.8049337E-1,-3.597352E-1],"split_indices":[12,19,10,36,11,1,43,18,36,15,8,0,0,12,43,43,11,19,13,22,13,18,34,19,11,44,43,35,43,35,33,3,37,36,0,11,11,35,13,37,15,26,14,15,0,8,36,0,43,0,0,0,0,0,0,0,0,0,0,0,0,0,0,0,0,0,0,0,0,0,0,0,0,0,0,0,0,0,0,0,0,0,0,0,0,0,0,0,0],"split_type":[0,0,0,0,0,0,0,0,0,0,0,0,0,0,0,0,0,0,0,0,0,0,0,0,0,0,0,0,0,0,0,0,0,0,0,0,0,0,0,0,0,0,0,0,0,0,0,0,0,0,0,0,0,0,0,0,0,0,0,0,0,0,0,0,0,0,0,0,0,0,0,0,0,0,0,0,0,0,0,0,0,0,0,0,0,0,0,0,0],"sum_hessian":[2.2359E4,1.5018E4,7.341E3,7.591E3,7.427E3,1.6E1,7.325E3,4.804E3,2.787E3,2.467E3,4.96E3,1E0,1.5E1,3.32E3,4.005E3,3.112E3,1.692E3,1.322E3,1.465E3,1.997E3,4.7E2,2.654E3,2.306E3,3.26E2,2.994E3,2.145E3,1.86E3,3.011E3,1.01E2,4.06E2,1.286E3,2E2,1.122E3,1.463E3,2E0,1.87E2,1.81E3,2.51E2,2.19E2,2.399E3,2.55E2,1.906E3,4E2,2.92E2,3.4E1,2.71E3,2.84E2,1E2,2.045E3,1.229E3,6.31E2,2.419E3,5.92E2,4.1E1,6E1,1.29E2,2.77E2,1.177E3,1.09E2,1.97E2,3E0,5.94E2,5.28E2,6.12E2,8.51E2,9E1,9.7E1,1.243E3,5.67E2,2.38E2,1.3E1,2.1E2,9E0,3.78E2,2.021E3,3.8E1,2.17E2,1.572E3,3.34E2,2.48E2,1.52E2,2E1,2.72E2,2.707E3,3E0,3E0,2.81E2,9.77E2,1.068E3],"tree_param":{"num_deleted":"0","num_feature":"46","num_nodes":"89","size_leaf_vector":"1"}},{"base_weights":[3.221681E-2,3.3442416E0,-6.563062E0,5.868402E0,6.953776E-1,1.3272073E1,-6.631326E0,3.3608952E0,1.1023623E1,-2.111055E0,2.019271E0,6.874165E-1,3.1641398E-2,-5.4012513E0,-7.180273E0,1.4151047E0,7.783533E0,9.310039E0,1.2606882E1,-5.3937125E0,-1.255057E0,4.6999726E0,-9.4779396E-1,-3.4236865E0,-6.0320096E0,-6.801569E0,-7.8474393E0,1.7278856E0,-8.340851E0,9.84417E0,3.1017933E0,1.2390098E1,8.553357E0,1.3232449E1,1.1812722E1,-6.7714124E0,-4.1299844E0,4.0486054E0,-1.8113157E0,5.4515452E0,-2.3150618E0,3.2388034E0,-1.8567295E0,-2.6849759E0,-8.554875E0,-5.5798783E0,-7.350066E0,-7.0289993E0,-6.4177403E0,-3.8427234E-1,-4.0699062E-1,1.4062689E-1,-4.6670537E-2,-3.501255E-1,-4.5262796E-1,5.1467603E-1,-1.4260998E-1,-4.287482E-2,3.0997255E-1,6.6850877E-1,5.441269E-1,4.9507657E-1,2.8343952E-1,7.003828E-1,6.285196E-1,5.077067E-1,6.3393044E-1,-4.4994855E-1,-2.8459507E-1,-3.6403894E-1,-1.3588004E-1,2.9050583E-2,3.4990084E-1,-7.194241E-2,-4.6114022E-1,1.3153453E-2,3.2021204E-1,-2.1847184E-1,2.1650477E-1,-1.4345856E-2,5.133912E-1,-1.3765617E-1,1.3463895E-1,-1.4639543E-1,6.167782E-1,-2.7152082E-1,-4.6186167E-1,-2.822901E-1,-2.0178477E-1,-2.6878864E-1,-3.8137105E-1,-3.6324048E-1,-3.388637E-1,-2.6374066E-1,-3.2311592E-1],"categories":[],"categories_nodes":[],"categories_segments":[],"categories_sizes":[],"default_left":[0,0,0,0,0,0,0,0,0,0,0,0,0,0,0,0,0,0,0,0,0,0,0,0,0,0,0,0,0,0,0,0,0,0,0,0,0,0,0,0,0,0,0,0,0,0,0,0,0,0,0,0,0,0,0,0,0,0,0,0,0,0,0,0,0,0,0,0,0,0,0,0,0,0,0,0,0,0,0,0,0,0,0,0,0,0,0,0,0,0,0,0,0,0,0],"id":14,"left_children":[1,3,5,7,9,11,13,15,17,19,21,-1,-1,23,25,27,29,31,33,35,37,39,41,43,45,47,49,51,53,55,57,59,61,63,65,67,69,71,73,75,77,79,81,83,85,87,89,91,93,-1,-1,-1,-1,-1,-1,-1,-1,-1,-1,-1,-1,-1,-1,-1,-1,-1,-1,-1,-1,-1,-1,-1,-1,-1,-1,-1,-1,-1,-1,-1,-1,-1,-1,-1,-1,-1,-1,-1,-1,-1,-1,-1,-1,-1,-1],"loss_changes":[4.890808E5,9.965244E4,1.0222281E4,9.86185E4,2.7030201E4,1.4636914E2,4.9972812E3,4.4186055E4,6.6549062E3,6.545366E3,3.932054E4,0E0,0E0,2.8548203E3,1.2475938E3,1.0901416E4,1.5104883E4,2.6956719E3,4.8454688E2,8.1012305E2,5.467945E3,1.3705121E4,8.937024E3,2.098567E3,9.9878906E2,2.4128125E2,2.3953125E1,9.984612E3,4.073242E1,6.243E3,5.9050874E3,1.9928906E2,3.710664E3,1.8873438E2,7.019375E2,4.9798047E2,1.1095479E3,1.7951914E3,4.6123247E3,1.1594008E4,3.4591384E3,1.0387755E4,7.874175E3,1.8268245E3,9.761035E1,1.0909375E2,2.0027539E2,7.1578125E1,2.7808594E1,0E0,0E0,0E0,0E0,0E0,0E0,0E0,0E0,0E0,0E0,0E0,0E0,0E0,0E0,0E0,0E0,0E0,0E0,0E0,0E0,0E0,0E0,0E0,0E0,0E0,0E0,0E0,0E0,0E0,0E0,0E0,0E0,0E0,0E0,0E0,0E0,0E0,0E0,0E0,0E0,0E0,0E0,0E0,0E0,0E0,0E0],"parents":[2147483647,0,0,1,1,2,2,3,3,4,4,5,5,6,6,7,7,8,8,9,9,10,10,13,13,14,14,15,15,16,16,17,17,18,18,19,19,20,20,21,21,22,22,23,23,24,24,25,25,26,26,27,27,28,28,29,29,30,30,31,31,32,32,33,33,34,34,35,35,36,36,37,37,38,38,39,39,40,40,41,41,42,42,43,43,44,44,45,45,46,46,47,47,48,48],"right_children":[2,4,6,8,10,12,14,16,18,20,22,-1,-1,24,26,28,30,32,34,36,38,40,42,44,46,48,50,52,54,56,58,60,62,64,66,68,70,72,74,76,78,80,82,84,86,88,90,92,94,-1,-1,-1,-1,-1,-1,-1,-1,-1,-1,-1,-1,-1,-1,-1,-1,-1,-1,-1,-1,-1,-1,-1,-1,-1,-1,-1,-1,-1,-1,-1,-1,-1,-1,-1,-1,-1,-1,-1,-1,-1,-1,-1,-1,-1,-1],"split_conditions":[1.415329E-1,5.3474414E-1,-6.2323654E-1,-2.4020249E-1,-4.2487E-1,-1.5216644E-1,1.1730663E0,-6.368222E-1,6.982159E-2,1.8579556E-1,1.5392828E-1,6.874165E-1,3.1641398E-2,5.710015E-1,1.4329565E0,9.098258E-1,1.4246255E-1,-2.7606994E-1,-2.2424789E-1,-5.004218E-1,-5.1341456E-1,3.4358683E0,-4.0854537E-1,5.3474414E-1,-7.247999E-1,1.1409015E-3,1.7960253E0,-9.4213456E-2,1.2410729E0,4.2240766E-1,-2.4119805E-1,9.3245876E-1,8.770909E-1,7.308222E-1,-1.1153878E-1,7.275337E-2,6.770964E-1,-5.0437E-1,-2.7383057E-2,5.680436E-1,-3.7855487E-2,-3.1109694E-1,1.9711924E0,8.850514E-1,7.0098966E-1,5.213098E-2,-1.0771594E0,1.4554662E0,-1.4783213E-1,-3.8427234E-1,-4.0699062E-1,1.4062689E-1,-4.6670537E-2,-3.501255E-1,-4.5262796E-1,5.1467603E-1,-1.4260998E-1,-4.287482E-2,3.0997255E-1,6.6850877E-1,5.441269E-1,4.9507657E-1,2.8343952E-1,7.003828E-1,6.285196E-1,5.077067E-1,6.3393044E-1,-4.4994855E-1,-2.8459507E-1,-3.6403894E-1,-1.3588004E-1,2.9050583E-2,3.4990084E-1,-7.194241E-2,-4.6114022E-1,1.3153453E-2,3.2021204E-1,-2.1847184E-1,2.1650477E-1,-1.4345856E-2,5.133912E-1,-1.3765617E-1,1.3463895E-1,-1.4639543E-1,6.167782E-1,-2.7152082E-1,-4.6186167E-1,-2.822901E-1,-2.0178477E-1,-2.6878864E-1,-3.8137105E-1,-3.6324048E-1,-3.388637E-1,-2.6374066E-1,-3.2311592E-1],"split_indices":[12,19,10,36,11,14,43,32,36,18,8,0,0,12,45,43,8,19,19,11,22,18,31,19,19,40,43,35,43,31,18,39,39,39,22,18,38,11,36,37,12,11,26,8,21,38,18,43,26,0,0,0,0,0,0,0,0,0,0,0,0,0,0,0,0,0,0,0,0,0,0,0,0,0,0,0,0,0,0,0,0,0,0,0,0,0,0,0,0,0,0,0,0,0,0],"split_type":[0,0,0,0,0,0,0,0,0,0,0,0,0,0,0,0,0,0,0,0,0,0,0,0,0,0,0,0,0,0,0,0,0,0,0,0,0,0,0,0,0,0,0,0,0,0,0,0,0,0,0,0,0,0,0,0,0,0,0,0,0,0,0,0,0,0,0,0,0,0,0,0,0,0,0,0,0,0,0,0,0,0,0,0,0,0,0,0,0,0,0,0,0,0,0],"sum_hessian":[2.2388E4,1.4904E4,7.484E3,7.631E3,7.273E3,2.5E1,7.459E3,5.135E3,2.496E3,2.331E3,4.942E3,2.4E1,1E0,2.305E3,5.154E3,3.567E3,1.568E3,1.202E3,1.294E3,4.81E2,1.85E3,2.596E3,2.346E3,5.59E2,1.746E3,3.295E3,1.859E3,3.457E3,1.1E2,1.088E3,4.8E2,2.34E2,9.68E2,7.15E2,5.79E2,2.28E2,2.53E2,1.75E2,1.675E3,2.345E3,2.51E2,4.18E2,1.928E3,4.9E2,6.9E1,1.304E3,4.42E2,2.058E3,1.237E3,1.214E3,6.45E2,2.456E3,1.001E3,4.2E1,6.8E1,1.051E3,3.7E1,2.11E2,2.69E2,1.37E2,9.7E1,6.58E2,3.1E2,3.2E2,3.95E2,2.03E2,3.76E2,7.2E1,1.56E2,7.7E1,1.76E2,8.1E1,9.4E1,1.596E3,7.9E1,3.64E2,1.981E3,1.92E2,5.9E1,2.79E2,1.39E2,1.611E3,3.17E2,4.83E2,7E0,1.4E1,5.5E1,1.248E3,5.6E1,5.7E1,3.85E2,1.048E3,1.01E3,5.1E1,1.186E3],"tree_param":{"num_deleted":"0","num_feature":"46","num_nodes":"95","size_leaf_vector":"1"}},{"base_weights":[-3.2208834E-2,3.1417434E0,-6.270153E0,9.148057E-1,8.095986E0,-6.355023E0,4.9709644E0,2.7142105E0,-9.325926E-1,4.1130915E0,1.0295458E1,-5.5362015E0,-6.9630017E0,1.2077193E1,-1.3754598E0,1.02044E0,4.410824E0,-6.494072E0,-8.739799E-2,1.1102909E1,2.3770854E0,8.609269E0,1.1685505E1,-3.609045E0,-5.8447113E0,-6.6028776E0,-7.434668E0,1.2663582E1,-7.672304E-2,3.660696E-1,-4.3547556E-1,1.396683E0,-7.989299E0,7.4831924E0,4.1054457E-1,-2.1670094E0,-8.838076E0,-1.7082573E0,2.5665073E0,1.2834559E1,1.0193639E1,-4.0961E0,3.2486596E0,9.884375E0,5.702805E0,1.2157549E1,5.102779E0,-3.0974417E0,-7.954895E0,-5.6450825E0,-7.1790795E0,-6.6689634E0,-5.841288E0,-7.2461643E0,-3.856012E-1,3.4740767E-1,6.6911906E-1,1.4227185E0,-9.7691405E-1,8.868079E-2,-1.8927255E-1,-3.3420318E-1,-4.29027E-1,9.0930246E-2,4.1511616E-1,-3.3687156E-1,8.2813315E-2,5.7644617E-2,-3.8634962E-1,-3.6608374E-1,-5.6188595E-1,-2.4612735E-1,-1.1771809E-2,2.806202E-3,3.608028E-1,6.696229E-1,4.2380437E-1,5.761911E-1,4.1576353E-1,-3.7928423E-1,9.350223E-3,6.354149E-2,2.712688E-1,4.2187625E-1,5.784375E-1,1.7982142E-1,4.7913548E-1,6.0944366E-1,1.3870205E-2,-4.6099994E-1,5.549139E-1,5.3614642E-2,-1.696013E-1,-4.238586E-1,3.8618922E-1,-2.2225304E-1,-2.892005E-1,-3.2403684E-1,-3.9278898E-1,-3.2618555E-1,-3.4536934E-1,-3.031168E-1,-2.5497052E-1,-3.6473027E-1,-3.0443266E-1,-0E0,7.595699E-2,-6.765241E-2,-7.985825E-3],"categories":[],"categories_nodes":[],"categories_segments":[],"categories_sizes":[],"default_left":[0,0,0,0,0,0,0,0,0,0,0,0,0,0,0,0,0,0,0,0,0,0,0,0,0,0,0,0,0,0,0,0,0,0,0,0,0,0,0,0,0,0,0,0,0,0,0,0,0,0,0,0,0,0,0,0,0,0,0,0,0,0,0,0,0,0,0,0,0,0,0,0,0,0,0,0,0,0,0,0,0,0,0,0,0,0,0,0,0,0,0,0,0,0,0,0,0,0,0,0,0,0,0,0,0,0,0,0,0],"id":15,"left_children":[1,3,5,7,9,11,13,15,17,19,21,23,25,27,29,31,33,35,37,39,41,43,45,47,49,51,53,55,-1,57,-1,59,61,63,65,67,69,71,73,75,77,79,81,83,85,87,89,91,93,95,97,99,101,103,-1,-1,-1,105,107,-1,-1,-1,-1,-1,-1,-1,-1,-1,-1,-1,-1,-1,-1,-1,-1,-1,-1,-1,-1,-1,-1,-1,-1,-1,-1,-1,-1,-1,-1,-1,-1,-1,-1,-1,-1,-1,-1,-1,-1,-1,-1,-1,-1,-1,-1,-1,-1,-1,-1],"loss_changes":[4.4226888E5,1.6333216E5,7.2184688E3,3.395959E4,4.0174594E4,3.6824375E3,2.588333E3,1.4866219E4,2.369416E4,1.9811947E4,6.8282188E3,1.8751562E3,6.776875E2,2.3605103E2,3.9996906E2,8.793602E3,3.1766645E4,6.7246074E3,1.8832434E4,3.7859375E2,7.4097017E3,4.9081797E3,4.9639062E3,9.591997E2,6.9046094E2,8.260156E1,3.9242188E1,1.179834E1,0E0,3.8330074E1,0E0,4.8663633E3,2.137793E1,6.767625E3,1.0019183E4,4.347336E3,1.4841992E3,1.2865536E4,1.9374637E4,1.469082E2,4.468828E2,2.3337742E3,4.969217E3,2.1668281E3,3.3231338E3,5.569375E2,9.548455E3,4.927478E2,4.422273E2,3.7271875E2,1.1494531E2,3.1101562E1,1.2597656E0,1.6875E1,0E0,0E0,0E0,1.9470806E0,3.3211317E0,0E0,0E0,0E0,0E0,0E0,0E0,0E0,0E0,0E0,0E0,0E0,0E0,0E0,0E0,0E0,0E0,0E0,0E0,0E0,0E0,0E0,0E0,0E0,0E0,0E0,0E0,0E0,0E0,0E0,0E0,0E0,0E0,0E0,0E0,0E0,0E0,0E0,0E0,0E0,0E0,0E0,0E0,0E0,0E0,0E0,0E0,0E0,0E0,0E0,0E0],"parents":[2147483647,0,0,1,1,2,2,3,3,4,4,5,5,6,6,7,7,8,8,9,9,10,10,11,11,12,12,13,13,14,14,15,15,16,16,17,17,18,18,19,19,20,20,21,21,22,22,23,23,24,24,25,25,26,26,27,27,29,29,31,31,32,32,33,33,34,34,35,35,36,36,37,37,38,38,39,39,40,40,41,41,42,42,43,43,44,44,45,45,46,46,47,47,48,48,49,49,50,50,51,51,52,52,53,53,57,57,58,58],"right_children":[2,4,6,8,10,12,14,16,18,20,22,24,26,28,30,32,34,36,38,40,42,44,46,48,50,52,54,56,-1,58,-1,60,62,64,66,68,70,72,74,76,78,80,82,84,86,88,90,92,94,96,98,100,102,104,-1,-1,-1,106,108,-1,-1,-1,-1,-1,-1,-1,-1,-1,-1,-1,-1,-1,-1,-1,-1,-1,-1,-1,-1,-1,-1,-1,-1,-1,-1,-1,-1,-1,-1,-1,-1,-1,-1,-1,-1,-1,-1,-1,-1,-1,-1,-1,-1,-1,-1,-1,-1,-1,-1],"split_conditions":[1.415329E-1,-1.3220525E-1,1.3285875E0,6.384576E-2,-3.732413E-1,1.2326698E0,3.596889E-1,-3.9767495E-1,5.283098E-1,-2.125467E-1,-2.5473228E-1,4.9961767E-1,1.5912104E0,1.3754935E0,7.2301584E-1,9.098258E-1,8.680569E-1,5.653244E-1,-6.703943E-1,-6.0745645E-1,7.275337E-2,9.3245876E-1,4.1912413E-1,9.411151E-1,-5.4838955E-1,3.7689093E-1,1.6050539E0,-1.8875363E0,-7.672304E-2,-9.035351E-1,-4.3547556E-1,1.276332E-2,1.2402289E0,-2.76595E-1,-4.70239E-1,1.5174878E0,-4.2241418E-1,-5.0915915E-1,-3.8377854E-1,9.9974924E-1,-6.9088894E-3,-5.622829E-1,-4.6778613E-1,-1.7181979E-1,1.303744E-1,2.9402813E-1,1.4998635E0,9.735508E-1,9.5159453E-1,1.06029525E-1,7.3787385E-1,8.6132467E-1,8.6132467E-1,1.5999107E0,-3.856012E-1,3.4740767E-1,6.6911906E-1,2.4128455E-1,7.426464E-1,8.868079E-2,-1.8927255E-1,-3.3420318E-1,-4.29027E-1,9.0930246E-2,4.1511616E-1,-3.3687156E-1,8.2813315E-2,5.7644617E-2,-3.8634962E-1,-3.6608374E-1,-5.6188595E-1,-2.4612735E-1,-1.1771809E-2,2.806202E-3,3.608028E-1,6.696229E-1,4.2380437E-1,5.761911E-1,4.1576353E-1,-3.7928423E-1,9.350223E-3,6.354149E-2,2.712688E-1,4.2187625E-1,5.784375E-1,1.7982142E-1,4.7913548E-1,6.0944366E-1,1.3870205E-2,-4.6099994E-1,5.549139E-1,5.3614642E-2,-1.696013E-1,-4.238586E-1,3.8618922E-1,-2.2225304E-1,-2.892005E-1,-3.2403684E-1,-3.9278898E-1,-3.2618555E-1,-3.4536934E-1,-3.031168E-1,-2.5497052E-1,-3.6473027E-1,-3.0443266E-1,-0E0,7.595699E-2,-6.765241E-2,-7.985825E-3],"split_indices":[12,16,34,17,11,43,24,18,37,17,11,12,43,4,3,43,39,39,36,31,18,39,4,11,17,11,44,15,0,39,0,35,43,1,11,17,31,12,11,39,37,36,11,1,18,6,27,15,6,13,31,35,35,44,0,0,0,3,11,0,0,0,0,0,0,0,0,0,0,0,0,0,0,0,0,0,0,0,0,0,0,0,0,0,0,0,0,0,0,0,0,0,0,0,0,0,0,0,0,0,0,0,0,0,0,0,0,0,0],"split_type":[0,0,0,0,0,0,0,0,0,0,0,0,0,0,0,0,0,0,0,0,0,0,0,0,0,0,0,0,0,0,0,0,0,0,0,0,0,0,0,0,0,0,0,0,0,0,0,0,0,0,0,0,0,0,0,0,0,0,0,0,0,0,0,0,0,0,0,0,0,0,0,0,0,0,0,0,0,0,0,0,0,0,0,0,0,0,0,0,0,0,0,0,0,0,0,0,0,0,0,0,0,0,0,0,0,0,0,0,0],"sum_hessian":[2.2336E4,1.4804E4,7.532E3,1.0214E4,4.59E3,7.476E3,5.6E1,5.174E3,5.04E3,1.634E3,2.956E3,3.19E3,4.286E3,2.6E1,3E1,2.59E3,2.584E3,6.64E2,4.376E3,3.24E2,1.31E3,1.339E3,1.617E3,4.42E2,2.748E3,2.439E3,1.847E3,2.5E1,1E0,2.5E1,5E0,2.487E3,1.03E2,1.461E3,1.123E3,2.34E2,4.3E2,2.717E3,1.659E3,1.07E2,2.17E2,1.55E2,1.155E3,9.29E2,4.1E2,1.508E3,1.09E2,3.97E2,4.5E1,2.395E3,3.53E2,2.237E3,2.02E2,1.116E3,7.31E2,4E0,2.1E1,1.4E1,1.1E1,2.319E3,1.68E2,3.6E1,6.7E1,1.85E2,1.276E3,1.66E2,9.57E2,1.47E2,8.7E1,2.66E2,1.64E2,8.53E2,1.864E3,1.078E3,5.81E2,9.3E1,1.4E1,1.24E2,9.3E1,8.5E1,7E1,6.06E2,5.49E2,5.03E2,4.26E2,2.67E2,1.43E2,1.504E3,4E0,3.2E1,7.7E1,2.6E1,3.71E2,4.4E1,1E0,2.52E2,2.143E3,1.79E2,1.74E2,1.408E3,8.29E2,1.5E2,5.2E1,1.066E3,5E1,1E0,1.3E1,7E0,4E0],"tree_param":{"num_deleted":"0","num_feature":"46","num_nodes":"109","size_leaf_vector":"1"}},{"base_weights":[2.1600945E-2,3.0307276E0,-5.937994E0,7.8113157E-1,7.547986E0,-6.022777E0,4.1523547E0,2.388228E0,-1.342866E0,3.3118176E0,9.598117E0,-5.153798E0,-6.581507E0,1.14678135E1,-6.4094865E-1,7.873527E-1,5.5733805E0,-2.44058E0,2.104799E0,1.0269459E1,1.6047202E0,7.7482605E0,1.0955796E1,-3.409408E0,-5.502668E0,-6.2252636E0,-7.085341E0,6.03724E-1,-7.480496E-2,7.34785E-1,-4.1733074E-1,1.8914021E0,-2.046293E0,7.060792E0,-1.685638E-1,1.2840232E0,-3.2219274E0,-2.1626143E0,4.588867E0,1.0800381E1,7.286606E0,-4.592674E0,2.2363648E0,1.1798544E1,6.977316E0,1.1346721E1,5.317536E0,-2.7776725E0,-7.625438E0,5.435846E-1,-5.52748E0,-6.4490805E0,-6.0010695E0,-3.3224207E-1,-3.5901216E-1,1.6355542E0,-3.7455252E-1,1.1328566E-1,-3.7873098E-1,-2.800103E-1,-3.212863E-2,2.55035E-1,4.9255666E-1,7.9247296E-2,-1.1838283E-1,5.3183717E-1,-5.5971462E-2,-1.3503519E-1,-4.7621033E-1,2.2407027E-1,-2.425919E-1,-3.455351E-1,2.7674764E-1,6.311603E-1,4.9165818E-1,-1.7129445E-1,4.136663E-1,-2.766873E-1,5.687582E-1,4.247094E-1,7.8772545E-2,6.099558E-1,4.8849487E-1,4.211784E-2,3.875284E-1,6.2615174E-1,5.4510087E-1,-2.5989634E-1,4.791293E-1,-1.4781402E-1,6.4161855E-1,-4.121309E-1,-2.3049653E-1,-2.6325518E-1,-3.3342344E-1,-3.3046192E-1,-3.0791873E-1,-3.0215666E-1,-2.5171295E-1,5.6042768E-2,1.4162701E-1,-4.960623E-2,1.7726758E-2],"categories":[],"categories_nodes":[],"categories_segments":[],"categories_sizes":[],"default_left":[0,0,0,0,0,0,0,0,0,0,0,0,0,0,0,0,0,0,0,0,0,0,0,0,0,0,0,0,0,0,0,0,0,0,0,0,0,0,0,0,0,0,0,0,0,0,0,0,0,0,0,0,0,0,0,0,0,0,0,0,0,0,0,0,0,0,0,0,0,0,0,0,0,0,0,0,0,0,0,0,0,0,0,0,0,0,0,0,0,0,0,0,0,0,0,0,0,0,0,0,0,0,0],"id":16,"left_children":[1,3,5,7,9,11,13,15,17,19,21,23,25,27,29,31,33,35,37,39,41,43,45,47,49,51,53,-1,-1,55,-1,57,59,61,63,65,67,69,71,73,75,77,79,81,83,85,87,89,91,-1,93,95,97,-1,-1,99,101,-1,-1,-1,-1,-1,-1,-1,-1,-1,-1,-1,-1,-1,-1,-1,-1,-1,-1,-1,-1,-1,-1,-1,-1,-1,-1,-1,-1,-1,-1,-1,-1,-1,-1,-1,-1,-1,-1,-1,-1,-1,-1,-1,-1,-1,-1],"loss_changes":[4.0039384E5,1.507568E5,6.4336562E3,3.381372E4,4.2799844E4,3.5719062E3,2.2175413E3,2.8748416E4,1.6153845E4,1.9104902E4,8.258969E3,1.7524766E3,7.6546875E2,2.1574194E2,4.2033096E2,1.17481875E4,1.610952E4,9.42468E3,1.0939328E4,4.2151172E2,5.075465E3,4.318586E3,4.1567188E3,1.2775259E3,1.0447969E3,9.327344E1,2.8828125E1,0E0,0E0,3.471344E1,0E0,9.590458E3,5.2488794E3,8.1413047E3,1.5038655E3,1.2645953E4,8.763443E3,6.811336E3,7.1315977E3,3.443672E2,5.679104E2,1.8655886E3,4.8452734E3,6.0646484E1,5.623582E3,7.9696875E2,5.70122E3,1.2246697E3,7.79668E1,0E0,6.887656E2,1.9246094E1,2.3E1,0E0,0E0,8.135456E0,7.619729E0,0E0,0E0,0E0,0E0,0E0,0E0,0E0,0E0,0E0,0E0,0E0,0E0,0E0,0E0,0E0,0E0,0E0,0E0,0E0,0E0,0E0,0E0,0E0,0E0,0E0,0E0,0E0,0E0,0E0,0E0,0E0,0E0,0E0,0E0,0E0,0E0,0E0,0E0,0E0,0E0,0E0,0E0,0E0,0E0,0E0,0E0],"parents":[2147483647,0,0,1,1,2,2,3,3,4,4,5,5,6,6,7,7,8,8,9,9,10,10,11,11,12,12,13,13,14,14,15,15,16,16,17,17,18,18,19,19,20,20,21,21,22,22,23,23,24,24,25,25,26,26,29,29,31,31,32,32,33,33,34,34,35,35,36,36,37,37,38,38,39,39,40,40,41,41,42,42,43,43,44,44,45,45,46,46,47,47,48,48,50,50,51,51,52,52,55,55,56,56],"right_children":[2,4,6,8,10,12,14,16,18,20,22,24,26,28,30,32,34,36,38,40,42,44,46,48,50,52,54,-1,-1,56,-1,58,60,62,64,66,68,70,72,74,76,78,80,82,84,86,88,90,92,-1,94,96,98,-1,-1,100,102,-1,-1,-1,-1,-1,-1,-1,-1,-1,-1,-1,-1,-1,-1,-1,-1,-1,-1,-1,-1,-1,-1,-1,-1,-1,-1,-1,-1,-1,-1,-1,-1,-1,-1,-1,-1,-1,-1,-1,-1,-1,-1,-1,-1,-1,-1],"split_conditions":[1.415329E-1,-1.5703784E-1,1.3285875E0,1.7786817E-1,-3.895475E-1,6.6546637E-1,3.4412116E-1,-6.360229E-1,1.2839454E0,6.591486E-2,-2.771852E-1,5.710015E-1,1.4329565E0,2.035461E0,8.076554E-1,9.0620446E-1,-2.8120652E-2,1.02991454E-1,-1.1561667E0,-2.125467E-1,4.20633E-2,-3.7543017E-1,1.3886735E0,5.3474414E-1,-6.8024224E-1,5.379405E-1,1.5578657E0,6.03724E-1,-7.480496E-2,-1.0849986E0,-4.1733074E-1,9.098258E-1,-4.5915386E-1,-6.1456966E-1,5.501787E-1,-4.0854537E-1,-9.108786E-2,-7.4968266E-1,-3.2718545E-1,-6.0235924E-1,-5.3234524E-1,7.386556E-1,-5.5674815E-1,-4.1374835E-1,1.0545828E-2,-4.0704468E-1,9.433838E-1,-4.5523822E-1,9.546481E-1,5.435846E-1,-7.247999E-1,1.376126E0,9.813341E-1,-3.3224207E-1,-3.5901216E-1,1.03183284E-1,8.479741E-1,1.1328566E-1,-3.7873098E-1,-2.800103E-1,-3.212863E-2,2.55035E-1,4.9255666E-1,7.9247296E-2,-1.1838283E-1,5.3183717E-1,-5.5971462E-2,-1.3503519E-1,-4.7621033E-1,2.2407027E-1,-2.425919E-1,-3.455351E-1,2.7674764E-1,6.311603E-1,4.9165818E-1,-1.7129445E-1,4.136663E-1,-2.766873E-1,5.687582E-1,4.247094E-1,7.8772545E-2,6.099558E-1,4.8849487E-1,4.211784E-2,3.875284E-1,6.2615174E-1,5.4510087E-1,-2.5989634E-1,4.791293E-1,-1.4781402E-1,6.4161855E-1,-4.121309E-1,-2.3049653E-1,-2.6325518E-1,-3.3342344E-1,-3.3046192E-1,-3.0791873E-1,-3.0215666E-1,-2.5171295E-1,5.6042768E-2,1.4162701E-1,-4.960623E-2,1.7726758E-2],"split_indices":[12,16,34,17,11,45,31,32,34,19,11,12,45,15,3,39,40,39,16,17,18,17,10,19,7,31,44,0,0,35,0,43,11,32,1,31,11,39,1,31,21,38,21,17,18,17,26,16,15,0,19,43,35,0,0,20,31,0,0,0,0,0,0,0,0,0,0,0,0,0,0,0,0,0,0,0,0,0,0,0,0,0,0,0,0,0,0,0,0,0,0,0,0,0,0,0,0,0,0,0,0,0,0],"split_type":[0,0,0,0,0,0,0,0,0,0,0,0,0,0,0,0,0,0,0,0,0,0,0,0,0,0,0,0,0,0,0,0,0,0,0,0,0,0,0,0,0,0,0,0,0,0,0,0,0,0,0,0,0,0,0,0,0,0,0,0,0,0,0,0,0,0,0,0,0,0,0,0,0,0,0,0,0,0,0,0,0,0,0,0,0,0,0,0,0,0,0,0,0,0,0,0,0,0,0,0,0,0,0],"sum_hessian":[2.2325E4,1.4835E4,7.49E3,9.904E3,4.931E3,7.428E3,6.2E1,5.638E3,4.266E3,1.609E3,3.322E3,2.911E3,4.517E3,2.4E1,3.8E1,3.753E3,1.885E3,3.236E3,1.03E3,3.16E2,1.293E3,1.409E3,1.913E3,4.87E2,2.424E3,2.654E3,1.863E3,2.3E1,1E0,3.3E1,5E0,2.701E3,1.052E3,1.497E3,3.88E2,5.61E2,2.675E3,3.79E2,6.51E2,2.66E2,5E1,1.19E2,1.174E3,2.23E2,1.186E3,1.788E3,1.25E2,4.25E2,6.2E1,3E0,2.421E3,1.314E3,1.34E3,3.43E2,1.52E3,1.8E1,1.5E1,2.599E3,1.02E2,2.97E2,7.55E2,8.81E2,6.16E2,2.16E2,1.72E2,1.14E2,4.47E2,2.472E3,2.03E2,1.09E2,2.7E2,4.9E1,6.02E2,8.8E1,1.78E2,4E0,4.6E1,1.13E2,6E0,1.11E2,1.063E3,1.82E2,4.1E1,1.33E2,1.053E3,4.83E2,1.305E3,3.6E1,8.9E1,4.21E2,4E0,5E1,1.2E1,1.973E3,4.48E2,8.33E2,4.81E2,1.279E3,6.1E1,1.4E1,4E0,8E0,7E0],"tree_param":{"num_deleted":"0","num_feature":"46","num_nodes":"103","size_leaf_vector":"1"}},{"base_weights":[1.3745946E-2,2.8937664E0,-5.6388373E0,5.0267534E0,4.515216E-1,-5.7300406E0,4.924946E0,2.8501844E0,9.389543E0,-3.4405681E-1,3.8975255E0,-4.9104204E0,-6.2620034E0,1.1192926E1,-7.6455E-1,9.5066494E-1,4.8303466E0,7.87592E0,1.0792683E1,3.8437831E0,-1.2363458E0,6.179861E0,-1.9441489E0,5.7635087E-1,-4.942341E0,-5.9210916E0,-6.7332506E0,1.1666604E1,-7.293483E-2,3.447563E-1,-3.7546694E-1,6.491289E-1,1.0068678E1,7.8199E0,1.2928367E0,1.0590322E1,6.820008E0,9.893686E0,1.1273255E1,7.1379504E0,-1.6069232E-3,-5.9511733E0,-4.1082102E-1,7.808342E-1,7.395082E0,2.3693812E0,-4.8775973E0,-3.3385983E0,-5.257898E0,-6.033763E0,-5.5263743E0,-3.3014277E-1,-3.5176486E-1,3.2826945E-1,6.2101156E-1,1.3829829E0,-4.763508E-1,7.1818426E-2,-1.8018503E-1,-4.9228427E-1,5.454151E-1,4.104422E-1,-1.3761043E-2,2.3832612E-1,-6.303482E-2,6.312277E-1,4.6283862E-1,2.2868137E-1,4.262502E-1,4.292117E-1,5.292876E-1,5.7918465E-1,5.076877E-1,2.255355E-1,5.325768E-1,1.7242233E-1,-1.9690228E-1,1.909744E-3,-3.5642275E-1,2.187746E-1,-8.427648E-2,7.4614966E-3,3.9455688E-1,3.8631544E-1,-1.8414853E-2,-1.4356446E-1,2.4966307E-1,-1.74844E-1,-3.489727E-1,-1.3670665E-1,-3.7133238E-1,-2.496532E-1,-3.189875E-1,-3.1177506E-1,-2.9112834E-1,-2.8123575E-1,-2.2568925E-1,1.8543815E-3,7.37984E-2,-5.265522E-2,-2.2490414E-4],"categories":[],"categories_nodes":[],"categories_segments":[],"categories_sizes":[],"default_left":[0,0,0,0,0,0,0,0,0,0,0,0,0,0,0,0,0,0,0,0,0,0,0,0,0,0,0,0,0,0,0,0,0,0,0,0,0,0,0,0,0,0,0,0,0,0,0,0,0,0,0,0,0,0,0,0,0,0,0,0,0,0,0,0,0,0,0,0,0,0,0,0,0,0,0,0,0,0,0,0,0,0,0,0,0,0,0,0,0,0,0,0,0,0,0,0,0,0,0,0,0],"id":17,"left_children":[1,3,5,7,9,11,13,15,17,19,21,23,25,27,29,31,33,35,37,39,41,43,45,-1,47,49,51,53,-1,55,-1,57,59,61,63,65,67,69,71,73,75,77,79,81,83,85,87,89,91,93,95,-1,-1,-1,-1,97,99,-1,-1,-1,-1,-1,-1,-1,-1,-1,-1,-1,-1,-1,-1,-1,-1,-1,-1,-1,-1,-1,-1,-1,-1,-1,-1,-1,-1,-1,-1,-1,-1,-1,-1,-1,-1,-1,-1,-1,-1,-1,-1,-1,-1],"loss_changes":[3.6327803E5,7.700591E4,7.2850156E3,7.490425E4,1.8899314E4,3.22425E3,2.3276074E3,1.9802133E4,5.4902812E3,2.0934102E4,1.725157E4,1.6010078E3,6.858125E2,2.0381543E2,2.6517667E2,7.3855547E3,2.7252816E4,3.5574766E3,4.7392188E2,1.2465406E4,1.7971133E4,6.0951484E3,4.6176885E3,0E0,1.4689297E3,8.265625E1,2.6703125E1,3.189038E1,0E0,2.7176798E1,0E0,8.72314E3,1.5454756E3,4.401578E3,1.0490903E4,8.385469E2,3.4642148E3,3.4401172E2,1.856875E2,4.8428867E3,6.192949E3,4.8521855E3,2.3990744E4,7.704528E2,1.9553008E3,2.0496812E3,6.042949E2,1.179625E3,6.9610156E2,4.93125E1,3.304492E1,0E0,0E0,0E0,0E0,1.54603E0,4.788072E0,0E0,0E0,0E0,0E0,0E0,0E0,0E0,0E0,0E0,0E0,0E0,0E0,0E0,0E0,0E0,0E0,0E0,0E0,0E0,0E0,0E0,0E0,0E0,0E0,0E0,0E0,0E0,0E0,0E0,0E0,0E0,0E0,0E0,0E0,0E0,0E0,0E0,0E0,0E0,0E0,0E0,0E0,0E0,0E0],"parents":[2147483647,0,0,1,1,2,2,3,3,4,4,5,5,6,6,7,7,8,8,9,9,10,10,11,11,12,12,13,13,14,14,15,15,16,16,17,17,18,18,19,19,20,20,21,21,22,22,24,24,25,25,26,26,27,27,29,29,31,31,32,32,33,33,34,34,35,35,36,36,37,37,38,38,39,39,40,40,41,41,42,42,43,43,44,44,45,45,46,46,47,47,48,48,49,49,50,50,55,55,56,56],"right_children":[2,4,6,8,10,12,14,16,18,20,22,24,26,28,30,32,34,36,38,40,42,44,46,-1,48,50,52,54,-1,56,-1,58,60,62,64,66,68,70,72,74,76,78,80,82,84,86,88,90,92,94,96,-1,-1,-1,-1,98,100,-1,-1,-1,-1,-1,-1,-1,-1,-1,-1,-1,-1,-1,-1,-1,-1,-1,-1,-1,-1,-1,-1,-1,-1,-1,-1,-1,-1,-1,-1,-1,-1,-1,-1,-1,-1,-1,-1,-1,-1,-1,-1,-1,-1],"split_conditions":[1.415329E-1,5.7192177E-1,1.3285875E0,-2.593632E-1,1.3356363E0,6.6546637E-1,3.596889E-1,-4.3737486E-1,5.38803E-2,1.02991454E-1,3.5670657E0,-6.88573E-1,1.4329565E0,2.035461E0,-1.7382811E0,1.2403368E0,-7.3100716E-2,-3.7022677E-1,2.1431215E-1,4.963936E-2,5.204395E-1,9.692467E-1,-1.8202674E-1,5.7635087E-1,5.4154235E-1,6.694087E-1,1.6509027E0,-1.8490288E0,-7.293483E-2,-9.3740165E-1,-3.7546694E-1,-1.332648E-1,-2.1091378E-1,1.6221285E-1,1.0106783E0,-1.1832464E-2,-2.4251844E-1,-2.3449005E-1,-8.752835E-2,5.6732213E-1,7.954282E-1,8.173337E-2,6.770964E-1,-3.378044E-1,1.7372006E0,4.480813E-1,-4.4810894E-1,5.3474414E-1,-7.247999E-1,1.4554662E0,8.3497673E-1,-3.3014277E-1,-3.5176486E-1,