{"learner":{"attributes":{"scikit_learn":"{\"_estimator_type\": \"classifier\"}"},"feature_names":[],"feature_types":[],"gradient_booster":{"model":{"cats":{"enc":[],"feature_segments":[],"sorted_idx":[]},"gbtree_model_param":{"num_parallel_tree":"1","num_trees":"200"},"iteration_indptr":[0,1,2,3,4,5,6,7,8,9,10,11,12,13,14,15,16,17,18,19,20,21,22,23,24,25,26,27,28,29,30,31,32,33,34,35,36,37,38,39,40,41,42,43,44,45,46,47,48,49,50,51,52,53,54,55,56,57,58,59,60,61,62,63,64,65,66,67,68,69,70,71,72,73,74,75,76,77,78,79,80,81,82,83,84,85,86,87,88,89,90,91,92,93,94,95,96,97,98,99,100,101,102,103,104,105,106,107,108,109,110,111,112,113,114,115,116,117,118,119,120,121,122,123,124,125,126,127,128,129,130,131,132,133,134,135,136,137,138,139,140,141,142,143,144,145,146,147,148,149,150,151,152,153,154,155,156,157,158,159,160,161,162,163,164,165,166,167,168,169,170,171,172,173,174,175,176,177,178,179,180,181,182,183,184,185,186,187,188,189,190,191,192,193,194,195,196,197,198,199,200],"tree_info":[0,0,0,0,0,0,0,0,0,0,0,0,0,0,0,0,0,0,0,0,0,0,0,0,0,0,0,0,0,0,0,0,0,0,0,0,0,0,0,0,0,0,0,0,0,0,0,0,0,0,0,0,0,0,0,0,0,0,0,0,0,0,0,0,0,0,0,0,0,0,0,0,0,0,0,0,0,0,0,0,0,0,0,0,0,0,0,0,0,0,0,0,0,0,0,0,0,0,0,0,0,0,0,0,0,0,0,0,0,0,0,0,0,0,0,0,0,0,0,0,0,0,0,0,0,0,0,0,0,0,0,0,0,0,0,0,0,0,0,0,0,0,0,0,0,0,0,0,0,0,0,0,0,0,0,0,0,0,0,0,0,0,0,0,0,0,0,0,0,0,0,0,0,0,0,0,0,0,0,0,0,0,0,0,0,0,0,0,0,0,0,0,0,0,0,0,0,0,0,0],"trees":[{"base_weights":[-4.9353926E-3,1.1086494E0,-2.074941E0,-1.4482229E0,1.619278E0,7.875753E-2,-2.1139202E0,-1.863646E0,1.5003067E0,-1.2926748E0,1.6901878E0,-1.0589261E-1,-2.3497531E-2,7.086219E-2,-1.9457177E0,-5.8858998E-2,8.6928904E-2,7.349348E-2,-9.945044E-2,1.7431185E0,-1.2687547E0,-1.0184343E-1,-1.5142238E-3,-7.754214E-2,8.938586E-2,4.2552132E-2,-9.248722E-2],"categories":[],"categories_nodes":[],"categories_segments":[],"categories_sizes":[],"default_left":[0,0,0,0,0,0,0,0,0,0,0,0,0,0,0,0,0,0,0,0,0,0,0,0,0,0,0],"id":0,"left_children":[1,3,5,7,9,-1,11,13,15,17,19,-1,-1,-1,21,-1,-1,-1,-1,23,25,-1,-1,-1,-1,-1,-1],"loss_changes":[3.3744663E3,1.2450841E3,7.618335E1,1.9752335E2,1.6610767E2,0E0,2.2824707E0,4.0398468E1,1.4924854E1,4.03171E1,1.2365845E2,0E0,0E0,0E0,2.382257E1,0E0,0E0,0E0,0E0,1.147478E2,1.9070253E1,0E0,0E0,0E0,0E0,0E0,0E0],"parents":[2147483647,0,0,1,1,2,2,3,3,4,4,6,6,7,7,8,8,9,9,10,10,14,14,19,19,20,20],"right_children":[2,4,6,8,10,-1,12,14,16,18,20,-1,-1,-1,22,-1,-1,-1,-1,24,26,-1,-1,-1,-1,-1,-1],"split_conditions":[1.0172399E-1,-1.1079499E0,-5.859066E-1,2.033244E0,-1.2835226E0,7.875753E-2,6.850796E-1,-3.65976E-1,-1.3060068E0,-9.410253E-1,2.1783583E0,-1.0589261E-1,-2.3497531E-2,7.086219E-2,-4.0500045E-1,-5.8858998E-2,8.6928904E-2,7.349348E-2,-9.945044E-2,-4.7733516E-1,-3.3446896E-1,-1.0184343E-1,-1.5142238E-3,-7.754214E-2,8.938586E-2,4.2552132E-2,-9.248722E-2],"split_indices":[19,18,2,42,38,0,28,33,36,16,16,0,0,0,16,0,0,0,0,32,39,0,0,0,0,0,0],"split_type":[0,0,0,0,0,0,0,0,0,0,0,0,0,0,0,0,0,0,0,0,0,0,0,0,0,0,0],"sum_hessian":[1.4618981E3,9.5084424E2,5.1105386E2,1.579757E2,7.928685E2,4.9834604E0,5.060704E2,1.3878937E2,1.9186321E1,1.8438803E1,7.7442975E2,5.0457535E2,1.495038E0,2.990076E0,1.3579929E2,1.2458651E0,1.7940456E1,3.4884222E0,1.4950381E1,7.612236E2,1.320617E1,1.2956996E2,6.2293253E0,9.717748E0,7.515058E2,2.7409031E0,1.0465266E1],"tree_param":{"num_deleted":"0","num_feature":"43","num_nodes":"27","size_leaf_vector":"1"}},{"base_weights":[-6.8526547E-3,1.0572162E0,-1.9687254E0,-1.3853148E0,1.533089E0,7.4479364E-2,-1.0008494E-1,-1.8552139E0,1.336297E0,-1.6939168E0,1.5792574E0,5.1557053E-2,-1.8901113E0,-6.802885E-2,1.6495491E0,-9.217262E-2,-1.215823E-2,-2.7711877E-1,1.6332216E0,-9.70163E-2,1.7530551E-2,7.076286E-3,8.6738095E-2,-9.086897E-2,6.0064424E-2,-4.688304E-2,8.231148E-2],"categories":[],"categories_nodes":[],"categories_segments":[],"categories_sizes":[],"default_left":[0,0,0,0,0,0,0,0,0,0,0,0,0,0,0,0,0,0,0,0,0,0,0,0,0,0,0],"id":1,"left_children":[1,3,5,7,9,-1,-1,11,13,15,17,-1,19,-1,21,-1,-1,23,25,-1,-1,-1,-1,-1,-1,-1,-1],"loss_changes":[3.0703381E3,1.1105048E3,6.1958374E1,2.0200485E2,1.21649414E2,0E0,0E0,1.5392303E1,2.2141201E1,2.099968E0,7.937488E1,0E0,1.5557587E1,0E0,2.5241241E0,0E0,0E0,5.4807053E1,2.7150269E1,0E0,0E0,0E0,0E0,0E0,0E0,0E0,0E0],"parents":[2147483647,0,0,1,1,2,2,3,3,4,4,7,7,8,8,9,9,10,10,12,12,14,14,17,17,18,18],"right_children":[2,4,6,8,10,-1,-1,12,14,16,18,-1,20,-1,22,-1,-1,24,26,-1,-1,-1,-1,-1,-1,-1,-1],"split_conditions":[1.2914489E-1,-1.1404452E0,-5.859066E-1,1.8698621E0,-4.7733516E-1,7.4479364E-2,-1.0008494E-1,-5.9456635E-1,-1.2783699E0,8.769779E-1,-6.058819E-1,5.1557053E-2,1.2374316E-2,-6.802885E-2,1.4259706E-1,-9.217262E-2,-1.215823E-2,-6.399107E-1,-9.127033E-1,-9.70163E-2,1.7530551E-2,7.076286E-3,8.6738095E-2,-9.086897E-2,6.0064424E-2,-4.688304E-2,8.231148E-2],"split_indices":[19,18,2,42,32,0,0,31,36,0,26,0,36,0,30,0,0,39,34,0,0,0,0,0,0,0,0],"split_type":[0,0,0,0,0,0,0,0,0,0,0,0,0,0,0,0,0,0,0,0,0,0,0,0,0,0,0],"sum_hessian":[1.468776E3,9.5258167E2,5.161944E2,1.550157E2,7.97566E2,4.4579606E0,5.1173642E2,1.324636E2,2.2552116E1,1.0746282E1,7.868197E2,1.2413878E0,1.312222E2,1.9989768E0,2.0553139E1,9.496723E0,1.249558E0,2.2109703E1,7.6470996E2,1.2847708E2,2.745112E0,1.2415781E0,1.9311562E1,1.07160425E1,1.13936615E1,3.4918833E0,7.612181E2],"tree_param":{"num_deleted":"0","num_feature":"43","num_nodes":"27","size_leaf_vector":"1"}},{"base_weights":[5.2795815E-3,1.0184807E0,-1.8776339E0,-1.3488574E0,1.4808701E0,7.117892E-2,-9.537976E-2,-1.7420248E0,1.4686781E0,-1.1086459E0,1.5537484E0,4.169148E-2,-1.7812092E0,-1.3881286E-2,8.265716E-2,-9.574068E-2,7.311304E-2,-1.5497805E0,1.6014874E0,-9.075596E-2,5.2041084E-2,1.1740684E-2,-8.869854E-2,8.050638E-2,-6.962358E-2],"categories":[],"categories_nodes":[],"categories_segments":[],"categories_sizes":[],"default_left":[0,0,0,0,0,0,0,0,0,0,0,0,0,0,0,0,0,0,0,0,0,0,0,0,0],"id":2,"left_children":[1,3,5,7,9,-1,-1,11,13,15,17,-1,19,-1,-1,-1,-1,21,23,-1,-1,-1,-1,-1,-1],"loss_changes":[2.7899883E3,1.0427744E3,5.3320312E1,1.7524564E2,1.5192639E2,0E0,0E0,1.5338989E1,6.7830124E0,4.9164093E1,1.1723779E2,0E0,1.4857605E1,0E0,0E0,0E0,0E0,5.31439E0,2.1987305E1,0E0,0E0,0E0,0E0,0E0,0E0],"parents":[2147483647,0,0,1,1,2,2,3,3,4,4,7,7,8,8,9,9,10,10,12,12,17,17,18,18],"right_children":[2,4,6,8,10,-1,-1,12,14,16,18,-1,20,-1,-1,-1,-1,22,24,-1,-1,-1,-1,-1,-1],"split_conditions":[1.2914489E-1,-1.1404452E0,-5.875727E-1,2.033244E0,-1.2671177E0,7.117892E-2,-9.537976E-2,-5.32431E-1,-1.2312725E0,-1.9569732E-1,-4.7733516E-1,4.169148E-2,4.619561E-1,-1.3881286E-2,8.265716E-2,-9.574068E-2,7.311304E-2,-5.010945E-1,2.3085115E0,-9.075596E-2,5.2041084E-2,1.1740684E-2,-8.869854E-2,8.050638E-2,-6.962358E-2],"split_indices":[19,18,1,42,38,0,0,23,36,28,32,0,36,0,0,0,0,1,37,0,0,0,0,0,0],"split_type":[0,0,0,0,0,0,0,0,0,0,0,0,0,0,0,0,0,0,0,0,0,0,0,0,0],"sum_hessian":[1.4604319E3,9.498006E2,5.106313E2,1.5488817E2,7.949124E2,4.174372E0,5.0645694E2,1.3625627E2,1.8631886E1,2.1370234E1,7.735422E2,1.7378268E0,1.3451845E2,1.7318335E0,1.6900053E1,1.6463058E1,4.9071765E0,1.1241874E1,7.623003E2,1.3327382E2,1.2446383E0,1.2493612E0,9.992513E0,7.605676E2,1.732687E0],"tree_param":{"num_deleted":"0","num_feature":"43","num_nodes":"25","size_leaf_vector":"1"}},{"base_weights":[1.93814E-2,1.0014962E0,-1.7939824E0,-1.2756449E0,1.4279883E0,6.8916194E-2,-9.113588E-2,-1.6312265E0,1.487759E0,-1.0504838E0,1.5004518E0,-1.735643E0,-9.636425E-2,1.2897384E-2,7.92426E-2,-9.16588E-2,7.1336225E-2,1.5479656E0,-1.4053489E0,4.997461E-2,-8.856987E-2,-7.644176E-2,6.1285354E-2,-4.7087293E-2,7.931869E-2,2.8572941E-2,-9.326684E-2],"categories":[],"categories_nodes":[],"categories_segments":[],"categories_sizes":[],"default_left":[0,0,0,0,0,0,0,0,0,0,0,0,0,0,0,0,0,0,0,0,0,0,0,0,0,0,0],"id":3,"left_children":[1,3,5,7,9,-1,-1,11,13,15,17,19,21,-1,-1,-1,-1,23,25,-1,-1,-1,-1,-1,-1,-1,-1],"loss_changes":[2.5752322E3,9.1276825E2,4.882141E1,1.4833739E2,1.4354639E2,0E0,0E0,2.099414E1,1.6750565E0,4.7293728E1,1.0827075E2,1.3854828E1,1.980712E1,0E0,0E0,0E0,0E0,7.383948E1,1.2784262E1,0E0,0E0,0E0,0E0,0E0,0E0,0E0,0E0],"parents":[2147483647,0,0,1,1,2,2,3,3,4,4,7,7,8,8,9,9,10,10,11,11,12,12,17,17,18,18],"right_children":[2,4,6,8,10,-1,-1,12,14,16,18,20,22,-1,-1,-1,-1,24,26,-1,-1,-1,-1,-1,-1,-1,-1],"split_conditions":[1.2914489E-1,-1.1404452E0,-5.875727E-1,2.1376579E0,-1.2671177E0,6.8916194E-2,-9.113588E-2,-4.928144E-1,-1.209945E0,-1.9569732E-1,2.1783583E0,-4.743132E-1,-1.3321638E0,1.2897384E-2,7.92426E-2,-9.16588E-2,7.1336225E-2,-4.3967026E-1,-3.3446896E-1,4.997461E-2,-8.856987E-2,-7.644176E-2,6.1285354E-2,-4.7087293E-2,7.931869E-2,2.8572941E-2,-9.326684E-2],"split_indices":[19,18,1,42,38,0,0,16,36,28,16,21,38,0,0,0,0,13,39,0,0,0,0,0,0,0,0],"split_type":[0,0,0,0,0,0,0,0,0,0,0,0,0,0,0,0,0,0,0,0,0,0,0,0,0,0,0],"sum_hessian":[1.443994E3,9.369767E2,5.070173E2,1.4749191E2,7.894848E2,4.1298003E0,5.028875E2,1.3104001E2,1.64519E1,2.2043213E1,7.674416E2,1.2257072E2,8.469291E0,1.4713986E0,1.4980502E1,1.6948267E1,5.0949473E0,7.555545E2,1.1887062E1,1.2337918E0,1.2133693E2,3.9898617E0,4.479429E0,1.1121309E1,7.444332E2,2.198146E0,9.688916E0],"tree_param":{"num_deleted":"0","num_feature":"43","num_nodes":"27","size_leaf_vector":"1"}},{"base_weights":[1.2751973E-2,6.270579E-1,-1.4154291E0,-1.5561897E0,9.696097E-1,-1.6438535E0,1.1322602E0,-1.6660224E0,1.0818223E0,-2.5339812E-1,1.342007E0,-1.6920668E0,6.421046E-2,-7.3006175E-2,7.947593E-2,5.3819943E-2,-1.7149433E0,4.1846056E-3,6.569546E-2,1.5877815E0,-8.894238E-1,1.4300219E0,-1.0388267E0,-4.8337346E-1,-8.767483E-2,-8.770184E-2,-2.5350282E-2,7.0888363E-3,8.095579E-2,-6.7434134E-3,-7.903883E-2,7.36913E-2,-6.733728E-2,-7.919882E-2,6.673407E-2,7.19128E-2,-8.234764E-2],"categories":[],"categories_nodes":[],"categories_segments":[],"categories_sizes":[],"default_left":[0,0,0,0,0,0,0,0,0,0,0,0,0,0,0,0,0,0,0,0,0,0,0,0,0,0,0,0,0,0,0,0,0,0,0,0,0],"id":4,"left_children":[1,3,5,7,9,11,13,15,17,19,21,23,-1,-1,-1,-1,25,-1,-1,27,29,31,33,35,-1,-1,-1,-1,-1,-1,-1,-1,-1,-1,-1,-1,-1],"loss_changes":[1.25197E3,7.477392E2,2.5163281E2,4.112195E1,3.9343164E2,5.7835083E1,4.4884846E1,1.9377747E1,1.2870336E0,2.3831708E2,1.4016296E2,2.7985962E1,0E0,0E0,0E0,0E0,5.1915894E0,0E0,0E0,2.1401367E0,7.855947E1,7.966235E1,3.3390854E1,4.7451042E1,0E0,0E0,0E0,0E0,0E0,0E0,0E0,0E0,0E0,0E0,0E0,0E0,0E0],"parents":[2147483647,0,0,1,1,2,2,3,3,4,4,5,5,6,6,7,7,8,8,9,9,10,10,11,11,16,16,19,19,20,20,21,21,22,22,23,23],"right_children":[2,4,6,8,10,12,14,16,18,20,22,24,-1,-1,-1,-1,26,-1,-1,28,30,32,34,36,-1,-1,-1,-1,-1,-1,-1,-1,-1,-1,-1,-1,-1],"split_conditions":[5.127501E-1,-1.0736696E0,1.5224925E0,2.4000874E0,-3.0825573E-1,1.7405924E0,-4.5656127E-1,-5.238108E-1,1.1858638E-1,-6.2542945E-1,1.8083749E0,-2.0013332E-1,6.421046E-2,-7.3006175E-2,7.947593E-2,5.3819943E-2,1.8698621E0,4.1846056E-3,6.569546E-2,-8.228771E-1,-4.3800458E-1,2.1783583E0,1.7332748E0,-4.0018365E-1,-8.767483E-2,-8.770184E-2,-2.5350282E-2,7.0888363E-3,8.095579E-2,-6.7434134E-3,-7.903883E-2,7.36913E-2,-6.733728E-2,-7.919882E-2,6.673407E-2,7.19128E-2,-8.234764E-2],"split_indices":[37,36,36,42,14,17,1,1,13,31,32,17,0,0,0,0,42,0,0,14,17,16,42,3,0,0,0,0,0,0,0,0,0,0,0,0,0],"split_type":[0,0,0,0,0,0,0,0,0,0,0,0,0,0,0,0,0,0,0,0,0,0,0,0,0,0,0,0,0,0,0,0,0,0,0,0,0],"sum_hessian":[1.4249948E3,9.968003E2,4.2819446E2,1.3470668E2,8.620936E2,3.9328732E2,3.490715E1,1.2967612E2,5.0305643E0,2.0130336E2,6.607903E2,3.8733167E2,5.9556484E0,4.905075E0,3.0002077E1,1.9046025E0,1.27771515E2,1.2057272E0,3.824837E0,5.1300694E1,1.5000267E2,6.376181E2,2.3172148E1,1.9162317E1,3.6816934E2,1.2332806E2,4.443462E0,1.2052575E0,5.0095436E1,7.2294334E1,7.7708336E1,6.2817773E2,9.440405E0,1.9114544E1,4.0576034E0,7.1379933E0,1.2024324E1],"tree_param":{"num_deleted":"0","num_feature":"43","num_nodes":"37","size_leaf_vector":"1"}},{"base_weights":[-1.0990007E-5,9.2580307E-1,-1.6497651E0,-1.200954E0,1.3325256E0,6.979603E-2,-1.692652E0,-1.583229E0,1.1465496E0,-1.58809E0,1.3978412E0,-8.480114E-2,-8.913377E-3,-1.6229374E0,4.0200397E-2,-6.3732155E-2,1.5026988E0,-8.6410545E-2,6.982164E-3,1.444683E0,-1.3513017E0,2.7248664E-2,-8.2450025E-2,2.3092039E-2,7.733097E-2,-6.857353E-2,7.4114464E-2,5.162713E-2,-8.7251425E-2],"categories":[],"categories_nodes":[],"categories_segments":[],"categories_sizes":[],"default_left":[0,0,0,0,0,0,0,0,0,0,0,0,0,0,0,0,0,0,0,0,0,0,0,0,0,0,0,0,0],"id":5,"left_children":[1,3,5,7,9,-1,11,13,15,17,19,-1,-1,21,-1,-1,23,-1,-1,25,27,-1,-1,-1,-1,-1,-1,-1,-1],"loss_changes":[2.1528496E3,7.825678E2,6.8543335E1,1.3235802E2,1.4689062E2,0E0,2.2502441E0,1.32031555E1,1.9981834E1,4.3707848E0,9.754492E1,0E0,0E0,7.8933716E0,0E0,0E0,1.4165878E-1,0E0,0E0,7.9382935E1,1.3959314E1,0E0,0E0,0E0,0E0,0E0,0E0,0E0,0E0],"parents":[2147483647,0,0,1,1,2,2,3,3,4,4,6,6,7,7,8,8,9,9,10,10,13,13,16,16,19,19,20,20],"right_children":[2,4,6,8,10,-1,12,14,16,18,20,-1,-1,22,-1,-1,24,-1,-1,26,28,-1,-1,-1,-1,-1,-1,-1,-1],"split_conditions":[1.0172399E-1,-1.1753436E0,-5.875727E-1,1.8698621E0,-1.3321638E0,6.979603E-2,6.850796E-1,2.6913503E-1,-1.2783699E0,-1.6515772E-1,2.1783583E0,-8.480114E-2,-8.913377E-3,-3.6332062E-1,4.0200397E-2,-6.3732155E-2,7.332677E-1,-8.6410545E-2,6.982164E-3,-4.7733516E-1,-4.4749576E-1,2.7248664E-2,-8.2450025E-2,2.3092039E-2,7.733097E-2,-6.857353E-2,7.4114464E-2,5.162713E-2,-8.7251425E-2],"split_indices":[19,18,1,42,38,0,28,36,36,42,16,0,0,33,0,0,35,0,0,32,39,0,0,0,0,0,0,0,0],"split_type":[0,0,0,0,0,0,0,0,0,0,0,0,0,0,0,0,0,0,0,0,0,0,0,0,0,0,0,0,0],"sum_hessian":[1.4075182E3,9.018526E2,5.0566556E2,1.444691E2,7.573835E2,6.5834265E0,4.9908215E2,1.245178E2,1.9951302E1,1.6057388E1,7.413261E2,4.9785406E2,1.2280675E0,1.2279542E2,1.7223815E0,2.227723E0,1.772358E1,1.4852554E1,1.2048335E0,7.2937305E2,1.19530325E1,1.2222124E0,1.21573204E2,1.1838264E0,1.6539753E1,9.144116E0,7.2022894E2,1.4643779E0,1.0488654E1],"tree_param":{"num_deleted":"0","num_feature":"43","num_nodes":"29","size_leaf_vector":"1"}},{"base_weights":[1.5373548E-2,8.9362204E-1,-1.5960344E0,-1.173969E0,1.2863942E0,6.717231E-2,-1.6356816E0,-1.3782547E0,9.932903E-1,-1.1956896E0,1.3655736E0,-8.195379E-2,-8.669527E-3,-1.4514375E0,8.7768674E-1,-5.8260996E-2,7.1457036E-2,-8.593323E-2,6.2898636E-2,1.4070731E0,-1.2373198E0,-7.570913E-2,-3.8219884E-3,3.1946548E-3,5.6556303E-2,-6.383818E-2,7.1643315E-2,2.3389237E-2,-8.086329E-2],"categories":[],"categories_nodes":[],"categories_segments":[],"categories_sizes":[],"default_left":[0,0,0,0,0,0,0,0,0,0,0,0,0,0,0,0,0,0,0,0,0,0,0,0,0,0,0,0,0],"id":6,"left_children":[1,3,5,7,9,-1,11,13,15,17,19,-1,-1,21,23,-1,-1,-1,-1,25,27,-1,-1,-1,-1,-1,-1,-1,-1],"loss_changes":[1.9458239E3,7.2419116E2,5.8723145E1,6.449768E1,1.4869861E2,0E0,2.0932617E0,2.2855743E1,1.3767176E1,3.253118E1,8.0124756E1,0E0,0E0,1.0840454E1,9.0339875E-1,0E0,0E0,0E0,0E0,5.130603E1,8.478865E0,0E0,0E0,0E0,0E0,0E0,0E0,0E0,0E0],"parents":[2147483647,0,0,1,1,2,2,3,3,4,4,6,6,7,7,8,8,9,9,10,10,13,13,14,14,19,19,20,20],"right_children":[2,4,6,8,10,-1,12,14,16,18,20,-1,-1,22,24,-1,-1,-1,-1,26,28,-1,-1,-1,-1,-1,-1,-1,-1],"split_conditions":[1.0172399E-1,-1.1753436E0,-5.875727E-1,2.618482E0,-1.2671177E0,6.717231E-2,7.4839485E-1,2.0987217E0,-4.8886338E-1,-1.9569732E-1,2.1783583E0,-8.195379E-2,-8.669527E-3,-3.8895082E-1,2.4339976E0,-5.8260996E-2,7.1457036E-2,-8.593323E-2,6.2898636E-2,-4.4723168E-1,-3.3446896E-1,-7.570913E-2,-3.8219884E-3,3.1946548E-3,5.6556303E-2,-6.383818E-2,7.1643315E-2,2.3389237E-2,-8.086329E-2],"split_indices":[19,18,1,10,38,0,28,30,28,28,16,0,0,16,28,0,0,0,0,13,39,0,0,0,0,0,0,0,0],"split_type":[0,0,0,0,0,0,0,0,0,0,0,0,0,0,0,0,0,0,0,0,0,0,0,0,0,0,0,0,0],"sum_hessian":[1.3729222E3,8.8889996E2,4.8402225E2,1.4158641E2,7.473136E2,6.0038776E0,4.7801837E2,1.2972282E2,1.1863597E1,2.266665E1,7.246469E2,4.7679077E2,1.2275805E0,1.2599224E2,3.7305818E0,1.7119377E0,1.0151659E1,1.8931196E1,3.7354555E0,7.137269E2,1.0919987E1,1.2039696E2,5.5952845E0,1.1832547E0,2.547327E0,6.3323164E0,7.073946E2,1.9477543E0,8.972233E0],"tree_param":{"num_deleted":"0","num_feature":"43","num_nodes":"29","size_leaf_vector":"1"}},{"base_weights":[-3.997509E-3,8.421465E-1,-1.5586454E0,-1.1472769E0,1.256994E0,6.1659783E-2,-7.9256944E-2,-1.4799432E0,1.0922216E0,1.295904E0,-1.0252657E0,-1.5320207E0,4.742148E-2,-6.0542762E-2,7.187474E-2,4.6622863E-1,1.3978268E0,5.74087E-2,-7.869683E-2,5.2605487E-2,-7.8874074E-2,-8.727006E-2,4.6945583E-2,7.3147714E-2,1.7303117E-2],"categories":[],"categories_nodes":[],"categories_segments":[],"categories_sizes":[],"default_left":[0,0,0,0,0,0,0,0,0,0,0,0,0,0,0,0,0,0,0,0,0,0,0,0,0],"id":7,"left_children":[1,3,5,7,9,-1,-1,11,13,15,17,19,-1,-1,-1,21,23,-1,-1,-1,-1,-1,-1,-1,-1],"loss_changes":[1.7964156E3,7.312781E2,3.7554565E1,1.15683334E2,6.6351074E1,0E0,0E0,1.8365173E1,1.7944529E1,6.0265503E1,1.710987E1,1.7085144E1,0E0,0E0,0E0,8.559952E1,4.3405884E1,0E0,0E0,0E0,0E0,0E0,0E0,0E0,0E0],"parents":[2147483647,0,0,1,1,2,2,3,3,4,4,7,7,8,8,9,9,10,10,11,11,15,15,16,16],"right_children":[2,4,6,8,10,-1,-1,12,14,16,18,20,-1,-1,-1,22,24,-1,-1,-1,-1,-1,-1,-1,-1],"split_conditions":[1.2914489E-1,-1.1079499E0,-5.875727E-1,1.8698621E0,2.1783583E0,6.1659783E-2,-7.9256944E-2,2.6913503E-1,-1.2783699E0,-4.0807563E-1,-3.3446896E-1,-3.65976E-1,4.742148E-2,-6.0542762E-2,7.187474E-2,-8.813174E-1,9.1000825E-1,5.74087E-2,-7.869683E-2,5.2605487E-2,-7.8874074E-2,-8.727006E-2,4.6945583E-2,7.3147714E-2,1.7303117E-2],"split_indices":[19,18,1,42,16,0,0,36,36,13,39,33,0,0,0,37,15,0,0,0,0,0,0,0,0],"split_type":[0,0,0,0,0,0,0,0,0,0,0,0,0,0,0,0,0,0,0,0,0,0,0,0,0],"sum_hessian":[1.3636241E3,8.833202E2,4.8030396E2,1.521088E2,7.3121136E2,4.086897E0,4.7621707E2,1.3273138E2,1.9377417E1,7.193789E2,1.1832434E1,1.3030603E2,2.4253538E0,2.1994526E0,1.7177965E1,7.931446E1,6.4006445E2,2.1647205E0,9.667713E0,1.8699374E0,1.2843608E2,1.3492423E1,6.582204E1,6.023732E2,3.769123E1],"tree_param":{"num_deleted":"0","num_feature":"43","num_nodes":"25","size_leaf_vector":"1"}},{"base_weights":[-7.367581E-3,8.3693105E-1,-1.5192672E0,-9.613962E-1,1.1671203E0,5.867931E-2,-1.5420034E0,-1.3763076E0,8.953277E-1,1.2788006E0,-4.521117E-1,-7.7196464E-2,-2.061074E-2,-1.4941903E0,5.8953293E-2,-6.6069074E-2,7.2137885E-2,-1.3173782E0,1.321922E0,-1.313088E0,1.0351024E0,-7.742401E-2,5.0371595E-2,3.2715544E-2,-8.0862254E-2,6.8163E-2,-6.272025E-2,-7.180485E-2,2.8050138E-2,6.802983E-2,2.3408727E-5],"categories":[],"categories_nodes":[],"categories_segments":[],"categories_sizes":[],"default_left":[0,0,0,0,0,0,0,0,0,0,0,0,0,0,0,0,0,0,0,0,0,0,0,0,0,0,0,0,0,0,0],"id":8,"left_children":[1,3,5,7,9,-1,11,13,15,17,19,-1,-1,21,-1,-1,-1,23,25,27,29,-1,-1,-1,-1,-1,-1,-1,-1,-1,-1],"loss_changes":[1.6997219E3,5.0846838E2,3.1022339E1,1.0376304E2,1.3120184E2,0E0,3.9404297E-1,3.4649628E1,3.2140537E1,7.741882E1,6.198158E1,0E0,0E0,1.5793701E1,0E0,0E0,0E0,7.884243E0,7.257947E1,7.81979E0,6.0336494E0,0E0,0E0,0E0,0E0,0E0,0E0,0E0,0E0,0E0,0E0],"parents":[2147483647,0,0,1,1,2,2,3,3,4,4,6,6,7,7,8,8,9,9,10,10,13,13,17,17,18,18,19,19,20,20],"right_children":[2,4,6,8,10,-1,12,14,16,18,20,-1,-1,22,-1,-1,-1,24,26,28,30,-1,-1,-1,-1,-1,-1,-1,-1,-1,-1],"split_conditions":[1.2914489E-1,-1.1791105E0,-5.875727E-1,1.7390348E0,3.013E-1,5.867931E-2,2.4891412E0,1.8698621E0,-1.2783699E0,-4.7733516E-1,-8.4337527E-1,-7.7196464E-2,-2.061074E-2,-6.177737E-1,5.8953293E-2,-6.6069074E-2,7.2137885E-2,-5.398679E-1,2.1783583E0,-9.058932E-1,-3.2203995E-2,-7.742401E-2,5.0371595E-2,3.2715544E-2,-8.0862254E-2,6.8163E-2,-6.272025E-2,-7.180485E-2,2.8050138E-2,6.802983E-2,2.3408727E-5],"split_indices":[19,38,1,28,13,0,0,42,36,32,16,0,0,17,0,0,0,3,16,17,37,0,0,0,0,0,0,0,0,0,0],"split_type":[0,0,0,0,0,0,0,0,0,0,0,0,0,0,0,0,0,0,0,0,0,0,0,0,0,0,0,0,0,0,0],"sum_hessian":[1.3295581E3,8.5342285E2,4.7613528E2,1.3209193E2,7.2133093E2,3.562621E0,4.7257266E2,1.08176994E2,2.3914944E1,6.749866E2,4.634438E1,4.7140256E2,1.1701219E0,1.03803665E2,4.373326E0,4.4562893E0,1.9458654E1,1.0545248E1,6.644413E2,2.9426123E1,1.6918257E1,1.01971695E2,1.831971E0,1.2360369E0,9.309211E0,6.544119E2,1.0029383E1,2.7832972E1,1.593152E0,1.262987E1,4.2883854E0],"tree_param":{"num_deleted":"0","num_feature":"43","num_nodes":"31","size_leaf_vector":"1"}},{"base_weights":[1.0013384E-2,8.1821066E-1,-1.4830118E0,1.1696049E0,-1.1227252E0,5.4496016E-2,-7.507529E-2,-9.0347135E-1,1.2547734E0,-1.4004388E0,8.468723E-1,-7.875898E-2,6.615412E-2,-1.2905099E0,1.2987225E0,5.3838193E-2,-1.4643831E0,-5.984352E-2,1.2767184E0,3.2460436E-2,-7.841846E-2,6.671555E-2,-4.3841876E-2,-7.429386E-2,-8.040031E-3,6.979675E-2,-2.4692672E-3],"categories":[],"categories_nodes":[],"categories_segments":[],"categories_sizes":[],"default_left":[0,0,0,0,0,0,0,0,0,0,0,0,0,0,0,0,0,0,0,0,0,0,0,0,0,0,0],"id":9,"left_children":[1,3,5,7,9,-1,-1,11,13,15,17,-1,-1,19,21,-1,23,-1,25,-1,-1,-1,-1,-1,-1,-1,-1],"loss_changes":[1.5680437E3,5.7633435E2,2.3353271E1,1.27259705E2,7.215706E1,0E0,0E0,4.5113796E1,7.8478516E1,1.9649399E1,1.6161255E1,0E0,0E0,7.569586E0,5.3464355E1,0E0,2.889328E0,0E0,2.3212032E0,0E0,0E0,0E0,0E0,0E0,0E0,0E0,0E0],"parents":[2147483647,0,0,1,1,2,2,3,3,4,4,7,7,8,8,9,9,10,10,13,13,14,14,16,16,18,18],"right_children":[2,4,6,8,10,-1,-1,12,14,16,18,-1,-1,20,22,-1,24,-1,26,-1,-1,-1,-1,-1,-1,-1,-1],"split_conditions":[1.2914489E-1,1.3441908E0,-6.089797E-1,-1.2671177E0,1.8698621E0,5.4496016E-2,-7.507529E-2,-1.380307E-1,-4.7733516E-1,-4.980279E-1,-1.2783699E0,-7.875898E-2,6.615412E-2,-5.394962E-1,2.1783583E0,5.3838193E-2,-3.4761283E-1,-5.984352E-2,-8.458751E-1,3.2460436E-2,-7.841846E-2,6.671555E-2,-4.3841876E-2,-7.429386E-2,-8.040031E-3,6.979675E-2,-2.4692672E-3],"split_indices":[19,15,1,38,42,0,0,28,32,12,36,0,0,4,16,0,16,0,37,0,0,0,0,0,0,0,0],"split_type":[0,0,0,0,0,0,0,0,0,0,0,0,0,0,0,0,0,0,0,0,0,0,0,0,0,0,0],"sum_hessian":[1.2974866E3,8.42098E2,4.5538852E2,7.1334827E2,1.287498E2,2.8364913E0,4.5255203E2,2.7770967E1,6.855773E2,1.1309268E2,1.5657114E1,2.1559446E1,6.21152E0,1.1155411E1,6.744219E2,2.4472454E0,1.1064544E2,2.410718E0,1.3246396E1,1.2302991E0,9.925111E0,6.639475E2,1.0474383E1,1.0871308E2,1.9323536E0,1.2105458E1,1.1409373E0],"tree_param":{"num_deleted":"0","num_feature":"43","num_nodes":"27","size_leaf_vector":"1"}},{"base_weights":[-9.19102E-3,5.1468676E-1,-1.2722726E0,8.062946E-1,-1.1493064E0,2.4135731E-1,-1.4402417E0,-2.4911946E-1,1.139151E0,-1.3865947E0,9.2077947E-1,6.787636E-2,-6.9719546E-2,-1.4657902E0,2.871846E-1,1.3652698E0,-7.5619876E-1,-1.1498021E0,1.2004187E0,4.6062134E-2,-1.4214677E0,-3.4933615E-1,1.190537E0,-2.0397661E-2,-7.344028E-2,5.3098597E-2,-4.6524186E-2,7.0516415E-2,-1.00153955E-2,-5.13837E-2,6.049762E-2,1.11708855E-2,-6.9580436E-2,6.163289E-2,-7.4496955E-2,-7.180456E-2,-2.893187E-2,2.0522708E-2,-4.5380305E-2,6.627421E-2,-2.4027221E-3],"categories":[],"categories_nodes":[],"categories_segments":[],"categories_sizes":[],"default_left":[0,0,0,0,0,0,0,0,0,0,0,0,0,0,0,0,0,0,0,0,0,0,0,0,0,0,0,0,0,0,0,0,0,0,0,0,0,0,0,0,0],"id":10,"left_children":[1,3,5,7,9,11,13,15,17,19,21,-1,-1,23,25,27,29,31,33,-1,35,37,39,-1,-1,-1,-1,-1,-1,-1,-1,-1,-1,-1,-1,-1,-1,-1,-1,-1,-1],"loss_changes":[8.302751E2,4.3128894E2,9.387146E1,2.656054E2,6.64424E1,7.0541885E1,1.5040161E1,1.4994218E2,8.1926575E1,1.09206085E1,5.2962275E0,0E0,0E0,4.4262695E-1,6.3317213E0,3.3747559E0,7.547218E1,5.452259E0,5.0396606E1,0E0,6.238098E-1,1.7588944E0,2.0653477E0,0E0,0E0,0E0,0E0,0E0,0E0,0E0,0E0,0E0,0E0,0E0,0E0,0E0,0E0,0E0,0E0,0E0,0E0],"parents":[2147483647,0,0,1,1,2,2,3,3,4,4,5,5,6,6,7,7,8,8,9,9,10,10,13,13,14,14,15,15,16,16,17,17,18,18,20,20,21,21,22,22],"right_children":[2,4,6,8,10,12,14,16,18,20,22,-1,-1,24,26,28,30,32,34,-1,36,38,40,-1,-1,-1,-1,-1,-1,-1,-1,-1,-1,-1,-1,-1,-1,-1,-1,-1,-1],"split_conditions":[7.196893E-1,1.3856639E0,-1.1660568E-1,-3.16173E-1,1.8698621E0,-3.3938512E-1,1.3782647E-1,-6.2542945E-1,-6.373207E-1,-3.5044265E-1,1.7047064E0,6.787636E-2,-6.9719546E-2,-1.2105458E0,4.6551076E-1,-4.7228333E-1,8.2792026E-1,-3.764471E-1,3.1650906E0,4.6062134E-2,1.6894577E0,-8.24568E-2,-8.458751E-1,-2.0397661E-2,-7.344028E-2,5.3098597E-2,-4.6524186E-2,7.0516415E-2,-1.00153955E-2,-5.13837E-2,6.049762E-2,1.11708855E-2,-6.9580436E-2,6.163289E-2,-7.4496955E-2,-7.180456E-2,-2.893187E-2,2.0522708E-2,-4.5380305E-2,6.627421E-2,-2.4027221E-3],"split_indices":[39,15,18,14,42,32,1,31,26,13,8,0,0,16,13,38,34,21,16,0,0,3,37,0,0,0,0,0,0,0,0,0,0,0,0,0,0,0,0,0,0],"split_type":[0,0,0,0,0,0,0,0,0,0,0,0,0,0,0,0,0,0,0,0,0,0,0,0,0,0,0,0,0,0,0,0,0,0,0,0,0,0,0,0,0],"sum_hessian":[1.2527701E3,8.859179E2,3.6685223E2,7.542536E2,1.3166434E2,3.659995E1,3.302523E2,1.8090266E2,5.733509E2,1.1842032E2,1.3244015E1,2.1856218E1,1.474373E1,3.2558835E2,4.6639614E0,4.283533E1,1.3806734E2,1.4483491E1,5.5886743E2,1.3844228E0,1.170359E2,2.2684298E0,1.0975585E1,1.3129106E0,3.2427542E2,2.928474E0,1.7354876E0,4.1733376E1,1.1019548E0,1.21736015E2,1.6331316E1,2.1798987E0,1.2303593E1,5.527851E2,6.0823045E0,1.1434801E2,2.6878948E0,1.0729494E0,1.1954803E0,9.833996E0,1.1415892E0],"tree_param":{"num_deleted":"0","num_feature":"43","num_nodes":"41","size_leaf_vector":"1"}},{"base_weights":[5.120223E-3,7.922082E-1,-1.3991671E0,-8.621903E-1,1.1685551E0,5.9974123E-2,-1.4342899E0,-1.1694423E0,9.8368853E-1,-7.7433026E-1,1.2300892E0,-1.7509438E-1,-7.204687E-2,1.1469272E0,-1.3161622E0,-5.549286E-2,1.2722253E0,-7.5803734E-2,6.044979E-2,-1.2068064E0,1.2651658E0,3.0093882E-2,-4.1075613E-2,6.2268335E-2,1.2901594E-2,-6.920633E-2,4.272442E-2,-2.456693E-3,6.7890994E-2,1.3409949E-2,-7.28723E-2,6.514343E-2,-4.7303166E-2],"categories":[],"categories_nodes":[],"categories_segments":[],"categories_sizes":[],"default_left":[0,0,0,0,0,0,0,0,0,0,0,0,0,0,0,0,0,0,0,0,0,0,0,0,0,0,0,0,0,0,0,0,0],"id":11,"left_children":[1,3,5,7,9,-1,11,13,15,17,19,21,-1,23,25,-1,27,-1,-1,29,31,-1,-1,-1,-1,-1,-1,-1,-1,-1,-1,-1,-1],"loss_changes":[1.3547637E3,4.900535E2,4.1902405E1,8.403338E1,7.750433E1,0E0,3.387268E0,4.4243973E1,1.4337315E1,3.165377E1,5.461267E1,2.2130015E0,0E0,3.8082027E-1,1.8696747E1,0E0,2.2463322E0,0E0,0E0,3.8380213E0,5.231482E1,0E0,0E0,0E0,0E0,0E0,0E0,0E0,0E0,0E0,0E0,0E0,0E0],"parents":[2147483647,0,0,1,1,2,2,3,3,4,4,6,6,7,7,8,8,9,9,10,10,11,11,13,13,14,14,16,16,19,19,20,20],"right_children":[2,4,6,8,10,-1,12,14,16,18,20,22,-1,24,26,-1,28,-1,-1,30,32,-1,-1,-1,-1,-1,-1,-1,-1,-1,-1,-1,-1],"split_conditions":[1.0172399E-1,-1.0605456E0,-5.875727E-1,1.8698621E0,-1.2554533E0,5.9974123E-2,-1.634723E0,-3.6640966E-1,-1.2783699E0,-1.5687395E-2,-4.7733516E-1,1.4347007E0,-7.204687E-2,-8.3345306E-1,-4.2832363E-2,-5.549286E-2,-1.9239406E-1,-7.5803734E-2,6.044979E-2,9.347647E-1,2.1783583E0,3.0093882E-2,-4.1075613E-2,6.2268335E-2,1.2901594E-2,-6.920633E-2,4.272442E-2,-2.456693E-3,6.7890994E-2,1.3409949E-2,-7.28723E-2,6.514343E-2,-4.7303166E-2],"split_indices":[19,18,1,42,38,0,25,33,36,42,32,21,0,17,36,0,34,0,0,16,16,0,0,0,0,0,0,0,0,0,0,0,0],"split_type":[0,0,0,0,0,0,0,0,0,0,0,0,0,0,0,0,0,0,0,0,0,0,0,0,0,0,0,0,0,0,0,0,0],"sum_hessian":[1.2236974E3,7.844548E2,4.3924265E2,1.4513947E2,6.393153E2,5.41548E0,4.3382718E2,1.2474221E2,2.0397255E1,1.9270828E1,6.200445E2,2.421715E0,4.3140546E2,7.024495E0,1.1771772E2,2.1258864E0,1.827137E1,1.4196913E1,5.073916E0,8.324271E0,6.117202E2,1.1310886E0,1.2906263E0,5.9630923E0,1.0614026E0,1.14495155E2,3.2225642E0,1.1374866E0,1.7133883E1,1.1988752E0,7.125396E0,6.018688E2,9.851426E0],"tree_param":{"num_deleted":"0","num_feature":"43","num_nodes":"33","size_leaf_vector":"1"}},{"base_weights":[-6.688519E-3,4.917819E-1,-1.2089742E0,8.1060356E-1,-8.45001E-1,3.78702E-1,-1.3734729E0,-2.284424E-1,1.1521258E0,6.565573E-2,-1.0820669E0,6.525367E-2,-6.557976E-2,-7.015064E-2,4.7382597E-2,5.8289444E-1,-1.277767E0,-9.977518E-1,1.1794264E0,-1.3336234E0,9.3924177E-1,-8.28993E-2,6.5089956E-2,-7.005519E-2,3.1780757E-2,2.0099979E-2,-6.556829E-2,1.5453756E-2,6.1849575E-2,-6.743899E-2,-1.1824594E-2,-3.790629E-2,6.3954E-2],"categories":[],"categories_nodes":[],"categories_segments":[],"categories_sizes":[],"default_left":[0,0,0,0,0,0,0,0,0,0,0,0,0,0,0,0,0,0,0,0,0,0,0,0,0,0,0,0,0,0,0,0,0],"id":12,"left_children":[1,3,5,7,9,11,13,15,17,-1,19,-1,-1,-1,-1,21,23,25,27,29,31,-1,-1,-1,-1,-1,-1,-1,-1,-1,-1,-1,-1],"loss_changes":[7.206725E2,3.629864E2,9.256726E1,2.4401184E2,8.542357E1,5.4749817E1,2.3241089E1,1.4611934E2,3.1529053E1,0E0,7.675496E1,0E0,0E0,0E0,0E0,1.5839966E2,1.853585E1,3.6115956E0,2.522522E1,1.8837585E0,1.0788037E1,0E0,0E0,0E0,0E0,0E0,0E0,0E0,0E0,0E0,0E0,0E0,0E0],"parents":[2147483647,0,0,1,1,2,2,3,3,4,4,5,5,6,6,7,7,8,8,10,10,15,15,16,16,17,17,18,18,19,19,20,20],"right_children":[2,4,6,8,10,12,14,16,18,-1,20,-1,-1,-1,-1,22,24,26,28,30,32,-1,-1,-1,-1,-1,-1,-1,-1,-1,-1,-1,-1],"split_conditions":[7.007258E-1,9.6176915E-2,-2.3431742E-1,-3.16173E-1,9.908413E-2,-4.4511974E-1,1.7405924E0,-3.7833086E-1,-6.373207E-1,6.565573E-2,1.8045739E0,6.525367E-2,-6.557976E-2,-7.015064E-2,4.7382597E-2,-9.106409E-1,8.2792026E-1,-5.245026E-1,-3.9346156E-1,1.8565115E0,1.9135396E0,-8.28993E-2,6.5089956E-2,-7.005519E-2,3.1780757E-2,2.0099979E-2,-6.556829E-2,1.5453756E-2,6.1849575E-2,-6.743899E-2,-1.1824594E-2,-3.790629E-2,6.3954E-2],"split_indices":[39,13,17,14,35,2,17,17,26,0,42,0,0,0,0,38,34,6,32,0,8,0,0,0,0,0,0,0,0,0,0,0,0],"split_type":[0,0,0,0,0,0,0,0,0,0,0,0,0,0,0,0,0,0,0,0,0,0,0,0,0,0,0,0,0,0,0,0,0],"sum_hessian":[1.2005239E3,8.490831E2,3.5144083E2,6.85892E2,1.6319109E2,3.2871918E1,3.185689E2,1.6975653E2,5.161355E2,1.5702774E1,1.4748831E2,2.1381592E1,1.1490327E1,3.1495615E2,3.612761E0,9.598529E1,7.377124E1,6.0263267E0,5.1010916E2,1.3146715E2,1.6021175E1,2.2996664E1,7.2988625E1,6.955543E1,4.2158127E0,1.051471E0,4.9748554E0,3.2040737E1,4.7806842E2,1.294495E2,2.017654E0,2.4672625E0,1.3553912E1],"tree_param":{"num_deleted":"0","num_feature":"43","num_nodes":"33","size_leaf_vector":"1"}},{"base_weights":[-3.5409287E-3,7.383035E-1,-1.3415359E0,-9.5119417E-1,1.0906858E0,5.7669282E-2,-1.375532E0,-1.223578E0,9.101715E-1,-1.1808E0,1.142564E0,-6.910023E-2,1.6897833E-2,-1.2836713E0,5.595693E-1,-5.259136E-2,6.229959E-2,3.821879E-2,-6.970539E-2,-1.2544258E0,1.1794318E0,4.714443E-2,-6.6373535E-2,5.680349E-2,-2.9625183E-2,-4.7114887E-3,-6.994873E-2,6.1084796E-2,-4.9813792E-2],"categories":[],"categories_nodes":[],"categories_segments":[],"categories_sizes":[],"default_left":[0,0,0,0,0,0,0,0,0,0,0,0,0,0,0,0,0,0,0,0,0,0,0,0,0,0,0,0,0],"id":13,"left_children":[1,3,5,7,9,-1,11,13,15,17,19,-1,-1,21,23,-1,-1,-1,-1,25,27,-1,-1,-1,-1,-1,-1,-1,-1],"loss_changes":[1.1626936E3,4.496757E2,3.702423E1,6.732033E1,7.488025E1,0E0,5.043762E0,1.2970474E1,1.2671679E1,7.0507526E0,5.5435913E1,0E0,0E0,1.206842E1,3.6115139E0,0E0,0E0,0E0,0E0,1.5005026E0,5.6558105E1,0E0,0E0,0E0,0E0,0E0,0E0,0E0,0E0],"parents":[2147483647,0,0,1,1,2,2,3,3,4,4,6,6,7,7,8,8,9,9,10,10,13,13,14,14,19,19,20,20],"right_children":[2,4,6,8,10,-1,12,14,16,18,20,-1,-1,22,24,-1,-1,-1,-1,26,28,-1,-1,-1,-1,-1,-1,-1,-1],"split_conditions":[1.0172399E-1,-1.1079499E0,-6.2584543E-1,1.8698621E0,-1.3321638E0,5.7669282E-2,8.760898E-1,1.2374316E-2,-1.2783699E0,-9.7070134E-1,-4.7877446E-1,-6.910023E-2,1.6897833E-2,-5.577456E-1,-2.792258E-1,-5.259136E-2,6.229959E-2,3.821879E-2,-6.970539E-2,-2.4832384E-1,2.1783583E0,4.714443E-2,-6.6373535E-2,5.680349E-2,-2.9625183E-2,-4.7114887E-3,-6.994873E-2,6.1084796E-2,-4.9813792E-2],"split_indices":[19,18,3,42,38,0,28,36,36,16,32,0,0,23,14,0,0,0,0,36,16,0,0,0,0,0,0,0,0],"split_type":[0,0,0,0,0,0,0,0,0,0,0,0,0,0,0,0,0,0,0,0,0,0,0,0,0,0,0,0,0],"sum_hessian":[1.1693827E3,7.5257153E2,4.168112E2,1.2958359E2,6.229879E2,5.1605277E0,4.1165067E2,1.1334049E2,1.624309E1,1.34247465E1,6.095632E2,4.1029422E2,1.3564204E0,1.0991634E2,3.4241464E0,2.0622833E0,1.4180807E1,1.0713705E0,1.2353376E1,8.733324E0,6.008299E2,1.7244737E0,1.0819187E2,2.2914097E0,1.1327368E0,1.150548E0,7.5827756E0,5.89811E2,1.1018877E1],"tree_param":{"num_deleted":"0","num_feature":"43","num_nodes":"29","size_leaf_vector":"1"}},{"base_weights":[-9.984061E-4,7.193475E-1,-1.3166528E0,-9.7606397E-1,1.0531375E0,5.6824017E-2,-1.3515637E0,-1.2236696E0,9.56132E-1,2.2723903E-1,1.1607493E0,-4.4976297E-1,-6.7800924E-2,-1.2720817E0,5.776389E-1,-2.6839856E-2,6.1932724E-2,8.1228524E-1,-1.4169164E0,-8.9753604E-1,1.1807193E0,1.0018921E-2,-4.0712178E-2,-6.538098E-2,-1.4417464E-2,4.9077615E-2,-7.3560597E-3,-6.89667E-2,5.5142183E-2,3.5539843E-2,-7.9401456E-2,1.2818852E-2,-6.1983835E-2,6.2074512E-2,2.8862163E-2],"categories":[],"categories_nodes":[],"categories_segments":[],"categories_sizes":[],"default_left":[0,0,0,0,0,0,0,0,0,0,0,0,0,0,0,0,0,0,0,0,0,0,0,0,0,0,0,0,0,0,0,0,0,0,0],"id":14,"left_children":[1,3,5,7,9,-1,11,13,15,17,19,21,-1,23,25,-1,-1,27,29,31,33,-1,-1,-1,-1,-1,-1,-1,-1,-1,-1,-1,-1,-1,-1],"loss_changes":[1.0818175E3,4.1845844E2,3.612323E1,5.946743E1,5.4552612E1,0E0,9.916382E-1,1.0192261E1,6.739809E0,7.0737854E1,2.3479004E1,9.8207504E-1,0E0,3.3260498E0,1.1766547E0,0E0,0E0,3.5903065E1,8.173859E0,2.6112847E0,1.9109985E1,0E0,0E0,0E0,0E0,0E0,0E0,0E0,0E0,0E0,0E0,0E0,0E0,0E0,0E0],"parents":[2147483647,0,0,1,1,2,2,3,3,4,4,6,6,7,7,8,8,9,9,10,10,11,11,13,13,14,14,17,17,18,18,19,19,20,20],"right_children":[2,4,6,8,10,-1,12,14,16,18,20,22,-1,24,26,-1,-1,28,30,32,34,-1,-1,-1,-1,-1,-1,-1,-1,-1,-1,-1,-1,-1,-1],"split_conditions":[1.0172399E-1,-1.1753436E0,-5.875727E-1,2.033244E0,-5.4223853E-1,5.6824017E-2,-1.634723E0,-4.2832363E-2,-1.2312725E0,-2.6496306E-1,-4.7733516E-1,9.1981894E-1,-6.7800924E-2,1.8045739E0,-1.3790759E0,-2.6839856E-2,6.1932724E-2,-4.309784E-1,-7.419083E-1,-5.290241E-1,9.1000825E-1,1.0018921E-2,-4.0712178E-2,-6.538098E-2,-1.4417464E-2,4.9077615E-2,-7.3560597E-3,-6.89667E-2,5.5142183E-2,3.5539843E-2,-7.9401456E-2,1.2818852E-2,-6.1983835E-2,6.2074512E-2,2.8862163E-2],"split_indices":[19,18,1,42,26,0,25,36,36,33,32,13,0,42,19,0,0,15,34,3,15,0,0,0,0,0,0,0,0,0,0,0,0,0,0],"split_type":[0,0,0,0,0,0,0,0,0,0,0,0,0,0,0,0,0,0,0,0,0,0,0,0,0,0,0,0,0,0,0,0,0,0,0],"sum_hessian":[1.139488E3,7.36625E2,4.02863E2,1.2085337E2,6.157716E2,5.2100153E0,3.9765298E2,1.0745057E2,1.3402808E1,7.1342674E1,5.4442896E2,2.4558778E0,3.951971E2,1.0492441E2,2.526155E0,1.9895335E0,1.1413275E1,5.2992203E1,1.8350468E1,4.809158E0,5.3961975E2,1.0439572E0,1.4119204E0,1.0094835E2,3.97606E0,1.3946142E0,1.1315407E0,5.7645173E0,4.7227688E1,1.1311485E0,1.7219318E1,1.1571591E0,3.6519988E0,4.8929022E2,5.0329556E1],"tree_param":{"num_deleted":"0","num_feature":"43","num_nodes":"35","size_leaf_vector":"1"}},{"base_weights":[8.109993E-3,7.1740377E-1,-1.2918966E0,-9.5199615E-1,1.0396489E0,5.57499E-2,-1.3267138E0,-1.2166107E0,7.610438E-1,-8.424974E-1,1.1021627E0,-3.7688878E-1,-6.659502E-2,5.38441E-1,-1.2614338E0,-5.2664906E-2,1.1317707E0,-6.9503985E-2,5.4923933E-2,1.1468204E0,-9.059927E-1,-4.057461E-2,1.5639264E-2,4.4690937E-2,-4.1454113E-3,-6.458476E-2,-2.548454E-3,-9.216737E-3,6.266874E-2,-5.6351442E-2,5.8680978E-2,-6.45056E-2,5.4048236E-2],"categories":[],"categories_nodes":[],"categories_segments":[],"categories_sizes":[],"default_left":[0,0,0,0,0,0,0,0,0,0,0,0,0,0,0,0,0,0,0,0,0,0,0,0,0,0,0,0,0,0,0,0,0],"id":15,"left_children":[1,3,5,7,9,-1,11,13,15,17,19,21,-1,23,25,-1,27,-1,-1,29,31,-1,-1,-1,-1,-1,-1,-1,-1,-1,-1,-1,-1],"loss_changes":[1.01196155E3,3.829651E2,3.394507E1,5.323929E1,7.10119E1,0E0,1.3815308E0,8.573456E0,1.1992352E1,2.248043E1,5.2777588E1,1.2942475E0,0E0,7.806905E-1,3.5294495E0,0E0,2.4419918E0,0E0,0E0,3.574115E1,1.1399997E1,0E0,0E0,0E0,0E0,0E0,0E0,0E0,0E0,0E0,0E0,0E0,0E0],"parents":[2147483647,0,0,1,1,2,2,3,3,4,4,6,6,7,7,8,8,9,9,10,10,11,11,13,13,14,14,16,16,19,19,20,20],"right_children":[2,4,6,8,10,-1,12,14,16,18,20,22,-1,24,26,-1,28,-1,-1,30,32,-1,-1,-1,-1,-1,-1,-1,-1,-1,-1,-1,-1],"split_conditions":[1.0172399E-1,-1.1753436E0,-5.875727E-1,1.8698621E0,-1.2671177E0,5.57499E-2,-1.634723E0,1.2298864E0,-1.3060068E0,-1.5687395E-2,2.1783583E0,-1.4112681E-1,-6.659502E-2,1.232822E0,-3.4761283E-1,-5.2664906E-2,-4.0943236E0,-6.9503985E-2,5.4923933E-2,-4.4723168E-1,1.6501138E-1,-4.057461E-2,1.5639264E-2,4.4690937E-2,-4.1454113E-3,-6.458476E-2,-2.548454E-3,-9.216737E-3,6.266874E-2,-5.6351442E-2,5.8680978E-2,-6.45056E-2,5.4048236E-2],"split_indices":[19,18,1,42,38,0,25,15,36,42,16,26,0,1,16,0,5,0,0,13,1,0,0,0,0,0,0,0,0,0,0,0,0],"split_type":[0,0,0,0,0,0,0,0,0,0,0,0,0,0,0,0,0,0,0,0,0,0,0,0,0,0,0,0,0,0,0,0,0],"sum_hessian":[1.095464E3,7.0904926E2,3.8641467E2,1.144069E2,5.9464233E2,5.067626E0,3.8134705E2,9.935002E1,1.5056873E1,1.8714516E1,5.7592786E2,2.4711516E0,3.7887592E2,2.199917E0,9.715011E1,2.2422256E0,1.2814648E1,1.4817946E1,3.8965695E0,5.638185E2,1.2109355E1,1.4075449E0,1.0636067E0,1.1205251E0,1.0793918E0,9.471514E1,2.4349627E0,1.040254E0,1.1774393E1,6.0894213E0,5.5772906E2,1.0441509E1,1.6678455E0],"tree_param":{"num_deleted":"0","num_feature":"43","num_nodes":"33","size_leaf_vector":"1"}},{"base_weights":[-8.345402E-3,6.909871E-1,-1.2845159E0,-8.3829266E-1,1.0464835E0,5.0819088E-2,-6.538431E-2,-1.016048E0,8.3144253E-1,-6.5484315E-1,1.0957091E0,5.638316E-2,-1.1137758E0,-4.3101843E-2,1.1227293E0,-6.829498E-2,5.4384053E-2,3.762449E-1,1.2101824E0,-6.0759157E-2,1.7938346E-2,4.757926E-4,6.34967E-2,5.0622113E-2,-9.594918E-2,6.1847698E-2,-6.4918675E-2],"categories":[],"categories_nodes":[],"categories_segments":[],"categories_sizes":[],"default_left":[0,0,0,0,0,0,0,0,0,0,0,0,0,0,0,0,0,0,0,0,0,0,0,0,0,0,0],"id":16,"left_children":[1,3,5,7,9,-1,-1,11,13,15,17,-1,19,-1,21,-1,-1,23,25,-1,-1,-1,-1,-1,-1,-1,-1],"loss_changes":[9.491332E2,3.743791E2,2.1400085E1,3.9470177E1,4.7439636E1,0E0,0E0,2.5990974E1,7.4156427E0,2.169879E1,4.423047E1,0E0,1.7372879E1,0E0,1.886693E0,0E0,0E0,1.12815834E2,3.30119E1,0E0,0E0,0E0,0E0,0E0,0E0,0E0,0E0],"parents":[2147483647,0,0,1,1,2,2,3,3,4,4,7,7,8,8,9,9,10,10,12,12,14,14,17,17,18,18],"right_children":[2,4,6,8,10,-1,-1,12,14,16,18,-1,20,-1,22,-1,-1,24,26,-1,-1,-1,-1,-1,-1,-1,-1],"split_conditions":[1.2914489E-1,-1.0605456E0,-6.027353E-1,-3.5814273E-1,-1.2554533E0,5.0819088E-2,-6.538431E-2,-4.743132E-1,-6.551902E-1,-1.9569732E-1,-3.9346156E-1,5.638316E-2,2.0612862E0,-4.3101843E-2,1.2078819E-1,-6.829498E-2,5.4384053E-2,-4.9786383E-1,3.1650906E0,-6.0759157E-2,1.7938346E-2,4.757926E-4,6.34967E-2,5.0622113E-2,-9.594918E-2,6.1847698E-2,-6.4918675E-2],"split_indices":[19,18,1,16,38,0,0,21,26,28,32,0,28,0,25,0,0,11,16,0,0,0,0,0,0,0,0],"split_type":[0,0,0,0,0,0,0,0,0,0,0,0,0,0,0,0,0,0,0,0,0,0,0,0,0,0,0],"sum_hessian":[1.0614987E3,6.86022E2,3.754767E2,1.2913762E2,5.5688434E2,3.3160534E0,3.7216068E2,1.1706654E2,1.207108E1,1.531363E1,5.415707E2,4.644668E0,1.12421875E2,1.4840018E0,1.0587079E1,1.1029185E1,4.284445E0,7.492905E1,4.6664166E2,1.0534221E2,7.0796638E0,1.3608091E0,9.22627E0,5.910505E1,1.58239975E1,4.6221576E2,4.4259048E0],"tree_param":{"num_deleted":"0","num_feature":"43","num_nodes":"27","size_leaf_vector":"1"}},{"base_weights":[-8.328778E-3,6.85404E-1,-1.237826E0,9.8358345E-1,-9.536234E-1,5.667118E-2,-1.2859695E0,-7.780294E-1,1.0592544E0,-1.0966078E0,7.487452E-1,-6.468349E-2,1.3635588E-2,-6.689527E-2,5.7355173E-2,1.0985944E0,-8.782632E-1,-1.1497571E0,4.3120697E-1,-4.0718183E-2,5.639282E-2,-4.4265766E-2,5.6720432E-2,-6.2087625E-2,4.8385315E-2,4.1572656E-2,-5.9364717E-2,-2.591977E-2,4.8484813E-2],"categories":[],"categories_nodes":[],"categories_segments":[],"categories_sizes":[],"default_left":[0,0,0,0,0,0,0,0,0,0,0,0,0,0,0,0,0,0,0,0,0,0,0,0,0,0,0,0,0],"id":17,"left_children":[1,3,5,7,9,-1,11,13,15,17,19,-1,-1,-1,-1,21,23,25,27,-1,-1,-1,-1,-1,-1,-1,-1,-1,-1],"loss_changes":[8.735527E2,3.2092667E2,4.3631287E1,7.473474E1,2.5475655E1,0E0,4.7041016E0,2.6769558E1,4.151825E1,8.116196E0,5.9213557E0,0E0,0E0,0E0,0E0,3.8086426E1,8.678856E0,7.7520065E0,2.4878287E0,0E0,0E0,0E0,0E0,0E0,0E0,0E0,0E0,0E0,0E0],"parents":[2147483647,0,0,1,1,2,2,3,3,4,4,6,6,7,7,8,8,9,9,10,10,15,15,16,16,17,17,18,18],"right_children":[2,4,6,8,10,-1,12,14,16,18,20,-1,-1,-1,-1,22,24,26,28,-1,-1,-1,-1,-1,-1,-1,-1,-1,-1],"split_conditions":[8.846691E-2,1.3856639E0,-5.859066E-1,-1.2671177E0,2.618482E0,5.667118E-2,8.760898E-1,-1.380307E-1,2.1783583E0,1.9983901E0,-4.9323586E-1,-6.468349E-2,1.3635588E-2,-6.689527E-2,5.7355173E-2,-4.7355577E-1,1.6501138E-1,-3.5044265E-1,-1.0736696E0,-4.0718183E-2,5.639282E-2,-4.4265766E-2,5.6720432E-2,-6.2087625E-2,4.8385315E-2,4.1572656E-2,-5.9364717E-2,-2.591977E-2,4.8484813E-2],"split_indices":[19,15,2,38,10,0,28,28,16,29,26,0,0,0,0,32,1,13,36,0,0,0,0,0,0,0,0,0,0],"split_type":[0,0,0,0,0,0,0,0,0,0,0,0,0,0,0,0,0,0,0,0,0,0,0,0,0,0,0,0,0],"sum_hessian":[1.02216895E3,6.537429E2,3.6842606E2,5.534556E2,1.002873E2,6.8827357E0,3.615433E2,2.2412512E1,5.310431E2,9.284495E1,7.442351E0,3.5993518E2,1.6081309E0,1.7599249E1,4.813263E0,5.2089954E2,1.01435375E1,8.99628E1,2.8821547E0,1.2286074E0,6.2137437E0,8.816114E0,5.1208344E2,8.748241E0,1.3952967E0,1.2795255E0,8.868327E1,1.056456E0,1.8256987E0],"tree_param":{"num_deleted":"0","num_feature":"43","num_nodes":"29","size_leaf_vector":"1"}},{"base_weights":[-6.947467E-4,6.8331957E-1,-1.2377806E0,-7.612447E-1,1.0302632E0,5.1895965E-2,-1.2674363E0,-9.3380916E-1,7.493036E-1,1.1059949E-1,1.1065435E0,-6.359758E-2,6.2281373E-3,5.6622185E-2,-1.0586814E0,-4.5493465E-2,1.0897968E0,7.090232E-1,-1.3709388E0,-8.845674E-1,1.1300293E0,-5.9452295E-2,2.8163284E-2,4.457756E-4,6.1391037E-2,5.2326437E-2,-6.639968E-2,-7.229653E-2,-1.9115282E-2,1.4860827E-2,-5.9845842E-2,5.764106E-2,-1.8992906E-2],"categories":[],"categories_nodes":[],"categories_segments":[],"categories_sizes":[],"default_left":[0,0,0,0,0,0,0,0,0,0,0,0,0,0,0,0,0,0,0,0,0,0,0,0,0,0,0,0,0,0,0,0,0],"id":18,"left_children":[1,3,5,7,9,-1,11,13,15,17,19,-1,-1,-1,21,-1,23,25,27,29,31,-1,-1,-1,-1,-1,-1,-1,-1,-1,-1,-1,-1],"loss_changes":[8.504035E2,3.2512842E2,2.5464355E1,3.351866E1,3.6514893E1,0E0,2.3814087E0,3.0468521E1,8.597513E0,3.7420517E1,2.354602E1,0E0,0E0,0E0,2.3398392E1,0E0,1.7234888E0,2.1975117E1,3.494091E-1,2.6375766E0,1.6851624E1,0E0,0E0,0E0,0E0,0E0,0E0,0E0,0E0,0E0,0E0,0E0,0E0],"parents":[2147483647,0,0,1,1,2,2,3,3,4,4,6,6,7,7,8,8,9,9,10,10,14,14,16,16,17,17,18,18,19,19,20,20],"right_children":[2,4,6,8,10,-1,12,14,16,18,20,-1,-1,-1,22,-1,24,26,28,30,32,-1,-1,-1,-1,-1,-1,-1,-1,-1,-1,-1,-1],"split_conditions":[1.0172399E-1,-1.0477802E0,-5.875727E-1,-3.5814273E-1,-5.683276E-1,5.1895965E-2,8.760898E-1,-4.8069152E-1,-6.0109156E-1,-3.485561E-1,-4.7733516E-1,-6.359758E-2,6.2281373E-3,5.6622185E-2,2.0612862E0,-4.5493465E-2,1.2078819E-1,-2.2983968E-1,-2.569533E-1,-4.9779978E-1,2.1783583E0,-5.9452295E-2,2.8163284E-2,4.457756E-4,6.1391037E-2,5.2326437E-2,-6.639968E-2,-7.229653E-2,-1.9115282E-2,1.4860827E-2,-5.9845842E-2,5.764106E-2,-1.8992906E-2],"split_indices":[19,18,1,16,26,0,28,22,28,32,32,0,0,0,28,0,25,18,39,1,16,0,0,0,0,0,0,0,0,0,0,0,0],"split_type":[0,0,0,0,0,0,0,0,0,0,0,0,0,0,0,0,0,0,0,0,0,0,0,0,0,0,0,0,0,0,0,0,0],"sum_hessian":[1.0029864E3,6.461579E2,3.568285E2,1.2490377E2,5.2125415E2,4.152814E0,3.526757E2,1.1244043E2,1.2463342E1,4.011099E1,4.8114316E2,3.5162137E2,1.0543306E0,5.948137E0,1.0649229E2,1.8374605E0,1.0625881E1,2.8942104E1,1.1168882E1,5.1816587E0,4.759615E2,9.881676E1,7.6755304E0,1.3237824E0,9.302099E0,2.5245516E1,3.696589E0,9.951467E0,1.2174153E0,1.0933571E0,4.0883017E0,4.6911664E2,6.844854E0],"tree_param":{"num_deleted":"0","num_feature":"43","num_nodes":"33","size_leaf_vector":"1"}},{"base_weights":[7.1724784E-3,6.7342144E-1,-1.2138335E0,-7.7548414E-1,9.990076E-1,5.2137442E-2,-1.2474574E0,-1.051854E0,8.4479374E-1,4.8390442E-1,1.1425648E0,-6.27343E-2,1.7159179E-2,5.4410733E-2,-1.1660094E0,-8.47671E-1,6.1536964E-2,-1.4438286E0,8.5232735E-1,-1.3168985E-1,1.1786529E0,-6.2274415E-2,1.2492786E-2,-5.0959975E-2,-1.0455481E-2,-1.0196924E-1,3.8332928E-2,5.9503436E-2,-4.3356817E-2,4.959528E-2,-1.0685488E-1,5.9907883E-2,5.323703E-3],"categories":[],"categories_nodes":[],"categories_segments":[],"categories_sizes":[],"default_left":[0,0,0,0,0,0,0,0,0,0,0,0,0,0,0,0,0,0,0,0,0,0,0,0,0,0,0,0,0,0,0,0,0],"id":19,"left_children":[1,3,5,7,9,-1,11,13,15,17,19,-1,-1,-1,21,23,-1,25,27,29,31,-1,-1,-1,-1,-1,-1,-1,-1,-1,-1,-1,-1],"loss_changes":[7.830737E2,2.945645E2,2.7085144E1,5.230921E1,3.708188E1,0E0,4.2858276E0,2.5343033E1,1.2335179E1,8.1244606E1,1.8424438E1,0E0,0E0,0E0,1.0893181E1,2.0334053E-1,0E0,2.5849525E1,5.6325302E1,2.880087E1,7.9539185E0,0E0,0E0,0E0,0E0,0E0,0E0,0E0,0E0,0E0,0E0,0E0,0E0],"parents":[2147483647,0,0,1,1,2,2,3,3,4,4,6,6,7,7,8,8,9,9,10,10,14,14,15,15,17,17,18,18,19,19,20,20],"right_children":[2,4,6,8,10,-1,12,14,16,18,20,-1,-1,-1,22,24,-1,26,28,30,32,-1,-1,-1,-1,-1,-1,-1,-1,-1,-1,-1,-1],"split_conditions":[1.0172399E-1,-1.0605456E0,-5.875727E-1,1.8698621E0,-5.530539E-1,5.2137442E-2,8.760898E-1,-5.9456635E-1,-1.2312725E0,-6.284583E-1,-4.2792484E-1,-6.27343E-2,1.7159179E-2,5.4410733E-2,-3.5814273E-1,-8.3807105E-1,6.1536964E-2,-6.3872164E-1,1.8838065E-2,-5.238108E-1,2.5564498E-1,-6.2274415E-2,1.2492786E-2,-5.0959975E-2,-1.0455481E-2,-1.0196924E-1,3.8332928E-2,5.9503436E-2,-4.3356817E-2,4.959528E-2,-1.0685488E-1,5.9907883E-2,5.323703E-3],"split_indices":[19,18,1,42,42,0,28,31,36,39,21,0,0,0,16,16,0,16,18,1,33,0,0,0,0,0,0,0,0,0,0,0,0],"split_type":[0,0,0,0,0,0,0,0,0,0,0,0,0,0,0,0,0,0,0,0,0,0,0,0,0,0,0,0,0,0,0,0,0],"sum_hessian":[9.606007E2,6.2177435E2,3.3882632E2,1.1383045E2,5.079439E2,4.5338864E0,3.3429245E2,9.754336E1,1.6287096E1,1.1166069E2,3.9628323E2,3.329904E2,1.3020599E0,4.5075536E0,9.3035805E1,2.802241E0,1.3484855E1,1.7447838E1,9.421285E1,1.0841061E1,3.8544217E2,8.82048E1,4.8309975E0,1.7390227E0,1.0632184E0,1.3805675E1,3.6421626E0,7.90028E1,1.5210047E1,7.272044E0,3.5690167E0,3.784402E2,7.001977E0],"tree_param":{"num_deleted":"0","num_feature":"43","num_nodes":"33","size_leaf_vector":"1"}},{"base_weights":[-9.25388E-3,6.311187E-1,-1.2033833E0,-8.210024E-1,9.407863E-1,4.93971E-2,-1.2310617E0,-1.0685973E0,9.34614E-1,-6.44181E-1,9.9937576E-1,-6.1923344E-2,1.6684456E-2,4.731573E-2,-1.128248E0,-1.4202476E-2,5.804487E-2,-6.5513305E-2,5.2542496E-2,3.0262703E-1,1.1223817E0,-5.8086913E-2,1.9371822E-2,4.7964565E-2,-1.0460575E-1,5.7815313E-2,-6.402676E-2],"categories":[],"categories_nodes":[],"categories_segments":[],"categories_sizes":[],"default_left":[0,0,0,0,0,0,0,0,0,0,0,0,0,0,0,0,0,0,0,0,0,0,0,0,0,0,0],"id":20,"left_children":[1,3,5,7,9,-1,11,13,15,17,19,-1,-1,-1,21,-1,-1,-1,-1,23,25,-1,-1,-1,-1,-1,-1],"loss_changes":[7.1151886E2,2.7313086E2,2.0915955E1,4.750683E1,4.7045746E1,0E0,4.13501E0,1.2393951E1,4.1236277E0,2.2174633E1,4.09924E1,0E0,0E0,0E0,5.1191635E0,0E0,0E0,0E0,0E0,1.1795663E2,3.4864807E1,0E0,0E0,0E0,0E0,0E0,0E0],"parents":[2147483647,0,0,1,1,2,2,3,3,4,4,6,6,7,7,8,8,9,9,10,10,14,14,19,19,20,20],"right_children":[2,4,6,8,10,-1,12,14,16,18,20,-1,-1,-1,22,-1,-1,-1,-1,24,26,-1,-1,-1,-1,-1,-1],"split_conditions":[1.0172399E-1,-1.1079499E0,-5.875727E-1,2.1376579E0,-1.2312928E0,4.93971E-2,7.4839485E-1,-3.65976E-1,-1.2312725E0,-2.5417086E-1,-3.9346156E-1,-6.1923344E-2,1.6684456E-2,4.731573E-2,2.6913503E-1,-1.4202476E-2,5.804487E-2,-6.5513305E-2,5.2542496E-2,-5.0030315E-1,3.1650906E0,-5.8086913E-2,1.9371822E-2,4.7964565E-2,-1.0460575E-1,5.7815313E-2,-6.402676E-2],"split_indices":[19,18,1,42,38,0,28,33,36,28,32,0,0,0,36,0,0,0,0,11,16,0,0,0,0,0,0],"split_type":[0,0,0,0,0,0,0,0,0,0,0,0,0,0,0,0,0,0,0,0,0,0,0,0,0,0,0],"sum_hessian":[9.2847656E2,6.0467865E2,3.237979E2,1.05993454E2,4.986852E2,3.6060963E0,3.2019183E2,9.3235725E1,1.2757725E1,1.7420815E1,4.8126437E2,3.1889117E2,1.3006407E0,2.253445E0,9.0982285E1,1.9579229E0,1.0799801E1,1.2669257E1,4.751558E0,7.273394E1,4.0853046E2,8.92439E1,1.7383888E0,5.755198E1,1.5181959E1,4.0335464E2,5.1758127E0],"tree_param":{"num_deleted":"0","num_feature":"43","num_nodes":"27","size_leaf_vector":"1"}},{"base_weights":[1.5798782E-3,6.4206135E-1,-1.1874738E0,-7.048084E-1,9.604693E-1,4.972162E-2,-1.2184708E0,5.546798E-2,-8.242361E-1,-6.6204613E-1,1.0072742E0,-6.12135E-2,1.0955746E-2,-1.0631686E0,3.6033618E-1,-6.1571416E-2,4.8445925E-2,2.8599867E-1,1.1216965E0,-5.8540802E-2,4.012956E-2,-5.6053687E-2,4.458902E-2,4.8524115E-2,-9.53482E-2,5.7773706E-2,-6.2473495E-2],"categories":[],"categories_nodes":[],"categories_segments":[],"categories_sizes":[],"default_left":[0,0,0,0,0,0,0,0,0,0,0,0,0,0,0,0,0,0,0,0,0,0,0,0,0,0,0],"id":21,"left_children":[1,3,5,7,9,-1,11,-1,13,15,17,-1,-1,19,21,-1,-1,23,25,-1,-1,-1,-1,-1,-1,-1,-1],"loss_changes":[6.8339233E2,2.5078697E2,2.2457947E1,2.5199566E1,3.6520264E1,0E0,2.8542786E0,0E0,3.031063E1,1.4046284E1,3.7583313E1,0E0,0E0,1.8662933E1,1.5560547E1,0E0,0E0,9.8256256E1,3.3164307E1,0E0,0E0,0E0,0E0,0E0,0E0,0E0,0E0],"parents":[2147483647,0,0,1,1,2,2,3,3,4,4,6,6,8,8,9,9,10,10,13,13,14,14,17,17,18,18],"right_children":[2,4,6,8,10,-1,12,-1,14,16,18,-1,-1,20,22,-1,-1,24,26,-1,-1,-1,-1,-1,-1,-1,-1],"split_conditions":[1.0172399E-1,-1.0477802E0,-5.875727E-1,-5.8567864E-1,-1.2671177E0,4.972162E-2,8.760898E-1,5.546798E-2,-5.4975486E-1,-1.9569732E-1,-3.9346156E-1,-6.12135E-2,1.0955746E-2,1.9646435E0,-6.0109156E-1,-6.1571416E-2,4.8445925E-2,-4.9608862E-1,3.1650906E0,-5.8540802E-2,4.012956E-2,-5.6053687E-2,4.458902E-2,4.8524115E-2,-9.53482E-2,5.7773706E-2,-6.2473495E-2],"split_indices":[19,18,1,31,38,0,28,0,16,28,32,0,0,29,28,0,0,11,16,0,0,0,0,0,0,0,0],"split_type":[0,0,0,0,0,0,0,0,0,0,0,0,0,0,0,0,0,0,0,0,0,0,0,0,0,0,0],"sum_hessian":[8.9534924E2,5.8220544E2,3.131438E2,1.11088036E2,4.711174E2,3.9509473E0,3.0919287E2,6.3493366E0,1.047387E2,1.2840777E1,4.5827664E2,3.080984E2,1.0944835E0,8.72438E1,1.7494905E1,9.699558E0,3.1412199E0,6.322556E1,3.9505106E2,8.283689E1,4.4069076E0,4.326164E0,1.3168742E1,4.8610386E1,1.4615173E1,3.9000806E2,5.043019E0],"tree_param":{"num_deleted":"0","num_feature":"43","num_nodes":"27","size_leaf_vector":"1"}},{"base_weights":[-8.7889945E-3,4.0539888E-1,-1.0300429E0,-1.0908998E0,6.4008546E-1,3.7815702E-1,-1.1870366E0,-1.1677264E0,7.356523E-1,-1.4855614E-1,9.436411E-1,5.671267E-2,-5.478793E-2,-1.2057347E0,3.8487993E-2,2.3703264E-2,-1.1958337E0,4.291946E-2,9.337815E-3,1.1436809E0,-5.7216585E-1,1.0087426E0,-8.8449854E-1,-6.0444254E-2,-2.1607047E-2,-6.0509432E-2,-1.657259E-2,6.0206514E-2,-2.271254E-2,-6.1672192E-2,8.544693E-3,-2.1530709E-3,5.3701695E-2,-5.959515E-2,3.186179E-2],"categories":[],"categories_nodes":[],"categories_segments":[],"categories_sizes":[],"default_left":[0,0,0,0,0,0,0,0,0,0,0,0,0,0,0,0,0,0,0,0,0,0,0,0,0,0,0,0,0,0,0,0,0,0,0],"id":22,"left_children":[1,3,5,7,9,11,13,15,17,19,21,-1,-1,23,-1,-1,25,-1,-1,27,29,31,33,-1,-1,-1,-1,-1,-1,-1,-1,-1,-1,-1,-1],"loss_changes":[3.6553793E2,2.1660527E2,5.5574768E1,1.2608582E1,1.2752507E2,2.9960348E1,9.145111E0,4.2925873E0,1.0870409E-1,8.20826E1,4.663611E1,0E0,0E0,2.0721436E-2,0E0,0E0,5.873337E-1,0E0,0E0,4.1265335E0,5.5585907E1,2.5565704E1,7.1912985E0,0E0,0E0,0E0,0E0,0E0,0E0,0E0,0E0,0E0,0E0,0E0,0E0],"parents":[2147483647,0,0,1,1,2,2,3,3,4,4,5,5,6,6,7,7,8,8,9,9,10,10,13,13,16,16,19,19,20,20,21,21,22,22],"right_children":[2,4,6,8,10,12,14,16,18,20,22,-1,-1,24,-1,-1,26,-1,-1,28,30,32,34,-1,-1,-1,-1,-1,-1,-1,-1,-1,-1,-1,-1],"split_conditions":[7.007258E-1,-1.0971043E0,-2.0013332E-1,2.4000874E0,-2.9242122E-1,-4.53207E-1,2.3602107E0,-2.8584534E-1,-1.0636237E0,-5.351234E-1,2.6284165E0,5.671267E-2,-5.478793E-2,1.1897686E0,3.8487993E-2,2.3703264E-2,5.1802015E0,4.291946E-2,9.337815E-3,-6.063991E-1,-4.530331E-1,-3.9346156E-1,2.079696E0,-6.0444254E-2,-2.1607047E-2,-6.0509432E-2,-1.657259E-2,6.0206514E-2,-2.271254E-2,-6.1672192E-2,8.544693E-3,-2.1530709E-3,5.3701695E-2,-5.959515E-2,3.186179E-2],"split_indices":[39,36,17,42,14,1,17,23,39,40,31,0,0,3,0,0,8,0,0,4,31,32,8,0,0,0,0,0,0,0,0,0,0,0,0],"split_type":[0,0,0,0,0,0,0,0,0,0,0,0,0,0,0,0,0,0,0,0,0,0,0,0,0,0,0,0,0,0,0,0,0,0,0],"sum_hessian":[8.621871E2,6.1383734E2,2.4834973E2,8.272929E1,5.311081E2,2.4768944E1,2.2358078E2,7.97362E1,2.9930918E0,1.477534E2,3.8335468E2,1.6523228E1,8.245716E0,2.2184479E2,1.7360001E0,1.0750426E0,7.8661156E1,1.9853152E0,1.0077765E0,3.6057823E1,1.1169559E2,3.7060532E2,1.2749341E1,2.203846E2,1.460192E0,7.698263E1,1.6785222E0,3.498095E1,1.0768754E0,5.87509E1,5.2944683E1,2.1680801E1,3.4892453E2,1.0787011E1,1.9623299E0],"tree_param":{"num_deleted":"0","num_feature":"43","num_nodes":"35","size_leaf_vector":"1"}},{"base_weights":[1.0182792E-3,6.198073E-1,-1.1558812E0,-7.41466E-1,9.099514E-1,4.954051E-2,-1.1909415E0,-9.4089425E-1,5.23215E-1,-1.0800735E0,9.543039E-1,-5.99443E-2,2.5696902E-2,-1.0972321E0,-7.570776E-2,-5.2379947E-2,5.674612E-2,-5.846346E-2,-6.2687728E-3,9.978941E-1,-7.935201E-1,-5.745682E-2,1.7210228E-2,4.965071E-2,-2.266789E-2,2.3733951E-2,5.4780204E-2,-5.4805126E-2,4.348586E-2],"categories":[],"categories_nodes":[],"categories_segments":[],"categories_sizes":[],"default_left":[0,0,0,0,0,0,0,0,0,0,0,0,0,0,0,0,0,0,0,0,0,0,0,0,0,0,0,0,0],"id":23,"left_children":[1,3,5,7,9,-1,11,13,15,17,19,-1,-1,21,23,-1,-1,-1,-1,25,27,-1,-1,-1,-1,-1,-1,-1,-1],"loss_changes":[6.068213E2,2.1880179E2,2.3412292E1,2.5103584E1,4.1250946E1,0E0,4.55896E0,1.1366402E1,1.4578131E1,7.3933697E-1,3.4793304E1,0E0,0E0,5.7537766E0,6.1122575E0,0E0,0E0,0E0,0E0,2.176294E1,6.6987877E0,0E0,0E0,0E0,0E0,0E0,0E0,0E0,0E0],"parents":[2147483647,0,0,1,1,2,2,3,3,4,4,6,6,7,7,8,8,9,9,10,10,13,13,14,14,19,19,20,20],"right_children":[2,4,6,8,10,-1,12,14,16,18,20,-1,-1,22,24,-1,-1,-1,-1,26,28,-1,-1,-1,-1,-1,-1,-1,-1],"split_conditions":[1.0172399E-1,-1.1079499E0,-5.859066E-1,2.1990438E0,-1.3321638E0,4.954051E-2,8.760898E-1,-9.223567E-1,3.3409914E-1,-7.422737E-1,2.1783583E0,-5.99443E-2,2.5696902E-2,1.9983901E0,-1.5548584E-1,-5.2379947E-2,5.674612E-2,-5.846346E-2,-6.2687728E-3,-4.2136526E-1,2.1736348E-2,-5.745682E-2,1.7210228E-2,4.965071E-2,-2.266789E-2,2.3733951E-2,5.4780204E-2,-5.4805126E-2,4.348586E-2],"split_indices":[19,18,2,10,38,0,28,38,28,17,16,0,0,29,33,0,0,0,0,21,2,0,0,0,0,0,0,0,0],"split_type":[0,0,0,0,0,0,0,0,0,0,0,0,0,0,0,0,0,0,0,0,0,0,0,0,0,0,0,0,0],"sum_hessian":[8.45661E2,5.512689E2,2.943921E2,9.658133E1,4.5468756E2,4.292749E0,2.9009933E2,8.364701E1,1.2934319E1,9.403778E0,4.4528378E2,2.8904916E2,1.0501517E0,7.06182E1,1.3028809E1,3.4254541E0,9.508864E0,8.39472E0,1.0090572E0,4.348674E2,1.0416399E1,6.835945E1,2.2587497E0,2.9763892E0,1.005242E1,6.935342E1,3.6551398E2,9.101587E0,1.3148124E0],"tree_param":{"num_deleted":"0","num_feature":"43","num_nodes":"29","size_leaf_vector":"1"}},{"base_weights":[-9.456008E-3,6.0368156E-1,-1.144795E0,8.668727E-1,-8.317687E-1,4.844108E-2,-1.1783618E0,-7.848942E-1,9.376714E-1,-1.054633E0,6.6595465E-1,-5.932113E-2,2.5096042E-2,-6.0867764E-2,4.8059553E-2,3.0259186E-1,1.046601E0,3.6555976E-2,-1.0936195E0,-2.4484862E-2,9.431697E-1,5.7707768E-2,-4.628516E-2,5.503368E-2,-2.6271129E-2,-5.582407E-2,-4.501114E-3,-2.0799797E-2,5.786255E-2],"categories":[],"categories_nodes":[],"categories_segments":[],"categories_sizes":[],"default_left":[0,0,0,0,0,0,0,0,0,0,0,0,0,0,0,0,0,0,0,0,0,0,0,0,0,0,0,0,0],"id":24,"left_children":[1,3,5,7,9,-1,11,13,15,17,19,-1,-1,-1,-1,21,23,-1,25,-1,27,-1,-1,-1,-1,-1,-1,-1,-1],"loss_changes":[5.6631055E2,2.002953E2,2.1381134E1,5.2997467E1,2.8193066E1,0E0,4.4050903E0,1.5450936E1,2.9360077E1,5.8177032E0,4.07584E0,0E0,0E0,0E0,0E0,6.8234375E1,3.1670044E1,0E0,1.5271378E0,0E0,3.2282124E0,0E0,0E0,0E0,0E0,0E0,0E0,0E0,0E0],"parents":[2147483647,0,0,1,1,2,2,3,3,4,4,6,6,7,7,8,8,9,9,10,10,15,15,16,16,18,18,20,20],"right_children":[2,4,6,8,10,-1,12,14,16,18,20,-1,-1,-1,-1,22,24,-1,26,-1,28,-1,-1,-1,-1,-1,-1,-1,-1],"split_conditions":[1.0172399E-1,1.3856639E0,-5.875727E-1,-1.2671177E0,1.8698621E0,4.844108E-2,8.760898E-1,-1.9569732E-1,-4.2792484E-1,-3.5044265E-1,1.7047064E0,-5.932113E-2,2.5096042E-2,-6.0867764E-2,4.8059553E-2,-5.239576E-1,9.1000825E-1,3.6555976E-2,1.5788417E0,-2.4484862E-2,-2.3991962E-1,5.7707768E-2,-4.628516E-2,5.503368E-2,-2.6271129E-2,-5.582407E-2,-4.501114E-3,-2.0799797E-2,5.786255E-2],"split_indices":[19,15,1,38,42,0,28,28,21,13,8,0,0,0,0,40,15,0,0,0,34,0,0,0,0,0,0,0,0],"split_type":[0,0,0,0,0,0,0,0,0,0,0,0,0,0,0,0,0,0,0,0,0,0,0,0,0,0,0,0,0],"sum_hessian":[8.1153265E2,5.272569E2,2.8427576E2,4.458973E2,8.135959E1,4.0084934E0,2.8026727E2,1.7912151E1,4.2798517E2,7.1078766E1,1.0280824E1,2.7922168E2,1.0455885E0,1.4599127E1,3.3130238E0,6.321397E1,3.6477118E2,1.1393301E0,6.993944E1,1.8407273E0,8.440096E0,3.7367706E1,2.5846266E1,3.5293134E2,1.1839853E1,6.8271736E1,1.6677039E0,1.0201522E0,7.419944E0],"tree_param":{"num_deleted":"0","num_feature":"43","num_nodes":"29","size_leaf_vector":"1"}},{"base_weights":[-5.3474847E-3,-3.9372233E-1,9.2011267E-1,5.913023E-1,-7.947959E-1,-9.442231E-1,1.047658E0,-1.6915002E0,9.5149386E-1,-1.2164776E0,-3.7931478E-1,4.4806782E-2,-6.879773E-2,1.1045084E0,-6.1433833E-2,-8.401408E-1,-2.4983993E0,1.1205875E0,-1.027595E0,-1.4523382E-1,-5.892509E-2,-9.332196E-1,7.9548246E-1,1.1512624E0,-8.4949815E-1,-5.763596E-2,3.2767396E-2,-1.4261252E-1,-4.39672E-2,8.160452E-3,5.696689E-2,-5.3447243E-2,-1.5025437E-2,-5.69802E-2,-4.234109E-3,-3.0489458E-2,4.7488604E-2,5.814451E-2,-2.7085394E-2,-4.8113257E-2,-1.03765745E-2],"categories":[],"categories_nodes":[],"categories_segments":[],"categories_sizes":[],"default_left":[0,0,0,0,0,0,0,0,0,0,0,0,0,0,0,0,0,0,0,0,0,0,0,0,0,0,0,0,0,0,0,0,0,0,0,0,0,0,0,0,0],"id":25,"left_children":[1,3,5,7,9,11,13,15,17,19,21,-1,-1,23,-1,25,27,29,31,-1,-1,33,35,37,39,-1,-1,-1,-1,-1,-1,-1,-1,-1,-1,-1,-1,-1,-1,-1,-1],"loss_changes":[2.823303E2,2.1905934E2,5.62034E1,1.3372156E2,6.850189E1,1.3464461E1,2.9543488E1,1.3190468E1,4.780709E1,9.072113E0,1.3070729E2,0E0,0E0,2.0439453E1,0E0,6.522272E0,3.7480469E0,2.1283112E0,2.4388313E-2,0E0,0E0,2.3753502E1,1.457143E1,4.7338257E0,2.0232677E-1,0E0,0E0,0E0,0E0,0E0,0E0,0E0,0E0,0E0,0E0,0E0,0E0,0E0,0E0,0E0,0E0],"parents":[2147483647,0,0,1,1,2,2,3,3,4,4,5,5,6,6,7,7,8,8,9,9,10,10,13,13,15,15,16,16,17,17,18,18,21,21,22,22,23,23,24,24],"right_children":[2,4,6,8,10,12,14,16,18,20,22,-1,-1,24,-1,26,28,30,32,-1,-1,34,36,38,40,-1,-1,-1,-1,-1,-1,-1,-1,-1,-1,-1,-1,-1,-1,-1,-1],"split_conditions":[5.60589E-1,-5.2792805E-1,-3.9135516E-1,-9.106409E-1,-4.11988E-1,-5.439207E-1,3.1650906E0,-7.2414225E-1,-2.4355486E-1,-3.1434178E-1,-3.5814273E-1,4.4806782E-2,-6.879773E-2,9.7964454E-1,-6.1433833E-2,-1.062225E0,1.2298864E0,-7.25231E-1,-3.8643953E-1,-1.4523382E-1,-5.892509E-2,6.850796E-1,-7.416706E-1,3.003684E0,6.8763363E-1,-5.763596E-2,3.2767396E-2,-1.4261252E-1,-4.39672E-2,8.160452E-3,5.696689E-2,-5.3447243E-2,-1.5025437E-2,-5.69802E-2,-4.234109E-3,-3.0489458E-2,4.7488604E-2,5.814451E-2,-2.7085394E-2,-4.8113257E-2,-1.03765745E-2],"split_indices":[34,11,32,38,21,18,16,36,18,18,16,0,0,13,0,38,15,14,13,0,0,28,27,7,0,0,0,0,0,0,0,0,0,0,0,0,0,0,0,0,0],"split_type":[0,0,0,0,0,0,0,0,0,0,0,0,0,0,0,0,0,0,0,0,0,0,0,0,0,0,0,0,0,0,0,0,0,0,0,0,0,0,0,0,0],"sum_hessian":[7.834965E2,5.522966E2,2.3119997E2,1.5967218E2,3.9262436E2,1.4394323E1,2.1680563E2,2.1256674E1,1.384155E2,1.9390135E2,1.9872302E2,2.530744E0,1.186358E1,2.1202518E2,4.7804523E0,1.133661E1,9.920065E0,1.279198E2,1.0495701E1,2.6051126E0,1.9129623E2,1.3518861E2,6.353441E1,2.0747177E2,4.5534105E0,9.566316E0,1.7702936E0,7.515784E0,2.404281E0,2.6435971E0,1.2527621E2,9.486049E0,1.009652E0,1.0846447E2,2.6724142E1,5.99348E0,5.7540928E1,2.063675E2,1.104284E0,3.448686E0,1.1047246E0],"tree_param":{"num_deleted":"0","num_feature":"43","num_nodes":"41","size_leaf_vector":"1"}},{"base_weights":[-5.1633823E-3,5.8818054E-1,-1.1181383E0,-6.861435E-1,8.746349E-1,4.9325414E-2,-1.1618651E0,-9.421816E-1,9.418043E-1,-8.1042475E-1,9.290917E-1,-5.843547E-2,1.3193937E-2,-1.0490003E0,1.3092087E-1,-1.2640095E-2,5.594135E-2,-5.797692E-2,4.1144114E-2,9.7762424E-1,-1.059197E0,3.9207306E-2,-5.4960795E-2,-4.8760705E-2,5.1773544E-2,-4.8536282E-2,5.083659E-2,-6.0565718E-2,4.9076546E-3],"categories":[],"categories_nodes":[],"categories_segments":[],"categories_sizes":[],"default_left":[0,0,0,0,0,0,0,0,0,0,0,0,0,0,0,0,0,0,0,0,0,0,0,0,0,0,0,0,0],"id":26,"left_children":[1,3,5,7,9,-1,11,13,15,17,19,-1,-1,21,23,-1,-1,-1,-1,25,27,-1,-1,-1,-1,-1,-1,-1,-1],"loss_changes":[5.006835E2,1.8112494E2,2.5409058E1,3.895305E1,3.784494E1,0E0,2.833191E0,9.240288E0,3.013239E0,8.474289E0,3.8864838E1,0E0,0E0,7.520584E0,9.092651E0,0E0,0E0,0E0,0E0,3.0185333E1,1.8479176E0,0E0,0E0,0E0,0E0,0E0,0E0,0E0,0E0],"parents":[2147483647,0,0,1,1,2,2,3,3,4,4,6,6,7,7,8,8,9,9,10,10,13,13,14,14,19,19,20,20],"right_children":[2,4,6,8,10,-1,12,14,16,18,20,-1,-1,22,24,-1,-1,-1,-1,26,28,-1,-1,-1,-1,-1,-1,-1,-1],"split_conditions":[8.846691E-2,-1.1079499E0,-6.027353E-1,2.1376579E0,-1.2671177E0,4.9325414E-2,7.4839485E-1,-4.928144E-1,-1.2312725E0,-1.9569732E-1,2.1783583E0,-5.843547E-2,1.3193937E-2,-4.744433E-1,-1.3321638E0,-1.2640095E-2,5.594135E-2,-5.797692E-2,4.1144114E-2,-4.7355577E-1,-4.242553E-1,3.9207306E-2,-5.4960795E-2,-4.8760705E-2,5.1773544E-2,-4.8536282E-2,5.083659E-2,-6.0565718E-2,4.9076546E-3],"split_indices":[19,18,1,42,38,0,28,16,36,28,16,0,0,22,38,0,0,0,0,32,26,0,0,0,0,0,0,0,0],"split_type":[0,0,0,0,0,0,0,0,0,0,0,0,0,0,0,0,0,0,0,0,0,0,0,0,0,0,0,0,0],"sum_hessian":[7.561825E2,4.935402E2,2.626423E2,9.032483E1,4.0321536E2,4.9068403E0,2.5773547E2,7.8413475E1,1.1911356E1,1.2188349E1,3.91027E2,2.5668353E2,1.0519332E0,7.1335106E1,7.078369E0,1.482035E0,1.042932E1,1.0280908E1,1.907441E0,3.8220596E2,8.82104E0,1.5122993E0,6.98228E1,3.1492126E0,3.9291565E0,7.051963E0,3.75154E2,7.7551126E0,1.0659279E0],"tree_param":{"num_deleted":"0","num_feature":"43","num_nodes":"29","size_leaf_vector":"1"}},{"base_weights":[-5.1315487E-3,5.802583E-1,-1.1066341E0,9.587062E-1,-3.6809993E-1,4.91928E-2,-1.1521239E0,-7.7976996E-1,1.0559694E0,1.1295708E0,-8.798502E-1,-1.1551087E0,-1.0851591E-2,9.14574E-1,-1.5625615E0,1.0885426E0,-5.855447E-2,5.7813372E-2,6.9572837E-3,-1.2587367E0,-1.6720014E-2,-5.797946E-2,-4.1555557E-1,5.166292E-2,6.7213024E-3,2.567594E-3,-8.491225E-2,-1.38497455E-2,5.5304147E-2,-6.630867E-2,3.6921106E-2,-5.641477E-2,3.8903024E-2,1.1493805E-3,-3.2022048E-2],"categories":[],"categories_nodes":[],"categories_segments":[],"categories_sizes":[],"default_left":[0,0,0,0,0,0,0,0,0,0,0,0,0,0,0,0,0,0,0,0,0,0,0,0,0,0,0,0,0,0,0,0,0,0,0],"id":27,"left_children":[1,3,5,7,9,-1,11,13,15,17,19,21,-1,23,25,27,-1,-1,-1,29,31,-1,33,-1,-1,-1,-1,-1,-1,-1,-1,-1,-1,-1,-1],"loss_changes":[4.7751996E2,1.7391008E2,2.5572235E1,5.9315125E1,1.0726278E2,0E0,4.5257568E-1,2.6500753E1,2.507013E1,7.843628E-1,3.3958588E1,3.496399E-1,0E0,4.7260714E-1,2.9994125E0,8.062195E0,0E0,0E0,0E0,1.0702484E1,2.977601E1,0E0,3.174628E-1,0E0,0E0,0E0,0E0,0E0,0E0,0E0,0E0,0E0,0E0,0E0,0E0],"parents":[2147483647,0,0,1,1,2,2,3,3,4,4,6,6,7,7,8,8,9,9,10,10,11,11,13,13,14,14,15,15,19,19,20,20,22,22],"right_children":[2,4,6,8,10,-1,12,14,16,18,20,22,-1,24,26,28,-1,-1,-1,30,32,-1,34,-1,-1,-1,-1,-1,-1,-1,-1,-1,-1,-1,-1],"split_conditions":[8.846691E-2,9.1000825E-1,-5.859066E-1,-3.988787E-1,-4.2124242E-1,4.91928E-2,2.2133663E0,-2.2335777E-1,3.1650906E0,-3.705285E-1,1.6815126E-1,1.1719841E0,-1.0851591E-2,-4.8973882E-1,-5.3375405E-1,-1.2671177E0,-5.855447E-2,5.7813372E-2,6.9572837E-3,-6.4171635E-2,-1.2618771E0,-5.797946E-2,1.1455007E0,5.166292E-2,6.7213024E-3,2.567594E-3,-8.491225E-2,-1.38497455E-2,5.5304147E-2,-6.630867E-2,3.6921106E-2,-5.641477E-2,3.8903024E-2,1.1493805E-3,-3.2022048E-2],"split_indices":[19,15,2,32,32,0,0,39,16,13,26,26,0,2,3,38,0,0,0,36,36,0,39,0,0,0,0,0,0,0,0,0,0,0,0],"split_type":[0,0,0,0,0,0,0,0,0,0,0,0,0,0,0,0,0,0,0,0,0,0,0,0,0,0,0,0,0,0,0,0,0,0,0],"sum_hessian":[7.3856506E2,4.825753E2,2.559898E2,3.4492145E2,1.3765382E2,5.0124865E0,2.5097733E2,1.7903214E1,3.2701825E2,3.474959E1,1.0290423E2,2.4994424E2,1.0330763E0,5.604337E0,1.2298877E1,3.22808E2,4.210223E0,3.367446E1,1.0751281E0,7.1194E1,3.171023E1,2.4787454E2,2.0697074E0,4.582726E0,1.0216115E0,1.0019932E0,1.1296884E1,3.9062908E0,3.1890173E2,6.9193565E1,2.0004404E0,1.3045391E1,1.8664839E1,1.0059029E0,1.0638045E0],"tree_param":{"num_deleted":"0","num_feature":"43","num_nodes":"35","size_leaf_vector":"1"}},{"base_weights":[-4.2510987E-3,5.650067E-1,-1.0939924E0,9.497148E-1,-3.7222728E-1,4.862806E-2,-1.1403918E0,-9.2682725E-1,1.0254683E0,1.120408E0,-8.8793653E-1,-5.750745E-2,1.1843686E-2,4.6710487E-2,-7.466351E-2,1.0673736E0,-5.981044E-2,6.779901E-3,5.735817E-2,-1.1866419E0,7.3277533E-1,9.825007E-3,5.45982E-2,-6.280766E-2,1.456777E-2,-4.7167312E-2,5.468157E-2],"categories":[],"categories_nodes":[],"categories_segments":[],"categories_sizes":[],"default_left":[0,0,0,0,0,0,0,0,0,0,0,0,0,0,0,0,0,0,0,0,0,0,0,0,0,0,0],"id":28,"left_children":[1,3,5,7,9,-1,11,13,15,17,19,-1,-1,-1,-1,21,-1,-1,-1,23,25,-1,-1,-1,-1,-1,-1],"loss_changes":[4.3824805E2,1.676739E2,2.4352905E1,4.7760406E1,1.0550324E2,0E0,3.4646606E0,1.5418064E1,3.0788177E1,7.746887E-1,4.9988785E1,0E0,0E0,0E0,0E0,6.459381E0,0E0,0E0,0E0,9.206917E0,1.0955876E1,0E0,0E0,0E0,0E0,0E0,0E0],"parents":[2147483647,0,0,1,1,2,2,3,3,4,4,6,6,7,7,8,8,9,9,10,10,15,15,19,19,20,20],"right_children":[2,4,6,8,10,-1,12,14,16,18,20,-1,-1,-1,-1,22,-1,-1,-1,24,26,-1,-1,-1,-1,-1,-1],"split_conditions":[8.846691E-2,9.1000825E-1,-5.859066E-1,-4.0619785E-1,-4.2124242E-1,4.862806E-2,7.4839485E-1,-5.174661E-1,3.1650906E0,-1.8746123E0,1.8045739E0,-5.750745E-2,1.1843686E-2,4.6710487E-2,-7.466351E-2,-3.9346156E-1,-5.981044E-2,6.779901E-3,5.735817E-2,-2.505362E-1,-1.2783699E0,9.825007E-3,5.45982E-2,-6.280766E-2,1.456777E-2,-4.7167312E-2,5.468157E-2],"split_indices":[19,15,2,32,32,0,28,11,16,0,42,0,0,0,0,32,0,0,0,16,36,0,0,0,0,0,0],"split_type":[0,0,0,0,0,0,0,0,0,0,0,0,0,0,0,0,0,0,0,0,0,0,0,0,0,0,0],"sum_hessian":[7.044636E2,4.63055E2,2.4140862E2,3.282885E2,1.3476648E2,4.8628945E0,2.3654573E2,1.2302424E1,3.1598608E2,3.4304684E1,1.0046181E2,2.3504546E2,1.5002717E0,2.719221E0,9.583203E0,3.1064624E2,5.3398433E0,1.0678362E0,3.3236847E1,8.505379E1,1.540802E1,8.77756E0,3.0186868E2,8.1376686E1,3.6770961E0,2.4436138E0,1.2964406E1],"tree_param":{"num_deleted":"0","num_feature":"43","num_nodes":"27","size_leaf_vector":"1"}},{"base_weights":[1.1172734E-2,3.7192875E-1,-9.587631E-1,-1.0044602E0,5.8066696E-1,3.191244E-1,-1.1070453E0,-1.0888171E0,4.325258E-2,-1.0319837E-1,8.542087E-1,5.2741975E-2,-5.0356507E-2,-1.1330057E0,3.3200134E-2,2.4853367E-2,-1.1246903E0,1.0664725E0,-4.7829905E-1,9.5104784E-1,-4.238705E-1,-8.797118E-3,-5.6955047E-2,-2.1717727E-2,-5.7144135E-2,5.6400634E-2,-1.6262429E-2,-5.492667E-2,1.704003E-2,4.926125E-2,-5.5667352E-2,-5.651303E-2,2.7532166E-2],"categories":[],"categories_nodes":[],"categories_segments":[],"categories_sizes":[],"default_left":[0,0,0,0,0,0,0,0,0,0,0,0,0,0,0,0,0,0,0,0,0,0,0,0,0,0,0,0,0,0,0,0,0],"id":29,"left_children":[1,3,5,7,9,11,13,15,-1,17,19,-1,-1,21,-1,-1,23,25,27,29,31,-1,-1,-1,-1,-1,-1,-1,-1,-1,-1,-1,-1],"loss_changes":[2.3724799E2,1.425658E2,3.5184708E1,1.1262749E1,8.0478485E1,2.0468271E1,8.335358E0,4.1466293E0,0E0,5.47717E1,3.8408524E1,0E0,0E0,7.4998474E-1,0E0,0E0,2.8188324E-1,2.9654312E0,4.8299507E1,2.1257965E1,1.5986758E1,0E0,0E0,0E0,0E0,0E0,0E0,0E0,0E0,0E0,0E0,0E0,0E0],"parents":[2147483647,0,0,1,1,2,2,3,3,4,4,5,5,6,6,7,7,9,9,10,10,13,13,16,16,17,17,18,18,19,19,20,20],"right_children":[2,4,6,8,10,12,14,16,-1,18,20,-1,-1,22,-1,-1,24,26,28,30,32,-1,-1,-1,-1,-1,-1,-1,-1,-1,-1,-1,-1],"split_conditions":[7.007258E-1,-1.0971043E0,-2.0013332E-1,2.4000874E0,-2.9242122E-1,-4.446751E-1,1.7405924E0,-2.8584534E-1,4.325258E-2,-5.351234E-1,1.9367675E-1,5.2741975E-2,-5.0356507E-2,-1.181066E0,3.3200134E-2,2.4853367E-2,-1.6451496E0,-1.5722859E-1,-3.9288136E-1,3.1650906E0,-7.3510736E-1,-8.797118E-3,-5.6955047E-2,-2.1717727E-2,-5.7144135E-2,5.6400634E-2,-1.6262429E-2,-5.492667E-2,1.704003E-2,4.926125E-2,-5.5667352E-2,-5.651303E-2,2.7532166E-2],"split_indices":[39,36,17,42,14,1,17,23,0,40,33,0,0,16,0,0,16,37,31,16,16,0,0,0,0,0,0,0,0,0,0,0,0],"split_type":[0,0,0,0,0,0,0,0,0,0,0,0,0,0,0,0,0,0,0,0,0,0,0,0,0,0,0,0,0,0,0,0,0],"sum_hessian":[6.760062E2,4.9318756E2,1.8281866E2,6.444364E1,4.2874393E2,1.888829E1,1.6393037E2,6.2060894E1,2.382744E0,1.2267479E2,3.0606915E2,1.2280539E1,6.607753E0,1.6191722E2,2.0131578E0,1.088403E0,6.0972492E1,2.9340277E1,9.333452E1,2.8474973E2,2.1319408E1,1.2136743E0,1.6070354E2,2.2042692E0,5.8768223E1,2.8279285E1,1.0609902E0,5.2920887E1,4.0413628E1,2.806266E2,4.123164E0,1.2267394E1,9.052013E0],"tree_param":{"num_deleted":"0","num_feature":"43","num_nodes":"33","size_leaf_vector":"1"}},{"base_weights":[-1.6330278E-3,5.3671396E-1,-1.1068195E0,-7.2073907E-1,7.823621E-1,3.915416E-2,-5.6421723E-2,-9.8652273E-1,7.0989287E-1,1.2856299E-1,9.295542E-1,-1.0833575E0,1.5000714E-1,-4.3424764E-1,1.0221363E0,-1.6674023E0,6.8880075E-1,-2.5112352E-1,1.0259993E0,-5.4933555E-2,-8.078065E-3,-4.29626E-2,5.2934486E-2,7.5201946E-3,-3.7914805E-2,5.4800868E-2,1.0642694E-2,-5.4380555E-2,-1.0894853E-1,5.1109552E-2,-4.0330987E-2,4.123644E-2,-9.4647676E-2,5.361098E-2,-7.870964E-3],"categories":[],"categories_nodes":[],"categories_segments":[],"categories_sizes":[],"default_left":[0,0,0,0,0,0,0,0,0,0,0,0,0,0,0,0,0,0,0,0,0,0,0,0,0,0,0,0,0,0,0,0,0,0,0],"id":30,"left_children":[1,3,5,7,9,-1,-1,11,13,15,17,19,21,23,25,27,29,31,33,-1,-1,-1,-1,-1,-1,-1,-1,-1,-1,-1,-1,-1,-1,-1,-1],"loss_changes":[3.94788E2,1.3838962E2,9.762238E0,2.8625477E1,3.5848373E1,0E0,0E0,7.0248375E0,4.7622414E0,7.142177E1,3.497815E1,6.3529205E-1,6.2049E0,7.3800653E-1,3.5232258E-1,2.6423874E0,2.7718573E1,4.3652874E1,1.5598114E1,0E0,0E0,0E0,0E0,0E0,0E0,0E0,0E0,0E0,0E0,0E0,0E0,0E0,0E0,0E0,0E0],"parents":[2147483647,0,0,1,1,2,2,3,3,4,4,7,7,8,8,9,9,10,10,11,11,12,12,13,13,14,14,15,15,16,16,17,17,18,18],"right_children":[2,4,6,8,10,-1,-1,12,14,16,18,20,22,24,26,28,30,32,34,-1,-1,-1,-1,-1,-1,-1,-1,-1,-1,-1,-1,-1,-1,-1,-1],"split_conditions":[1.2914489E-1,-1.2038597E0,-5.875727E-1,1.9033674E0,-5.9208053E-1,3.915416E-2,-5.6421723E-2,-4.928144E-1,1.9135396E0,-9.223567E-1,-3.9346156E-1,-1.0950387E0,-1.3321638E0,-1.41117E0,-4.2146555E-1,-1.2671177E0,-5.0219405E-2,-4.9786383E-1,2.5564498E-1,-5.4933555E-2,-8.078065E-3,-4.29626E-2,5.2934486E-2,7.5201946E-3,-3.7914805E-2,5.4800868E-2,1.0642694E-2,-5.4380555E-2,-1.0894853E-1,5.1109552E-2,-4.0330987E-2,4.123644E-2,-9.4647676E-2,5.361098E-2,-7.870964E-3],"split_indices":[19,18,1,42,42,0,0,16,8,38,32,17,38,37,39,38,18,11,33,0,0,0,0,0,0,0,0,0,0,0,0,0,0,0,0],"split_type":[0,0,0,0,0,0,0,0,0,0,0,0,0,0,0,0,0,0,0,0,0,0,0,0,0,0,0,0,0,0,0,0,0,0,0],"sum_hessian":[6.6154E2,4.451954E2,2.163446E2,7.2441124E1,3.7275427E2,2.048007E0,2.142966E2,6.1353294E1,1.1087826E1,6.884251E1,3.0391177E2,5.65794E1,4.7738967E0,2.2934182E0,8.794408E0,1.5898887E1,5.2943615E1,2.2829535E1,2.8108224E2,5.5466072E1,1.1133268E0,2.28755E0,2.486347E0,1.0089393E0,1.2844789E0,7.7340436E0,1.0603639E0,8.917819E0,6.981067E0,4.3550816E1,9.392802E0,1.4092639E1,8.7368965E0,2.706072E2,1.0475048E1],"tree_param":{"num_deleted":"0","num_feature":"43","num_nodes":"35","size_leaf_vector":"1"}},{"base_weights":[-4.5683415E-4,3.51319E-1,-9.460193E-1,-9.460265E-1,5.653008E-1,2.6636568E-1,-1.0929205E0,-1.0402468E0,6.4683986E-1,-1.2375444E-1,8.3193547E-1,5.1778544E-2,-4.990367E-2,-1.1181139E0,4.1795477E-1,3.3801388E-2,-1.0858485E0,1.7626759E-3,4.1374315E-2,1.0396317E0,-4.674951E-1,9.3219125E-1,-6.723945E-1,-5.2571897E-3,-5.6230634E-2,-1.7198835E-3,3.1839598E-2,-5.6170207E-2,-1.2196417E-2,5.532177E-2,-1.5315453E-2,-5.494645E-2,1.5232499E-2,4.930487E-2,-4.0487766E-2,-5.2036922E-2,3.844393E-2],"categories":[],"categories_nodes":[],"categories_segments":[],"categories_sizes":[],"default_left":[0,0,0,0,0,0,0,0,0,0,0,0,0,0,0,0,0,0,0,0,0,0,0,0,0,0,0,0,0,0,0,0,0,0,0,0,0],"id":31,"left_children":[1,3,5,7,9,11,13,15,17,19,21,-1,-1,23,25,-1,27,-1,-1,29,31,33,35,-1,-1,-1,-1,-1,-1,-1,-1,-1,-1,-1,-1,-1,-1],"loss_changes":[2.1114389E2,1.2897256E2,3.0946075E1,1.0560112E1,7.318523E1,1.9907707E1,6.3183746E0,5.632187E0,4.4543588E-1,4.5215008E1,4.3900757E1,0E0,0E0,8.7887573E-1,3.4353018E-1,0E0,1.6657181E0,0E0,0E0,2.6605282E0,4.276655E1,2.6097504E1,1.0626069E1,0E0,0E0,0E0,0E0,0E0,0E0,0E0,0E0,0E0,0E0,0E0,0E0,0E0,0E0],"parents":[2147483647,0,0,1,1,2,2,3,3,4,4,5,5,6,6,7,7,8,8,9,9,10,10,13,13,14,14,16,16,19,19,20,20,21,21,22,22],"right_children":[2,4,6,8,10,12,14,16,18,20,22,-1,-1,24,26,-1,28,-1,-1,30,32,34,36,-1,-1,-1,-1,-1,-1,-1,-1,-1,-1,-1,-1,-1,-1],"split_conditions":[7.007258E-1,-1.051003E0,-2.0013332E-1,2.4000874E0,-2.9242122E-1,-4.446751E-1,1.7405924E0,-5.042523E-1,1.373145E-1,-5.351234E-1,1.9367675E-1,5.1778544E-2,-4.990367E-2,-1.181066E0,-1.3989313E-1,3.3801388E-2,1.8698621E0,1.7626759E-3,4.1374315E-2,-1.5722859E-1,-4.2475423E-1,2.1783583E0,1.7732103E0,-5.2571897E-3,-5.6230634E-2,-1.7198835E-3,3.1839598E-2,-5.6170207E-2,-1.2196417E-2,5.532177E-2,-1.5315453E-2,-5.494645E-2,1.5232499E-2,4.930487E-2,-4.0487766E-2,-5.2036922E-2,3.844393E-2],"split_indices":[39,36,17,42,14,1,17,1,34,40,33,0,0,16,33,0,42,0,0,37,31,16,42,0,0,0,0,0,0,0,0,0,0,0,0,0,0],"split_type":[0,0,0,0,0,0,0,0,0,0,0,0,0,0,0,0,0,0,0,0,0,0,0,0,0,0,0,0,0,0,0,0,0,0,0,0,0],"sum_hessian":[6.3277954E2,4.6165817E2,1.7112137E2,6.487966E1,3.967785E2,1.8405594E1,1.5271577E2,6.1583824E1,3.2958345E0,1.1084954E2,2.8592896E2,1.1556406E1,6.8491864E0,1.5046674E2,2.249025E0,1.236124E0,6.0347702E1,1.0240432E0,2.2717912E0,2.4820477E1,8.602907E1,2.6842047E2,1.7508497E1,1.0687015E0,1.4939804E2,1.0080754E0,1.2409497E0,5.7450653E1,2.8970485E0,2.3816336E1,1.0041407E0,4.7093998E1,3.893507E1,2.6078418E2,7.636294E0,1.4166014E1,3.3424828E0],"tree_param":{"num_deleted":"0","num_feature":"43","num_nodes":"37","size_leaf_vector":"1"}},{"base_weights":[-1.7264098E-2,5.234011E-1,-1.0931892E0,8.9134675E-1,-3.308339E-1,3.758864E-2,-5.571369E-2,-5.934751E-1,1.0114217E0,1.0823255E0,-8.1167823E-1,5.181801E-1,-1.7185326E0,1.052618E0,-5.5128902E-2,5.557629E-2,9.448815E-3,-1.1113257E0,2.3372929E-1,-4.3848272E-2,4.832292E-2,-4.844575E-2,-1.2281784E-1,-1.3611003E-2,5.3715486E-2,-6.024927E-2,2.3107104E-2,-4.268935E-2,5.929879E-2],"categories":[],"categories_nodes":[],"categories_segments":[],"categories_sizes":[],"default_left":[0,0,0,0,0,0,0,0,0,0,0,0,0,0,0,0,0,0,0,0,0,0,0,0,0,0,0,0,0],"id":32,"left_children":[1,3,5,7,9,-1,-1,11,13,15,17,19,21,23,-1,-1,-1,25,27,-1,-1,-1,-1,-1,-1,-1,-1,-1,-1],"loss_changes":[3.5386847E2,1.2755656E2,8.751755E0,5.1103653E1,8.420272E1,0E0,0E0,2.818468E1,2.4016418E1,6.13224E-1,2.9099155E1,8.193333E0,3.7471237E0,7.705017E0,0E0,0E0,0E0,1.1127457E1,2.3107773E1,0E0,0E0,0E0,0E0,0E0,0E0,0E0,0E0,0E0,0E0],"parents":[2147483647,0,0,1,1,2,2,3,3,4,4,7,7,8,8,9,9,10,10,11,11,12,12,13,13,17,17,18,18],"right_children":[2,4,6,8,10,-1,-1,12,14,16,18,20,22,24,-1,-1,-1,26,28,-1,-1,-1,-1,-1,-1,-1,-1,-1,-1],"split_conditions":[1.2914489E-1,9.1000825E-1,-6.027353E-1,-3.9346156E-1,-4.2124242E-1,3.758864E-2,-5.571369E-2,-2.2590053E-1,3.1650906E0,-3.7277755E-1,1.5261688E0,-4.309784E-1,-4.53207E-1,-5.6167555E-1,-5.5128902E-2,5.557629E-2,9.448815E-3,-2.505362E-1,3.3409914E-1,-4.3848272E-2,4.832292E-2,-4.844575E-2,-1.2281784E-1,-1.3611003E-2,5.3715486E-2,-6.024927E-2,2.3107104E-2,-4.268935E-2,5.929879E-2],"split_indices":[19,15,1,32,32,0,0,19,16,13,8,15,1,3,0,0,0,16,28,0,0,0,0,0,0,0,0,0,0],"split_type":[0,0,0,0,0,0,0,0,0,0,0,0,0,0,0,0,0,0,0,0,0,0,0,0,0,0,0,0,0],"sum_hessian":[6.0633545E2,4.0388962E2,2.024458E2,2.822656E2,1.2162403E2,1.8958716E0,2.0054993E2,2.0823538E1,2.6144205E2,3.0559994E1,9.106403E1,1.07454815E1,1.0078057E1,2.569371E2,4.504957E0,2.9356224E1,1.2037699E0,7.072804E1,2.0335993E1,2.3805046E0,8.364977E0,6.146509E0,3.931548E0,3.9530194E0,2.5298407E2,6.6975555E1,3.7524915E0,9.541962E0,1.0794031E1],"tree_param":{"num_deleted":"0","num_feature":"43","num_nodes":"29","size_leaf_vector":"1"}},{"base_weights":[-4.205321E-3,5.3467625E-1,-1.045785E0,9.025738E-1,-3.611979E-1,4.75038E-2,-1.1026149E0,-5.1354456E-1,1.0078903E0,1.0691445E0,-8.051566E-1,-5.5980276E-2,1.9770883E-2,5.311465E-2,-1.6859823E0,3.7581408E-1,1.0594702E0,5.5107355E-2,5.6027384E-3,-1.088795E0,7.2669977E-1,-5.024408E-2,-1.255837E-1,-6.166956E-2,4.92408E-2,-7.4689374E-3,5.415095E-2,-5.682655E-2,2.8231725E-2,-3.9967515E-2,4.9403857E-2],"categories":[],"categories_nodes":[],"categories_segments":[],"categories_sizes":[],"default_left":[0,0,0,0,0,0,0,0,0,0,0,0,0,0,0,0,0,0,0,0,0,0,0,0,0,0,0,0,0,0,0],"id":33,"left_children":[1,3,5,7,9,-1,11,13,15,17,19,-1,-1,-1,21,23,25,-1,-1,27,29,-1,-1,-1,-1,-1,-1,-1,-1,-1,-1],"loss_changes":[3.307229E2,1.2831326E2,2.3834854E1,4.1615326E1,7.309935E1,0E0,5.426422E0,3.8257412E1,7.975006E0,7.4118805E-1,3.8758907E1,0E0,0E0,0E0,4.058056E0,2.1722816E1,6.9055786E0,0E0,0E0,6.4928436E0,6.4745383E0,0E0,0E0,0E0,0E0,0E0,0E0,0E0,0E0,0E0,0E0],"parents":[2147483647,0,0,1,1,2,2,3,3,4,4,6,6,7,7,8,8,9,9,10,10,14,14,15,15,16,16,19,19,20,20],"right_children":[2,4,6,8,10,-1,12,14,16,18,20,-1,-1,-1,22,24,26,-1,-1,28,30,-1,-1,-1,-1,-1,-1,-1,-1,-1,-1],"split_conditions":[7.059151E-2,9.1000825E-1,-6.2584543E-1,-3.9346156E-1,-4.2124242E-1,4.75038E-2,8.760898E-1,-4.9786383E-1,-1.0742313E0,-3.7277755E-1,1.8045739E0,-5.5980276E-2,1.9770883E-2,5.311465E-2,-4.29479E-1,3.2717705E-1,-5.6167555E-1,5.5107355E-2,5.6027384E-3,1.8235253E-1,-1.2783699E0,-5.024408E-2,-1.255837E-1,-6.166956E-2,4.92408E-2,-7.4689374E-3,5.415095E-2,-5.682655E-2,2.8231725E-2,-3.9967515E-2,4.9403857E-2],"split_indices":[19,15,3,32,32,0,28,11,19,13,42,0,0,0,1,31,3,0,0,36,36,0,0,0,0,0,0,0,0,0,0],"split_type":[0,0,0,0,0,0,0,0,0,0,0,0,0,0,0,0,0,0,0,0,0,0,0,0,0,0,0,0,0,0,0],"sum_hessian":[5.8722516E2,3.8732278E2,1.9990236E2,2.7456366E2,1.1275913E2,5.099257E0,1.948031E2,1.8737482E1,2.5582617E2,2.6375278E1,8.638386E1,1.9286821E2,1.9348936E0,8.0336485E0,1.0703835E1,1.992649E1,2.3589967E2,2.5349607E1,1.0256717E0,7.313198E1,1.3251876E1,7.0803647E0,3.6234698E0,5.1892734E0,1.4737218E1,4.4054985E0,2.3149417E2,7.138368E1,1.7482946E0,1.6368599E0,1.1615016E1],"tree_param":{"num_deleted":"0","num_feature":"43","num_nodes":"31","size_leaf_vector":"1"}},{"base_weights":[-1.0061939E-3,5.291929E-1,-1.0472382E0,8.9971304E-1,-3.83493E-1,4.6448864E-2,-1.1006606E0,-8.448882E-1,9.7586936E-1,1.0556854E0,-8.1833255E-1,-5.5562444E-2,-2.9236919E-3,4.014231E-2,-6.677073E-2,3.3948693E-1,1.0311381E0,4.84162E-3,5.4547776E-2,-1.0798492E0,7.034393E-1,-4.8068717E-2,5.272289E-2,-4.427515E-3,5.2604564E-2,-5.6335162E-2,2.2642016E-2,-3.8452085E-2,4.76057E-2],"categories":[],"categories_nodes":[],"categories_segments":[],"categories_sizes":[],"default_left":[0,0,0,0,0,0,0,0,0,0,0,0,0,0,0,0,0,0,0,0,0,0,0,0,0,0,0,0,0],"id":34,"left_children":[1,3,5,7,9,-1,11,13,15,17,19,-1,-1,-1,-1,21,23,-1,-1,25,27,-1,-1,-1,-1,-1,-1,-1,-1],"loss_changes":[3.1003677E2,1.2578438E2,2.0868149E1,3.591742E1,6.833122E1,0E0,1.9598236E0,1.0434701E1,8.567688E0,7.551136E-1,3.3932587E1,0E0,0E0,0E0,0E0,2.124413E1,5.554764E0,0E0,0E0,5.6467133E0,5.429992E0,0E0,0E0,0E0,0E0,0E0,0E0,0E0,0E0],"parents":[2147483647,0,0,1,1,2,2,3,3,4,4,6,6,7,7,8,8,9,9,10,10,15,15,16,16,19,19,20,20],"right_children":[2,4,6,8,10,-1,12,14,16,18,20,-1,-1,-1,-1,22,24,-1,-1,26,28,-1,-1,-1,-1,-1,-1,-1,-1],"split_conditions":[7.059151E-2,9.1000825E-1,-5.993776E-1,-4.0619785E-1,-4.2124242E-1,4.6448864E-2,1.2460173E0,-5.212053E-1,-1.0742313E0,-8.987528E-1,1.9033674E0,-5.5562444E-2,-2.9236919E-3,4.014231E-2,-6.677073E-2,-3.2156385E-2,-4.14321E-1,4.84162E-3,5.4547776E-2,2.6913503E-1,-1.3060068E0,-4.8068717E-2,5.272289E-2,-4.427515E-3,5.2604564E-2,-5.6335162E-2,2.2642016E-2,-3.8452085E-2,4.76057E-2],"split_indices":[19,15,1,32,32,0,26,11,19,38,42,0,0,0,0,17,13,0,0,36,36,0,0,0,0,0,0,0,0],"split_type":[0,0,0,0,0,0,0,0,0,0,0,0,0,0,0,0,0,0,0,0,0,0,0,0,0,0,0,0,0],"sum_hessian":[5.5691644E2,3.6993744E2,1.8697903E2,2.6312973E2,1.0680769E2,4.4901037E0,1.8248894E2,1.0583648E1,2.5254608E2,2.4451935E1,8.235576E1,1.8058794E2,1.900992E0,2.281873E0,8.301775E0,2.0751297E1,2.3179478E2,1.0004029E0,2.3451532E1,7.052622E1,1.1829539E1,7.2377896E0,1.3513508E1,4.1987247E0,2.2759607E2,6.869123E1,1.8349949E0,1.4068108E0,1.0422729E1],"tree_param":{"num_deleted":"0","num_feature":"43","num_nodes":"29","size_leaf_vector":"1"}},{"base_weights":[2.9692769E-3,5.401708E-1,-1.0420549E0,-5.738776E-1,7.525486E-1,4.4927787E-2,-1.0894996E0,-1.0704713E0,2.7488303E-1,8.421695E-1,-2.5848028E-1,-5.4993607E-2,9.771652E-3,-5.6361534E-2,1.1244003E-2,1.1749501E0,-4.9158975E-1,3.01683E-1,9.901175E-1,4.741885E-2,-5.732165E-1,6.3835E-2,5.7853735E-3,-4.2068057E-2,4.015952E-2,4.0440794E-2,-9.302043E-2,-6.576976E-2,5.0893318E-2,1.578916E-2,-5.2662622E-2],"categories":[],"categories_nodes":[],"categories_segments":[],"categories_sizes":[],"default_left":[0,0,0,0,0,0,0,0,0,0,0,0,0,0,0,0,0,0,0,0,0,0,0,0,0,0,0,0,0,0,0],"id":35,"left_children":[1,3,5,7,9,-1,11,13,15,17,19,-1,-1,-1,-1,21,23,25,27,-1,29,-1,-1,-1,-1,-1,-1,-1,-1,-1,-1],"loss_changes":[3.066812E2,8.5798904E1,1.8056335E1,2.4882858E1,2.7715042E1,0E0,2.6340332E0,2.9744644E0,1.5981887E1,2.201091E1,1.0220269E1,0E0,0E0,0E0,0E0,9.908991E-1,6.4565325E0,6.882326E1,1.5323929E1,0E0,9.221514E0,0E0,0E0,0E0,0E0,0E0,0E0,0E0,0E0,0E0,0E0],"parents":[2147483647,0,0,1,1,2,2,3,3,4,4,6,6,7,7,8,8,9,9,10,10,15,15,16,16,17,17,18,18,20,20],"right_children":[2,4,6,8,10,-1,12,14,16,18,20,-1,-1,-1,-1,22,24,26,28,-1,30,-1,-1,-1,-1,-1,-1,-1,-1,-1,-1],"split_conditions":[8.846691E-2,-1.1791105E0,-5.859066E-1,6.850796E-1,2.5808436E-1,4.4927787E-2,8.760898E-1,-7.140982E-1,1.3538797E0,-4.1710457E-1,-9.013802E-2,-5.4993607E-2,9.771652E-3,-5.6361534E-2,1.1244003E-2,2.3557785E0,2.1044714E0,-5.358076E-1,-6.1687887E-1,4.741885E-2,-8.981092E-1,6.3835E-2,5.7853735E-3,-4.2068057E-2,4.015952E-2,4.0440794E-2,-9.302043E-2,-6.576976E-2,5.0893318E-2,1.578916E-2,-5.2662622E-2],"split_indices":[19,38,2,28,13,0,28,17,35,21,35,0,0,0,0,24,6,11,11,0,39,0,0,0,0,0,0,0,0,0,0],"split_type":[0,0,0,0,0,0,0,0,0,0,0,0,0,0,0,0,0,0,0,0,0,0,0,0,0,0,0,0,0,0,0],"sum_hessian":[5.442877E2,3.5980878E2,1.8447896E2,5.7337444E1,3.0247134E2,3.974455E0,1.805045E2,3.6008396E1,2.1329046E1,2.7799588E2,2.4475466E1,1.7920193E2,1.3025665E0,3.4621166E1,1.3872313E0,9.564522E0,1.1764525E1,6.0395805E1,2.1760007E2,4.6462307E0,1.9829235E1,8.53898E0,1.0255419E0,9.538097E0,2.2264278E0,4.942804E1,1.0967764E1,2.0359993E0,2.1556407E2,7.072861E0,1.2756374E1],"tree_param":{"num_deleted":"0","num_feature":"43","num_nodes":"31","size_leaf_vector":"1"}},{"base_weights":[-7.1057556E-3,5.108419E-1,-1.0392622E0,8.774813E-1,-3.3096227E-1,4.3581896E-2,-1.0840666E0,-4.81251E-1,9.9041504E-1,1.0434247E0,-7.612541E-1,1.5821652E-3,-5.4677453E-2,9.05649E-1,-1.4347725E0,1.0354166E0,-5.3260095E-2,5.389017E-2,5.010725E-3,-1.0254189E0,6.986361E-1,5.0013352E-2,5.857491E-3,1.8397247E-2,-8.205118E-2,-1.3156453E-2,5.294281E-2,-5.5947203E-2,2.2056635E-2,-3.957035E-2,5.0001778E-2],"categories":[],"categories_nodes":[],"categories_segments":[],"categories_sizes":[],"default_left":[0,0,0,0,0,0,0,0,0,0,0,0,0,0,0,0,0,0,0,0,0,0,0,0,0,0,0,0,0,0,0],"id":36,"left_children":[1,3,5,7,9,-1,11,13,15,17,19,-1,-1,21,23,25,-1,-1,-1,27,29,-1,-1,-1,-1,-1,-1,-1,-1,-1,-1],"loss_changes":[2.788386E2,1.0748376E2,1.5865967E1,3.7643097E1,6.3540146E1,0E0,1.8408508E0,2.6769497E1,2.1819763E1,7.259693E-1,3.2100758E1,0E0,0E0,5.139742E-1,4.9912415E0,6.9644775E0,0E0,0E0,0E0,1.0000961E1,6.6584873E0,0E0,0E0,0E0,0E0,0E0,0E0,0E0,0E0,0E0,0E0],"parents":[2147483647,0,0,1,1,2,2,3,3,4,4,6,6,7,7,8,8,9,9,10,10,13,13,14,14,15,15,19,19,20,20],"right_children":[2,4,6,8,10,-1,12,14,16,18,20,-1,-1,22,24,26,-1,-1,-1,28,30,-1,-1,-1,-1,-1,-1,-1,-1,-1,-1],"split_conditions":[8.846691E-2,9.1000825E-1,-5.985078E-1,-3.9346156E-1,-4.2124242E-1,4.3581896E-2,-1.4220852E0,-2.1151116E-1,3.1650906E0,-5.5822104E-1,1.8045739E0,1.5821652E-3,-5.4677453E-2,-3.5524976E-1,-5.0299203E-1,-5.6167555E-1,-5.3260095E-2,5.389017E-2,5.010725E-3,-2.573808E-1,-1.2783699E0,5.0013352E-2,5.857491E-3,1.8397247E-2,-8.205118E-2,-1.3156453E-2,5.294281E-2,-5.5947203E-2,2.2056635E-2,-3.957035E-2,5.0001778E-2],"split_indices":[19,15,2,32,32,0,25,39,16,41,42,0,0,33,2,3,0,0,0,16,36,0,0,0,0,0,0,0,0,0,0],"split_type":[0,0,0,0,0,0,0,0,0,0,0,0,0,0,0,0,0,0,0,0,0,0,0,0,0,0,0,0,0,0,0],"sum_hessian":[5.195875E2,3.4631027E2,1.7327728E2,2.4121089E2,1.0509937E2,3.5469315E0,1.6973035E2,1.8259943E1,2.2295094E2,2.4719229E1,8.038014E1,1.4106859E0,1.6831967E2,7.459819E0,1.0800124E1,2.1866032E2,4.290618E0,2.3712254E1,1.0069753E0,6.831607E1,1.2064075E1,6.420771E0,1.0390478E0,1.0283114E0,9.771813E0,3.6956465E0,2.1496468E2,6.44434E1,3.8726733E0,1.7561815E0,1.0307894E1],"tree_param":{"num_deleted":"0","num_feature":"43","num_nodes":"31","size_leaf_vector":"1"}},{"base_weights":[-4.1672606E-3,4.8936495E-1,-1.0609378E0,8.4494114E-1,-3.014003E-1,3.4718987E-2,-1.0833185E0,-2.820298E-1,9.6314967E-1,5.376649E-2,-7.4310225E-1,-1.1500302E-2,-5.4398026E-2,5.129496E-2,-1.4828835E0,1.0128406E0,-5.3637773E-2,-1.0106282E0,6.265797E-1,-4.7117706E-2,-1.0106491E-1,-1.817645E-2,5.181817E-2,-5.4837402E-2,1.7500957E-2,-3.9794795E-2,4.0126424E-2],"categories":[],"categories_nodes":[],"categories_segments":[],"categories_sizes":[],"default_left":[0,0,0,0,0,0,0,0,0,0,0,0,0,0,0,0,0,0,0,0,0,0,0,0,0,0,0],"id":37,"left_children":[1,3,5,7,9,-1,11,13,15,-1,17,-1,-1,-1,19,21,-1,23,25,-1,-1,-1,-1,-1,-1,-1,-1],"loss_changes":[2.610923E2,9.6205696E1,7.0129547E0,3.1665817E1,6.561474E1,0E0,3.7460327E-1,3.7874313E1,2.2687088E1,0E0,3.0419102E1,0E0,0E0,0E0,1.7259808E0,7.141464E0,0E0,8.397453E0,4.1176596E0,0E0,0E0,0E0,0E0,0E0,0E0,0E0,0E0],"parents":[2147483647,0,0,1,1,2,2,3,3,4,4,6,6,7,7,8,8,10,10,14,14,15,15,17,17,18,18],"right_children":[2,4,6,8,10,-1,12,14,16,-1,18,-1,-1,-1,20,22,-1,24,26,-1,-1,-1,-1,-1,-1,-1,-1],"split_conditions":[1.2914489E-1,9.1000825E-1,-6.2669736E-1,-4.2136526E-1,-5.478536E-1,3.4718987E-2,-1.5889614E0,-4.7545534E-1,3.1650906E0,5.376649E-2,1.7732103E0,-1.1500302E-2,-5.4398026E-2,5.129496E-2,-4.4923308E-1,-4.14321E-1,-5.3637773E-2,-2.505362E-1,-6.968904E-2,-4.7117706E-2,-1.0106491E-1,-1.817645E-2,5.181817E-2,-5.4837402E-2,1.7500957E-2,-3.9794795E-2,4.0126424E-2],"split_indices":[19,15,4,21,24,0,25,19,16,0,42,0,0,0,4,13,0,16,26,0,0,0,0,0,0,0,0],"split_type":[0,0,0,0,0,0,0,0,0,0,0,0,0,0,0,0,0,0,0,0,0,0,0,0,0,0,0],"sum_hessian":[4.9861264E2,3.4024744E2,1.583652E2,2.3466104E2,1.05586395E2,1.6157562E0,1.5674944E2,2.2145489E1,2.1251555E2,2.5298767E1,8.028763E1,1.1215942E0,1.5562785E2,1.0669894E1,1.14755945E1,2.0794273E2,4.5728197E0,6.7387634E1,1.2899994E1,7.098976E0,4.3766184E0,3.2512264E0,2.046915E2,6.3558746E1,3.8288853E0,1.0321358E0,1.1867858E1],"tree_param":{"num_deleted":"0","num_feature":"43","num_nodes":"27","size_leaf_vector":"1"}},{"base_weights":[-5.4381127E-3,4.921734E-1,-1.0487757E0,8.386141E-1,-3.034846E-1,3.475741E-2,-1.071743E0,-5.49033E-1,9.64241E-1,1.0354365E0,-7.7219296E-1,-9.649314E-3,-5.3828564E-2,5.0809123E-2,-1.543492E0,1.0059342E0,-5.1108032E-2,4.2362376E-3,5.3494718E-2,-1.0092329E0,8.210364E-1,-4.798366E-2,-9.9852584E-2,-1.9135362E-2,5.1648248E-2,-5.5902507E-2,1.7975045E-2,-1.7735945E-2,5.0865628E-2],"categories":[],"categories_nodes":[],"categories_segments":[],"categories_sizes":[],"default_left":[0,0,0,0,0,0,0,0,0,0,0,0,0,0,0,0,0,0,0,0,0,0,0,0,0,0,0,0,0],"id":38,"left_children":[1,3,5,7,9,-1,11,13,15,17,19,-1,-1,-1,21,23,-1,-1,-1,25,27,-1,-1,-1,-1,-1,-1,-1,-1],"loss_changes":[2.4886282E2,8.9718155E1,6.9448547E0,3.999202E1,6.3044113E1,0E0,4.421234E-1,3.1811926E1,1.8249908E1,7.658558E-1,2.8790218E1,0E0,0E0,0E0,1.3347034E0,8.059113E0,0E0,0E0,0E0,1.00681E1,2.7009678E0,0E0,0E0,0E0,0E0,0E0,0E0,0E0,0E0],"parents":[2147483647,0,0,1,1,2,2,3,3,4,4,6,6,7,7,8,8,9,9,10,10,14,14,15,15,19,19,20,20],"right_children":[2,4,6,8,10,-1,12,14,16,18,20,-1,-1,-1,22,24,-1,-1,-1,26,28,-1,-1,-1,-1,-1,-1,-1,-1],"split_conditions":[1.2914489E-1,9.1000825E-1,-5.875727E-1,-3.9346156E-1,-4.2124242E-1,3.475741E-2,-1.7880924E0,-4.9786383E-1,3.1650906E0,-8.987528E-1,2.033244E0,-9.649314E-3,-5.3828564E-2,5.0809123E-2,-4.29479E-1,-1.2671177E0,-5.1108032E-2,4.2362376E-3,5.3494718E-2,-4.0500045E-1,-1.2449175E0,-4.798366E-2,-9.9852584E-2,-1.9135362E-2,5.1648248E-2,-5.5902507E-2,1.7975045E-2,-1.7735945E-2,5.0865628E-2],"split_indices":[19,15,1,32,32,0,25,11,16,38,42,0,0,0,1,38,0,0,0,16,36,0,0,0,0,0,0,0,0],"split_type":[0,0,0,0,0,0,0,0,0,0,0,0,0,0,0,0,0,0,0,0,0,0,0,0,0,0,0,0,0],"sum_hessian":[4.77347E2,3.2355722E2,1.5378976E2,2.2537276E2,9.818446E1,1.6186427E0,1.5217113E2,1.8429895E1,2.0694286E2,2.514517E1,7.303929E1,1.0554035E0,1.5111572E2,7.151711E0,1.1278184E1,2.0317201E2,3.7708466E0,1.0004666E0,2.4144703E1,6.389898E1,9.140311E0,6.293328E0,4.9848566E0,3.6281044E0,1.9954391E2,5.9362675E1,4.5363045E0,1.192088E0,7.9482236E0],"tree_param":{"num_deleted":"0","num_feature":"43","num_nodes":"29","size_leaf_vector":"1"}},{"base_weights":[-1.0126936E-2,4.6971357E-1,-1.0497955E0,-9.322687E-1,6.248428E-1,3.1713493E-2,-5.3504538E-2,-1.032978E0,3.511972E-1,-1.10404946E-1,7.724472E-1,-7.177041E-3,-5.3005535E-2,5.142104E-3,2.1188898E-2,5.022186E-1,-1.0087831E0,6.092805E-2,8.8994753E-1,-4.231993E-2,3.8260862E-2,1.8345697E-2,-5.62149E-2,2.7093811E-2,-9.256669E-2,4.9612578E-2,-9.120624E-3],"categories":[],"categories_nodes":[],"categories_segments":[],"categories_sizes":[],"default_left":[0,0,0,0,0,0,0,0,0,0,0,0,0,0,0,0,0,0,0,0,0,0,0,0,0,0,0],"id":39,"left_children":[1,3,5,7,9,-1,-1,11,13,15,17,-1,-1,-1,-1,19,21,23,25,-1,-1,-1,-1,-1,-1,-1,-1],"loss_changes":[2.2618814E2,6.805493E1,5.57222E0,4.409666E0,3.0464455E1,0E0,0E0,5.5454445E-1,1.0932028E-2,2.6745872E1,1.9446335E1,0E0,0E0,0E0,0E0,1.0938379E1,3.5371056E0,3.2395214E1,2.2135178E1,0E0,0E0,0E0,0E0,0E0,0E0,0E0,0E0],"parents":[2147483647,0,0,1,1,2,2,3,3,4,4,7,7,8,8,9,9,10,10,15,15,16,16,17,17,18,18],"right_children":[2,4,6,8,10,-1,-1,12,14,16,18,-1,-1,-1,-1,20,22,24,26,-1,-1,-1,-1,-1,-1,-1,-1],"split_conditions":[1.2914489E-1,-1.1338074E0,-6.027353E-1,5.1802015E0,-5.381444E-1,3.1713493E-2,-5.3504538E-2,4.4689175E-2,4.335552E-1,-2.7863038E-1,-3.8960987E-1,-7.177041E-3,-5.3005535E-2,5.142104E-3,2.1188898E-2,-6.399107E-1,-6.587386E-1,-4.6095783E-1,1.5905097E0,-4.231993E-2,3.8260862E-2,1.8345697E-2,-5.62149E-2,2.7093811E-2,-9.256669E-2,4.9612578E-2,-9.120624E-3],"split_indices":[19,36,1,8,26,0,0,13,27,33,32,0,0,0,0,39,34,1,1,0,0,0,0,0,0,0,0],"split_type":[0,0,0,0,0,0,0,0,0,0,0,0,0,0,0,0,0,0,0,0,0,0,0,0,0,0,0],"sum_hessian":[4.51408E2,3.092345E2,1.4217348E2,3.0308796E1,2.7892572E2,1.3327502E0,1.4084073E2,2.8284561E1,2.024233E0,4.667585E1,2.3224986E2,1.0234964E0,2.7261066E1,1.0043849E0,1.0198482E0,2.8013681E1,1.8662169E1,3.313294E1,1.9911691E2,4.2095385E0,2.3804144E1,1.2770554E0,1.7385113E1,2.7047039E1,6.0859013E0,1.818436E2,1.7273325E1],"tree_param":{"num_deleted":"0","num_feature":"43","num_nodes":"27","size_leaf_vector":"1"}},{"base_weights":[2.0351566E-3,4.89444E-1,-1.0386281E0,8.3511615E-1,-2.72192E-1,3.2705124E-2,-1.0603664E0,-6.1395967E-1,9.5824456E-1,5.305314E-2,-7.3212504E-1,-5.328501E-2,-9.422166E-3,4.8431017E-2,-1.3835869E0,9.9565417E-1,-4.8822924E-2,-1.1283872E0,1.2799062E-1,-2.1582825E-2,-7.219957E-2,-3.7436992E-2,5.046628E-2,-6.1622616E-2,2.4898184E-2,-5.0103724E-2,4.0981445E-2],"categories":[],"categories_nodes":[],"categories_segments":[],"categories_sizes":[],"default_left":[0,0,0,0,0,0,0,0,0,0,0,0,0,0,0,0,0,0,0,0,0,0,0,0,0,0,0],"id":40,"left_children":[1,3,5,7,9,-1,11,13,15,-1,17,-1,-1,-1,19,21,-1,23,25,-1,-1,-1,-1,-1,-1,-1,-1],"loss_changes":[2.2565869E2,7.9994194E1,5.9153137E0,3.7814728E1,5.9237495E1,0E0,4.5254517E-1,2.198455E1,1.4918594E1,0E0,2.450531E1,0E0,0E0,0E0,5.609131E-2,5.275818E0,0E0,8.912472E0,1.9143002E1,0E0,0E0,0E0,0E0,0E0,0E0,0E0,0E0],"parents":[2147483647,0,0,1,1,2,2,3,3,4,4,6,6,7,7,8,8,10,10,14,14,15,15,17,17,18,18],"right_children":[2,4,6,8,10,-1,12,14,16,-1,18,-1,-1,-1,20,22,-1,24,26,-1,-1,-1,-1,-1,-1,-1,-1],"split_conditions":[1.2914489E-1,9.1000825E-1,-5.875727E-1,-3.9615613E-1,-4.2124242E-1,3.2705124E-2,1.8565115E0,-4.9786383E-1,3.1650906E0,5.305314E-2,2.387252E-1,-5.328501E-2,-9.422166E-3,4.8431017E-2,-5.1160425E-1,-7.2165453E-1,-4.8822924E-2,-1.07059225E-1,-1.2618771E0,-2.1582825E-2,-7.219957E-2,-3.7436992E-2,5.046628E-2,-6.1622616E-2,2.4898184E-2,-5.0103724E-2,4.0981445E-2],"split_indices":[19,15,1,32,32,0,0,11,16,0,28,0,0,0,6,26,0,16,36,0,0,0,0,0,0,0,0],"split_type":[0,0,0,0,0,0,0,0,0,0,0,0,0,0,0,0,0,0,0,0,0,0,0,0,0,0,0],"sum_hessian":[4.428835E2,3.0197778E2,1.4090573E2,2.0764198E2,9.433579E1,1.4177496E0,1.3948798E2,1.5949455E1,1.9169254E2,2.386087E1,7.047492E1,1.3841899E2,1.0689845E0,5.133962E0,1.0815494E1,1.8853242E2,3.1601079E0,4.8033573E1,2.244135E1,1.1314081E0,9.684086E0,1.0480019E0,1.8748442E2,4.5372524E1,2.661048E0,8.349801E0,1.409155E1],"tree_param":{"num_deleted":"0","num_feature":"43","num_nodes":"27","size_leaf_vector":"1"}},{"base_weights":[-3.662757E-3,-3.2559258E-1,8.67829E-1,4.3785736E-1,-6.552239E-1,-7.4413794E-1,9.792331E-1,-1.500883E0,8.5449827E-1,-1.1056792E0,-2.6053435E-1,3.177078E-2,-5.45789E-2,-3.7257895E-1,1.0132587E0,-7.821684E-1,-1.9158324E0,1.0560921E0,-4.768318E-2,-1.053901E0,-1.6944526E0,8.656932E-1,-5.227274E-1,-2.5945812E-2,-1.5489801E-3,1.0287194E0,-1.231831E-2,7.114331E-3,-4.9281057E-2,-1.02783754E-1,-3.6439605E-2,3.7726462E-3,5.362616E-2,-5.323763E-2,-1.284075E-3,-9.983625E-2,-3.8521346E-2,4.9855664E-2,-2.7349299E-2,3.4272805E-2,-3.4283653E-2,-6.7713694E-3,5.2072283E-2],"categories":[],"categories_nodes":[],"categories_segments":[],"categories_sizes":[],"default_left":[0,0,0,0,0,0,0,0,0,0,0,0,0,0,0,0,0,0,0,0,0,0,0,0,0,0,0,0,0,0,0,0,0,0,0,0,0,0,0,0,0,0,0],"id":41,"left_children":[1,3,5,7,9,11,13,15,17,19,21,-1,-1,23,25,27,29,31,-1,33,35,37,39,-1,-1,41,-1,-1,-1,-1,-1,-1,-1,-1,-1,-1,-1,-1,-1,-1,-1,-1,-1],"loss_changes":[1.1971717E2,7.870183E1,2.1399643E1,7.766766E1,3.8475494E1,4.5324707E0,5.34964E0,3.5983047E0,2.9612118E1,1.3089218E0,3.515387E1,0E0,0E0,1.5314734E-1,2.3121643E0,1.6346302E0,1.8585968E-1,1.0643387E0,0E0,1.0432739E0,2.940426E-1,4.7353687E0,1.9359098E1,0E0,0E0,1.6910782E0,0E0,0E0,0E0,0E0,0E0,0E0,0E0,0E0,0E0,0E0,0E0,0E0,0E0,0E0,0E0,0E0,0E0],"parents":[2147483647,0,0,1,1,2,2,3,3,4,4,5,5,6,6,7,7,8,8,9,9,10,10,13,13,14,14,15,15,16,16,17,17,19,19,20,20,21,21,22,22,25,25],"right_children":[2,4,6,8,10,12,14,16,18,20,22,-1,-1,24,26,28,30,32,-1,34,36,38,40,-1,-1,42,-1,-1,-1,-1,-1,-1,-1,-1,-1,-1,-1,-1,-1,-1,-1,-1,-1],"split_conditions":[6.660363E-1,-5.2792805E-1,-3.9135516E-1,-9.223567E-1,-4.0898812E-1,-5.1926774E-1,-5.381444E-1,-8.063784E-1,-3.0808192E-1,-1.8628735E-2,-3.2849547E-1,3.177078E-2,-5.45789E-2,3.256893E-1,2.6890786E0,-2.8447482E-1,1.0127745E0,-8.987528E-1,-4.768318E-2,-1.325449E-1,-6.56174E-1,-4.0758073E-1,-1.433405E-1,-2.5945812E-2,-1.5489801E-3,-1.2767459E0,-1.231831E-2,7.114331E-3,-4.9281057E-2,-1.02783754E-1,-3.6439605E-2,3.7726462E-3,5.362616E-2,-5.323763E-2,-1.284075E-3,-9.983625E-2,-3.8521346E-2,4.9855664E-2,-2.7349299E-2,3.4272805E-2,-3.4283653E-2,-6.7713694E-3,5.2072283E-2],"split_indices":[34,11,32,38,21,1,26,17,17,34,32,0,0,25,6,34,35,38,0,6,17,11,35,0,0,17,0,0,0,0,0,0,0,0,0,0,0,0,0,0,0,0,0],"split_type":[0,0,0,0,0,0,0,0,0,0,0,0,0,0,0,0,0,0,0,0,0,0,0,0,0,0,0,0,0,0,0,0,0,0,0,0,0,0,0,0,0,0,0],"sum_hessian":[4.24702E2,3.105945E2,1.1410748E2,9.3564354E1,2.1703015E2,7.0091147E0,1.0709837E2,1.6090174E1,7.747418E1,1.0051359E2,1.16516556E2,1.243358E0,5.7657566E0,2.3852265E0,1.0471314E2,6.945379E0,9.144795E0,7.007714E1,7.397045E0,9.495317E1,5.560422E0,2.156863E1,9.494793E1,1.3064705E0,1.078756E0,1.03624565E2,1.0885835E0,1.3070418E0,5.638337E0,7.5263658E0,1.6184293E0,1.2469789E0,6.883016E1,9.392636E1,1.0268081E0,3.3150785E0,2.2453437E0,2.0002031E1,1.5665987E0,1.0902576E1,8.404535E1,1.0162905E0,1.0260827E2],"tree_param":{"num_deleted":"0","num_feature":"43","num_nodes":"43","size_leaf_vector":"1"}},{"base_weights":[-1.3780998E-2,-3.4762922E-1,7.930073E-1,4.103769E-1,-6.8446004E-1,-3.466417E-1,9.807496E-1,-1.4722291E0,8.1539565E-1,-1.1251653E0,-2.8305423E-1,7.5301903E-1,-1.0443072E0,1.0350324E0,-3.356512E-2,-1.6483179E0,1.3545516E-2,9.966635E-1,-8.12905E-1,-1.0450047E-1,-5.3053815E-2,-7.4251926E-1,5.9867156E-1,4.6706256E-2,-6.2986347E-3,-2.4010825E-3,-5.9585806E-2,1.0558802E0,-2.0173255E-2,-9.829589E-2,-4.500333E-2,-6.3053826E-3,5.0795037E-2,-2.6924154E-3,-4.601788E-2,-4.882353E-2,-3.7309658E-3,-3.7378438E-2,4.1082438E-2,5.3481232E-2,-5.1977886E-3],"categories":[],"categories_nodes":[],"categories_segments":[],"categories_sizes":[],"default_left":[0,0,0,0,0,0,0,0,0,0,0,0,0,0,0,0,0,0,0,0,0,0,0,0,0,0,0,0,0,0,0,0,0,0,0,0,0,0,0,0,0],"id":42,"left_children":[1,3,5,7,9,11,13,15,17,19,21,23,25,27,-1,29,-1,31,33,-1,-1,35,37,-1,-1,-1,-1,39,-1,-1,-1,-1,-1,-1,-1,-1,-1,-1,-1,-1,-1],"loss_changes":[1.1078068E2,7.4550186E1,2.6097778E1,6.991441E1,3.5374893E1,1.4416291E1,9.987267E0,5.4533463E0,2.2889881E1,3.7087402E0,4.3763824E1,1.3079739E0,1.6006422E0,3.4464722E0,0E0,1.7847939E0,0E0,1.5917053E0,6.065507E-1,0E0,0E0,1.0981258E1,1.1776568E1,0E0,0E0,0E0,0E0,1.6982346E0,0E0,0E0,0E0,0E0,0E0,0E0,0E0,0E0,0E0,0E0,0E0,0E0,0E0],"parents":[2147483647,0,0,1,1,2,2,3,3,4,4,5,5,6,6,7,7,8,8,9,9,10,10,11,11,12,12,13,13,15,15,17,17,18,18,21,21,22,22,27,27],"right_children":[2,4,6,8,10,12,14,16,18,20,22,24,26,28,-1,30,-1,32,34,-1,-1,36,38,-1,-1,-1,-1,40,-1,-1,-1,-1,-1,-1,-1,-1,-1,-1,-1,-1,-1],"split_conditions":[5.60589E-1,-5.2623814E-1,-2.7573162E-1,-9.223567E-1,-4.1218358E-1,-2.7413368E-1,9.7964454E-1,-6.284583E-1,-2.6472032E-1,-3.0532882E-1,-3.5814273E-1,-2.2551854E-1,-1.6772449E-1,2.1783583E0,-3.356512E-2,1.0127745E0,1.3545516E-2,-8.987528E-1,-6.516539E-1,-1.0450047E-1,-5.3053815E-2,3.3409914E-1,-7.416706E-1,4.6706256E-2,-6.2986347E-3,-2.4010825E-3,-5.9585806E-2,7.196893E-1,-2.0173255E-2,-9.829589E-2,-4.500333E-2,-6.3053826E-3,5.0795037E-2,-2.6924154E-3,-4.601788E-2,-4.882353E-2,-3.7309658E-3,-3.7378438E-2,4.1082438E-2,5.3481232E-2,-5.1977886E-3],"split_indices":[34,11,31,38,22,39,13,39,18,18,16,4,14,16,0,35,0,38,36,0,0,28,27,0,0,0,0,39,0,0,0,0,0,0,0,0,0,0,0,0,0],"split_type":[0,0,0,0,0,0,0,0,0,0,0,0,0,0,0,0,0,0,0,0,0,0,0,0,0,0,0,0,0,0,0,0,0,0,0,0,0,0,0,0,0],"sum_hessian":[4.092733E2,2.8988733E2,1.1938597E2,8.9117775E1,2.0076955E2,1.6765886E1,1.0262009E2,1.5311584E1,7.380619E1,9.484057E1,1.0592897E2,6.477193E0,1.0288694E1,9.971709E1,2.9030006E0,1.3956156E1,1.3554288E0,6.676194E1,7.04425E0,3.9383702E0,9.09022E1,6.974363E1,3.6185345E1,5.318628E0,1.158565E0,1.4969682E0,8.791726E0,9.855474E1,1.1623439E0,8.655098E0,5.301058E0,1.0310291E0,6.573091E1,1.0596819E0,5.984568E0,5.130912E1,1.843451E1,4.8074374E0,3.1377907E1,9.747738E1,1.0773638E0],"tree_param":{"num_deleted":"0","num_feature":"43","num_nodes":"41","size_leaf_vector":"1"}},{"base_weights":[-1.06289275E-2,4.3853757E-1,-1.0370492E0,8.013767E-1,-2.2922751E-1,2.0498496E-2,-5.264398E-2,-6.331892E-1,9.68501E-1,5.22012E-2,-5.827247E-1,4.751792E-2,-1.3485286E0,1.019402E0,-4.9465664E-2,-7.998483E-1,6.5228176E-1,-1.1671177E-2,-7.145404E-2,-2.646841E-2,5.1643815E-2,-5.045532E-2,2.352808E-2,-2.99139E-2,5.0029427E-2],"categories":[],"categories_nodes":[],"categories_segments":[],"categories_sizes":[],"default_left":[0,0,0,0,0,0,0,0,0,0,0,0,0,0,0,0,0,0,0,0,0,0,0,0,0],"id":43,"left_children":[1,3,5,7,9,-1,-1,11,13,-1,15,-1,17,19,-1,21,23,-1,-1,-1,-1,-1,-1,-1,-1],"loss_changes":[1.8426094E2,6.7547264E1,3.218399E0,4.3856148E1,4.5014816E1,0E0,0E0,2.3285172E1,1.7146759E1,0E0,2.1400759E1,0E0,9.054203E-1,3.8508759E0,0E0,1.8198761E1,5.909647E0,0E0,0E0,0E0,0E0,0E0,0E0,0E0,0E0],"parents":[2147483647,0,0,1,1,2,2,3,3,4,4,7,7,8,8,10,10,12,12,13,13,15,15,16,16],"right_children":[2,4,6,8,10,-1,-1,12,14,-1,16,-1,18,20,-1,22,24,-1,-1,-1,-1,-1,-1,-1,-1],"split_conditions":[1.5439342E-1,6.736279E-1,-6.0807705E-1,-3.9135516E-1,-5.478536E-1,2.0498496E-2,-5.264398E-2,-4.9786383E-1,3.1650906E0,5.22012E-2,1.8045739E0,4.751792E-2,-3.025322E-1,-6.551902E-1,-4.9465664E-2,-1.07059225E-1,-1.2312725E0,-1.1671177E-2,-7.145404E-2,-2.646841E-2,5.1643815E-2,-5.045532E-2,2.352808E-2,-2.99139E-2,5.0029427E-2],"split_indices":[19,15,3,32,24,0,0,11,16,0,42,0,19,26,0,16,36,0,0,0,0,0,0,0,0],"split_type":[0,0,0,0,0,0,0,0,0,0,0,0,0,0,0,0,0,0,0,0,0,0,0,0,0],"sum_hessian":[3.976828E2,2.7702713E2,1.2065567E2,1.7936607E2,9.766106E1,1.0362575E0,1.1961941E2,1.8424513E1,1.6094156E2,2.0797546E1,7.686351E1,5.6308823E0,1.2793631E1,1.5733046E2,3.6111062E0,6.567049E1,1.1193023E1,1.1245116E0,1.166912E1,1.026732E0,1.5630373E2,5.655981E1,9.110674E0,2.2820134E0,8.91101E0],"tree_param":{"num_deleted":"0","num_feature":"43","num_nodes":"25","size_leaf_vector":"1"}},{"base_weights":[-1.4340463E-3,4.568125E-1,-1.0403689E0,-8.569172E-1,6.1367303E-1,-3.995978E-3,-5.2412536E-2,-1.0088685E0,3.0470863E-1,-8.2894735E-2,7.3867434E-1,-8.272231E-3,-5.1833678E-2,-3.385151E-2,4.225695E-2,5.021243E-1,-1.0411341E0,-3.6638968E-2,8.7153745E-1,-4.776104E-2,3.7015107E-2,-5.7183154E-2,-1.1213063E-2,2.9979551E-2,-6.795867E-2,-3.2875445E-2,4.618725E-2],"categories":[],"categories_nodes":[],"categories_segments":[],"categories_sizes":[],"default_left":[0,0,0,0,0,0,0,0,0,0,0,0,0,0,0,0,0,0,0,0,0,0,0,0,0,0,0],"id":44,"left_children":[1,3,5,7,9,-1,-1,11,13,15,17,-1,-1,-1,-1,19,21,23,25,-1,-1,-1,-1,-1,-1,-1,-1],"loss_changes":[1.8127548E2,5.4974712E1,7.9842377E-1,5.3557053E0,2.0664314E1,0E0,0E0,4.270668E-1,2.7350023E0,2.1209013E1,2.0708252E1,0E0,0E0,0E0,0E0,8.894423E0,9.4234467E-1,2.6330973E1,1.4289566E1,0E0,0E0,0E0,0E0,0E0,0E0,0E0,0E0],"parents":[2147483647,0,0,1,1,2,2,3,3,4,4,7,7,8,8,9,9,